{"trees":[{"feature":[5,2,1,4,1,1,3,5,-2,-2,1,-2,-2,5,5,-2,-2,3,-2,-2,4,5,-2,-2,-2,1,4,1,5,-2,-2,4,-2,-2,1,5,-2,-2,1,-2,-2,0,1,4,-2,-2,3,-2,-2,5,1,-2,-2,0,-2,-2,5,1,5,5,5,-2,-2,-2,-2,5,-2,1,-2,-2,5,1,-2,-2,5,5,1,-2,-2,-2,-2,2,4,3,1,2,5,-2,-2,4,-2,-2,2,-2,-2,2,3,4,-2,-2,1,-2,-2,1,5,-2,-2,5,-2,-2,2,1,5,1,-2,-2,1,-2,-2,4,1,-2,-2,1,-2,-2,5,1,0,-2,-2,5,-2,-2,1,5,-2,-2,1,-2,-2,1,4,4,4,5,-2,-2,4,-2,-2,2,5,-2,-2,-2,5,2,3,-2,-2,-2,4,1,-2,-2,5,-2,-2,5,2,4,4,-2,-2,5,-2,-2,0,1,-2,-2,3,-2,-2,2,1,1,-2,-2,5,-2,-2,1,5,-2,-2,2,-2,-2,3,0,0,1,1,2,2,-2,-2,-2,1,1,-2,-2,2,-2,-2,2,2,1,-2,-2,1,-2,-2,1,1,-2,-2,1,-2,-2,2,2,1,1,-2,-2,0,-2,-2,0,1,-2,-2,2,-2,-2,1,2,1,-2,-2,2,-2,-2,2,0,-2,-2,2,-2,-2,2,0,1,1,2,-2,-2,2,-2,-2,1,2,-2,-2,2,-2,-2,0,1,1,-2,-2,2,-2,-2,1,1,-2,-2,1,-2,-2,2,0,0,-2,1,-2,-2,1,-2,0,-2,-2,2,2,0,-2,-2,0,-2,-2,0,2,-2,-2,1,-2,-2,2,4,1,1,4,4,-2,-2,0,-2,-2,4,1,-2,-2,-2,3,1,0,-2,-2,4,-2,-2,4,1,-2,-2,1,-2,-2,4,3,4,0,-2,-2,1,-2,-2,-2,1,-2,3,4,-2,-2,4,-2,-2,1,3,1,1,2,-2,-2,0,-2,-2,4,1,-2,-2,4,-2,-2,4,4,4,-2,-2,1,-2,-2,1,4,-2,-2,2,-2,-2,4,1,4,2,-2,-2,2,-2,-2,2,-2,2,-2,-2,2,-2,2,-2,-2],"threshold":[89.5,0.5,356.5,11.5,39.5,22.5,1.5,15.5,-2.0,-2.0,21.5,-2.0,-2.0,13.5,11.0,-2.0,-2.0,2.5,-2.0,-2.0,0.5,10.5,-2.0,-2.0,-2.0,36.5,14.5,27.5,19.0,-2.0,-2.0,13.5,-2.0,-2.0,30.5,10.5,-2.0,-2.0,34.5,-2.0,-2.0,10.5,38.5,22.5,-2.0,-2.0,0.5,-2.0,-2.0,32.5,351.5,-2.0,-2.0,11.5,-2.0,-2.0,20.5,363.5,19.5,18.5,17.5,-2.0,-2.0,-2.0,-2.0,15.5,-2.0,364.5,-2.0,-2.0,21.5,361.5,-2.0,-2.0,45.0,42.0,359.0,-2.0,-2.0,-2.0,-2.0,2.5,14.5,1.5,28.5,1.5,32.5,-2.0,-2.0,6.5,-2.0,-2.0,1.5,-2.0,-2.0,1.5,2.5,0.5,-2.0,-2.0,39.5,-2.0,-2.0,28.5,16.5,-2.0,-2.0,11.5,-2.0,-2.0,1.5,21.5,38.5,15.5,-2.0,-2.0,1.5,-2.0,-2.0,31.5,32.5,-2.0,-2.0,364.5,-2.0,-2.0,69.5,355.5,11.5,-2.0,-2.0,18.5,-2.0,-2.0,313.5,87.5,-2.0,-2.0,314.5,-2.0,-2.0,28.5,8.5,6.5,3.5,35.5,-2.0,-2.0,5.5,-2.0,-2.0,6.5,23.5,-2.0,-2.0,-2.0,24.5,7.5,0.5,-2.0,-2.0,-2.0,28.0,24.5,-2.0,-2.0,26.0,-2.0,-2.0,35.5,3.5,15.0,7.0,-2.0,-2.0,9.0,-2.0,-2.0,1.5,30.5,-2.0,-2.0,2.0,-2.0,-2.0,3.5,295.5,291.5,-2.0,-2.0,47.0,-2.0,-2.0,353.5,79.5,-2.0,-2.0,7.5,-2.0,-2.0,1.0,6.0,1.5,13.5,1.5,7.5,3.5,-2.0,-2.0,-2.0,6.5,2.5,-2.0,-2.0,1.5,-2.0,-2.0,3.5,1.5,28.5,-2.0,-2.0,30.5,-2.0,-2.0,19.5,16.5,-2.0,-2.0,30.5,-2.0,-2.0,2.5,0.5,37.5,32.5,-2.0,-2.0,2.5,-2.0,-2.0,2.5,52.5,-2.0,-2.0,1.5,-2.0,-2.0,53.5,3.5,33.5,-2.0,-2.0,7.5,-2.0,-2.0,3.5,2.5,-2.0,-2.0,6.5,-2.0,-2.0,2.5,10.5,290.5,279.5,0.5,-2.0,-2.0,0.5,-2.0,-2.0,292.5,1.5,-2.0,-2.0,0.5,-2.0,-2.0,11.5,315.5,308.5,-2.0,-2.0,0.5,-2.0,-2.0,363.5,362.5,-2.0,-2.0,364.5,-2.0,-2.0,3.5,10.5,9.5,-2.0,279.5,-2.0,-2.0,305.5,-2.0,11.5,-2.0,-2.0,5.5,4.5,11.5,-2.0,-2.0,11.5,-2.0,-2.0,11.5,7.5,-2.0,-2.0,344.5,-2.0,-2.0,0.5,19.5,46.5,35.5,9.0,7.5,-2.0,-2.0,1.5,-2.0,-2.0,16.5,36.5,-2.0,-2.0,-2.0,2.5,63.5,2.5,-2.0,-2.0,14.5,-2.0,-2.0,11.0,48.5,-2.0,-2.0,56.5,-2.0,-2.0,21.5,2.5,20.5,2.5,-2.0,-2.0,56.5,-2.0,-2.0,-2.0,42.5,-2.0,2.5,29.5,-2.0,-2.0,26.5,-2.0,-2.0,77.5,2.5,64.5,25.5,4.5,-2.0,-2.0,1.5,-2.0,-2.0,24.5,68.5,-2.0,-2.0,25.5,-2.0,-2.0,22.5,19.5,12.5,-2.0,-2.0,61.5,-2.0,-2.0,65.5,23.5,-2.0,-2.0,2.5,-2.0,-2.0,29.5,79.5,27.5,5.0,-2.0,-2.0,1.5,-2.0,-2.0,1.5,-2.0,6.5,-2.0,-2.0,1.5,-2.0,3.0,-2.0,-2.0],"children_left":[1,2,3,4,5,6,7,8,-1,-1,11,-1,-1,14,15,-1,-1,18,-1,-1,21,22,-1,-1,-1,26,27,28,29,-1,-1,32,-1,-1,35,36,-1,-1,39,-1,-1,42,43,44,-1,-1,47,-1,-1,50,51,-1,-1,54,-1,-1,57,58,59,60,61,-1,-1,-1,-1,66,-1,68,-1,-1,71,72,-1,-1,75,76,77,-1,-1,-1,-1,82,83,84,85,86,87,-1,-1,90,-1,-1,93,-1,-1,96,97,98,-1,-1,101,-1,-1,104,105,-1,-1,108,-1,-1,111,112,113,114,-1,-1,117,-1,-1,120,121,-1,-1,124,-1,-1,127,128,129,-1,-1,132,-1,-1,135,136,-1,-1,139,-1,-1,142,143,144,145,146,-1,-1,149,-1,-1,152,153,-1,-1,-1,157,158,159,-1,-1,-1,163,164,-1,-1,167,-1,-1,170,171,172,173,-1,-1,176,-1,-1,179,180,-1,-1,183,-1,-1,186,187,188,-1,-1,191,-1,-1,194,195,-1,-1,198,-1,-1,201,202,203,204,205,206,207,-1,-1,-1,211,212,-1,-1,215,-1,-1,218,219,220,-1,-1,223,-1,-1,226,227,-1,-1,230,-1,-1,233,234,235,236,-1,-1,239,-1,-1,242,243,-1,-1,246,-1,-1,249,250,251,-1,-1,254,-1,-1,257,258,-1,-1,261,-1,-1,264,265,266,267,268,-1,-1,271,-1,-1,274,275,-1,-1,278,-1,-1,281,282,283,-1,-1,286,-1,-1,289,290,-1,-1,293,-1,-1,296,297,298,-1,300,-1,-1,303,-1,305,-1,-1,308,309,310,-1,-1,313,-1,-1,316,317,-1,-1,320,-1,-1,323,324,325,326,327,328,-1,-1,331,-1,-1,334,335,-1,-1,-1,339,340,341,-1,-1,344,-1,-1,347,348,-1,-1,351,-1,-1,354,355,356,357,-1,-1,360,-1,-1,-1,364,-1,366,367,-1,-1,370,-1,-1,373,374,375,376,377,-1,-1,380,-1,-1,383,384,-1,-1,387,-1,-1,390,391,392,-1,-1,395,-1,-1,398,399,-1,-1,402,-1,-1,405,406,407,408,-1,-1,411,-1,-1,414,-1,416,-1,-1,419,-1,421,-1,-1],"children_right":[200,81,56,25,20,13,10,9,-1,-1,12,-1,-1,17,16,-1,-1,19,-1,-1,24,23,-1,-1,-1,41,34,31,30,-1,-1,33,-1,-1,38,37,-1,-1,40,-1,-1,49,46,45,-1,-1,48,-1,-1,53,52,-1,-1,55,-1,-1,70,65,64,63,62,-1,-1,-1,-1,67,-1,69,-1,-1,74,73,-1,-1,80,79,78,-1,-1,-1,-1,141,110,95,92,89,88,-1,-1,91,-1,-1,94,-1,-1,103,100,99,-1,-1,102,-1,-1,107,106,-1,-1,109,-1,-1,126,119,116,115,-1,-1,118,-1,-1,123,122,-1,-1,125,-1,-1,134,131,130,-1,-1,133,-1,-1,138,137,-1,-1,140,-1,-1,169,156,151,148,147,-1,-1,150,-1,-1,155,154,-1,-1,-1,162,161,160,-1,-1,-1,166,165,-1,-1,168,-1,-1,185,178,175,174,-1,-1,177,-1,-1,182,181,-1,-1,184,-1,-1,193,190,189,-1,-1,192,-1,-1,197,196,-1,-1,199,-1,-1,322,263,232,217,210,209,208,-1,-1,-1,214,213,-1,-1,216,-1,-1,225,222,221,-1,-1,224,-1,-1,229,228,-1,-1,231,-1,-1,248,241,238,237,-1,-1,240,-1,-1,245,244,-1,-1,247,-1,-1,256,253,252,-1,-1,255,-1,-1,260,259,-1,-1,262,-1,-1,295,280,273,270,269,-1,-1,272,-1,-1,277,276,-1,-1,279,-1,-1,288,285,284,-1,-1,287,-1,-1,292,291,-1,-1,294,-1,-1,307,302,299,-1,301,-1,-1,304,-1,306,-1,-1,315,312,311,-1,-1,314,-1,-1,319,318,-1,-1,321,-1,-1,372,353,338,333,330,329,-1,-1,332,-1,-1,337,336,-1,-1,-1,346,343,342,-1,-1,345,-1,-1,350,349,-1,-1,352,-1,-1,363,362,359,358,-1,-1,361,-1,-1,-1,365,-1,369,368,-1,-1,371,-1,-1,404,389,382,379,378,-1,-1,381,-1,-1,386,385,-1,-1,388,-1,-1,397,394,393,-1,-1,396,-1,-1,401,400,-1,-1,403,-1,-1,418,413,410,409,-1,-1,412,-1,-1,415,-1,417,-1,-1,420,-1,422,-1,-1],"value":[[0,0,0,0,0,0,0,0,0,0,0,0],[0,0,0,0,0,0,0,0,0,0,0,0],[0,0,0,0,0,0,0,0,0,0,0,0],[0,0,0,0,0,0,0,0,0,0,0,0],[0,0,0,0,0,0,0,0,0,0,0,0],[0,0,0,0,0,0,0,0,0,0,0,0],[0,0,0,0,0,0,0,0,0,0,0,0],[0,0,0,0,0,0,0,0,0,0,0,0],[0,0,0,0,0,0,0,0,0,0,0,0],[0,0,0,0,0,0,0,0,0,0,0,0],[0,0,0,0,0,0,0,0,0,0,0,0],[0,0,0,0,0,0,0,0,0,0,0,0],[0,0,1,0,0,0,0,0,0,0,0,0],[0,0,0,0,0,0,0,0,0,0,0,0],[0,0,0,0,0,0,0,0,0,0,0,0],[0,0,0,0,1,0,0,0,0,0,0,0],[0,0,0,0,0,0,0,0,0,0,0,0],[0,0,0,0,0,0,0,0,0,0,0,0],[0,0,0,0,0,0,0,0,0,0,0,0],[0,0,0,0,0,0,0,0,0,0,0,0],[0,0,0,0,0,0,0,0,0,0,0,0],[0,0,0,0,0,0,0,0,0,0,0,0],[0,0,0,0,0,0,0,0,0,0,0,0],[0,0,0,0,0,0,0,0,0,0,0,0],[0,0,0,0,0,0,0,0,0,0,0,0],[0,0,0,0,0,0,0,0,0,0,0,0],[0,0,0,0,0,0,0,0,0,0,0,0],[0,0,0,0,0,0,0,0,0,0,0,0],[0,0,0,0,0,0,0,0,0,0,0,0],[0,0,0,0,0,0,0,0,0,0,0,0],[0,0,0,0,0,0,0,0,0,0,0,0],[0,0,0,0,0,0,0,0,0,0,0,0],[0,0,0,0,0,0,0,0,0,0,0,0],[0,0,0,0,0,0,0,0,0,0,0,0],[0,0,0,0,0,0,0,0,0,0,0,0],[0,0,0,0,0,0,0,0,0,0,0,0],[0,0,0,0,0,0,0,0,0,0,0,0],[0,0,0,0,0,0,0,0,0,0,0,0],[0,0,0,0,0,0,0,0,0,0,0,0],[0,0,0,0,0,0,0,0,0,0,0,0],[0,0,0,0,0,0,0,0,0,0,0,0],[0,0,0,0,0,0,0,0,0,0,0,0],[0,0,0,0,0,0,0,0,0,0,0,0],[0,0,0,0,0,0,0,0,0,0,0,0],[0,0,0,0,0,0,0,0,0,0,0,0],[0,0,0,0,0,0,0,0,0,0,0,0],[0,0,0,0,0,0,0,0,0,0,0,0],[0,0,0,0,0,0,0,0,0,0,0,0],[0,0,0,0,0,0,0,0,0,0,0,0],[0,0,0,0,0,0,0,0,0,0,0,0],[0,0,0,0,0,0,0,0,0,0,0,0],[0,0,0,0,0,0,0,0,0,0,0,0],[0,0,0,0,0,0,0,0,0,0,0,0],[0,0,0,0,0,0,0,0,0,0,0,0],[0,0,0,0,0,0,0,0,0,0,0,0],[0,0,0,0,0,0,0,0,0,0,0,0],[0,0,0,0,0,0,0,0,0,0,0,0],[0,0,0,0,0,0,0,0,0,0,0,0],[0,0,0,0,0,0,0,0,0,0,0,0],[0,0,0,0,0,0,0,0,0,0,0,0],[0,0,0,0,0,0,0,0,0,0,0,0],[0,0,0,0,0,0,0,0,0,0,0,0],[0,0,0,0,0,0,0,0,0,0,0,0],[0,0,0,0,0,0,0,0,0,0,0,0],[0,0,0,0,0,0,0,0,0,0,0,0],[0,0,0,0,0,0,0,0,0,0,0,0],[0,0,0,0,0,0,0,0,0,0,0,0],[0,0,0,0,0,0,0,0,0,0,0,0],[0,0,0,0,0,0,0,0,0,0,0,0],[0,0,0,0,0,0,0,0,1,0,0,0],[0,0,0,0,0,0,0,0,0,0,0,0],[0,0,0,0,0,0,0,0,0,0,0,0],[0,0,0,0,0,0,0,0,0,0,0,0],[0,0,0,0,0,1,0,0,0,0,0,0],[0,0,0,0,0,0,0,0,0,0,0,0],[0,0,0,0,0,0,0,0,0,0,0,0],[0,0,0,0,0,0,0,0,0,0,0,0],[0,0,0,0,0,0,0,0,0,0,0,0],[0,0,0,0,0,0,0,0,1,0,0,0],[0,0,0,0,0,0,0,0,0,0,0,1],[0,0,1,0,0,0,0,0,0,0,0,0],[0,0,0,0,0,0,0,0,0,0,0,0],[0,0,0,0,0,0,0,0,0,0,0,0],[0,0,0,0,0,0,0,0,0,0,0,0],[0,0,0,0,0,0,0,0,0,0,0,0],[0,0,0,0,0,0,0,0,0,0,0,0],[0,0,0,0,0,0,0,0,0,0,0,0],[0,0,0,0,0,0,0,0,0,0,0,0],[0,0,0,0,0,0,0,0,0,0,0,0],[0,0,0,0,0,0,0,0,0,0,0,0],[0,0,0,0,0,0,0,0,0,0,0,0],[0,0,0,0,0,0,0,0,0,0,0,0],[0,0,0,0,0,0,0,0,0,0,0,0],[0,0,0,0,0,0,0,0,0,0,0,0],[0,0,0,0,0,0,0,0,0,0,1,0],[0,0,0,0,0,0,0,0,0,0,0,0],[0,0,0,0,0,0,0,0,0,0,0,0],[0,0,0,0,0,0,0,0,0,0,0,0],[0,0,0,0,0,0,0,0,0,0,0,0],[0,0,0,0,0,0,0,0,0,0,0,0],[0,0,0,0,0,0,0,0,0,0,0,0],[0,0,0,0,0,0,0,0,0,0,0,0],[0,0,0,0,0,0,0,0,0,0,0,0],[0,0,0,0,0,0,0,0,0,0,0,0],[0,0,0,0,0,0,0,0,0,0,0,0],[0,0,0,0,0,0,0,0,0,0,0,0],[0,0,0,0,0,0,0,0,0,0,0,0],[0,0,0,0,0,0,0,0,0,0,0,0],[0,0,0,0,0,0,0,0,1,0,0,0],[0,0,0,0,0,0,0,0,0,0,0,0],[0,0,0,0,0,0,0,0,0,0,0,0],[0,0,0,0,0,0,0,0,0,0,0,0],[0,0,0,0,0,0,0,0,0,0,0,0],[0,0,0,0,0,0,0,0,0,0,0,0],[0,0,0,0,0,0,0,0,0,0,0,0],[0,0,0,0,0,0,0,0,0,0,0,0],[0,0,0,0,0,0,0,0,0,0,0,0],[0,0,0,0,0,0,0,0,0,0,0,0],[0,0,0,0,0,0,0,0,0,0,0,0],[0,0,0,0,0,0,0,0,0,0,0,0],[0,0,0,0,0,0,0,0,0,0,0,0],[0,0,0,0,0,0,0,0,0,0,0,0],[0,0,0,0,0,0,1,0,0,0,0,0],[0,0,0,0,0,0,0,0,0,0,0,0],[0,0,0,0,0,0,0,0,0,0,0,0],[0,0,0,0,0,0,0,0,0,0,0,0],[0,0,0,0,0,0,0,0,0,0,0,0],[0,0,0,0,0,0,0,0,0,0,0,0],[0,0,0,0,0,0,0,0,0,0,0,0],[0,0,0,0,0,0,0,0,0,0,0,0],[0,0,0,0,0,0,0,0,0,0,0,0],[0,0,0,0,0,0,0,0,0,0,0,0],[0,0,0,0,0,0,0,0,0,0,0,0],[0,0,0,0,0,0,0,0,0,0,0,0],[0,0,0,0,0,0,0,0,0,0,0,0],[0,0,0,0,0,0,0,0,0,0,0,0],[0,0,0,0,0,0,0,0,0,0,0,0],[0,0,0,0,0,0,0,0,0,0,0,0],[0,0,0,0,0,0,0,0,0,0,0,0],[0,0,0,0,0,0,0,0,0,0,0,0],[0,0,0,0,0,0,0,0,0,0,0,0],[0,0,0,0,0,0,0,0,0,0,0,0],[0,0,0,0,0,0,0,0,0,0,0,0],[0,0,0,0,0,0,0,0,0,0,0,0],[0,0,0,0,0,0,0,0,0,0,0,0],[0,0,0,0,0,0,0,0,0,0,0,0],[0,0,0,0,0,0,0,0,0,0,0,0],[0,0,0,0,0,0,0,0,0,0,0,0],[0,0,0,0,0,0,0,0,0,0,0,0],[0,0,0,0,0,0,0,0,0,0,0,0],[0,0,0,0,0,0,0,0,0,0,0,0],[0,0,0,0,0,0,0,0,0,0,0,0],[0,0,0,0,0,0,0,0,0,0,0,0],[0,0,0,0,0,1,0,0,0,0,0,0],[0,0,0,0,0,0,0,0,0,0,0,0],[0,0,0,0,0,0,0,0,0,1,0,0],[0,0,0,0,0,0,0,0,0,0,0,0],[0,0,0,0,0,0,0,0,0,0,0,0],[0,0,0,0,0,0,0,0,0,0,0,0],[0,0,0,0,0,0,0,0,0,0,0,0],[0,0,0,0,0,0,0,0,0,0,0,0],[1,0,0,0,0,0,0,0,0,0,0,0],[0,0,0,0,0,0,0,0,0,0,0,0],[0,0,0,0,0,0,0,0,0,0,0,0],[0,0,0,0,0,0,1,0,0,0,0,0],[0,0,0,0,0,0,0,0,0,0,0,0],[0,0,0,0,0,0,0,0,0,0,0,0],[0,0,1,0,0,0,0,0,0,0,0,0],[0,0,0,0,0,0,0,0,0,0,0,0],[0,0,0,0,0,0,0,0,0,0,0,0],[0,0,0,0,0,0,0,0,0,0,0,0],[0,0,0,0,0,0,0,0,0,0,0,0],[0,0,0,0,0,0,0,0,0,0,0,0],[0,0,0,1,0,0,0,0,0,0,0,0],[0,0,0,0,0,0,0,0,0,0,0,0],[0,0,0,0,0,0,0,0,0,0,0,0],[0,0,0,0,0,0,0,0,0,0,0,0],[0,0,0,0,0,0,0,0,0,0,0,0],[0,0,0,0,0,0,0,0,0,0,0,0],[0,0,0,0,0,0,0,0,0,0,0,0],[0,0,0,0,0,0,0,0,0,0,0,0],[0,0,0,0,0,0,0,0,0,0,0,0],[0,0,0,0,0,0,0,0,0,0,0,0],[0,0,0,0,0,0,0,0,0,0,0,0],[0,0,0,0,0,0,0,0,0,0,0,0],[0,0,0,0,0,0,0,0,0,0,0,0],[0,0,0,0,0,0,0,0,0,0,0,0],[0,0,0,0,0,0,0,0,0,0,0,0],[0,0,0,0,0,0,0,0,0,0,0,0],[0,1,0,0,0,0,0,0,0,0,0,0],[0,0,0,0,0,0,0,0,0,0,0,0],[0,0,0,0,0,0,0,0,0,0,0,0],[0,0,0,0,0,0,0,0,0,0,0,0],[0,0,0,0,0,0,0,0,0,0,0,0],[0,0,0,0,0,0,0,0,0,0,0,0],[0,0,0,0,0,0,0,0,0,0,0,0],[0,0,0,0,0,0,0,0,0,0,0,0],[0,0,0,0,0,0,0,0,0,0,0,0],[0,0,0,0,0,0,0,0,0,0,0,0],[0,0,0,0,0,0,0,0,0,1,0,0],[0,0,0,0,0,0,0,0,0,0,0,0],[0,0,0,0,0,0,0,0,0,0,0,0],[0,0,0,0,0,0,0,0,0,0,0,0],[0,0,0,0,0,0,0,0,0,0,0,0],[0,0,0,0,0,0,0,0,0,0,0,0],[0,0,0,0,0,0,0,0,0,0,0,0],[0,0,0,0,0,0,0,0,0,0,0,0],[0,0,0,0,0,0,0,0,0,0,0,0],[0,0,0,0,0,0,0,0,0,0,0,0],[0,0,0,0,0,0,1,0,0,0,0,0],[0,0,0,0,0,0,0,0,0,0,0,0],[0,0,0,0,0,0,0,0,0,0,0,0],[0,0,0,0,0,0,0,0,0,0,0,0],[0,0,0,0,0,0,0,0,0,0,0,0],[0,0,0,0,0,0,0,0,0,0,0,0],[0,0,0,0,0,0,0,0,0,0,0,0],[0,0,0,0,0,0,0,0,0,0,0,0],[0,0,0,0,0,0,0,0,0,0,0,0],[0,0,0,0,0,0,0,0,0,0,0,0],[0,0,0,0,0,0,0,0,0,0,0,0],[0,0,0,0,0,0,0,0,0,0,0,0],[0,0,0,0,0,0,0,0,0,0,0,0],[0,0,0,0,0,0,0,0,0,0,0,0],[0,0,0,0,0,0,0,0,0,0,0,0],[0,0,0,0,0,0,0,0,0,0,0,0],[0,0,0,0,0,0,0,0,0,0,0,0],[0,0,0,0,0,0,0,0,0,0,0,0],[0,0,0,0,0,0,0,0,0,0,0,0],[0,0,0,0,0,0,0,0,0,0,0,0],[0,0,0,0,0,0,0,0,0,0,0,0],[0,0,0,0,0,0,0,0,0,0,0,0],[0,0,0,0,0,0,0,0,0,0,0,0],[0,0,0,0,0,0,0,0,0,0,0,0],[0,0,0,0,0,0,0,0,0,0,0,0],[0,0,0,0,0,0,0,0,0,0,0,0],[0,0,0,0,0,0,0,0,0,0,0,0],[0,0,0,0,0,0,0,0,1,0,0,0],[0,0,0,0,0,0,0,0,0,0,0,0],[0,0,0,0,0,0,0,0,0,0,0,0],[0,0,0,0,0,0,0,0,0,0,0,0],[0,0,0,0,0,0,0,0,0,0,0,0],[0,0,0,0,0,0,0,0,0,0,0,0],[0,0,0,0,0,0,0,0,0,0,0,0],[0,0,0,0,0,0,0,0,0,0,0,0],[0,0,0,0,0,0,0,0,0,0,0,0],[0,0,0,0,0,0,0,0,0,0,0,0],[0,0,0,0,0,0,0,0,0,0,0,0],[0,0,0,0,0,0,0,0,0,0,0,0],[0,0,0,0,0,0,0,0,0,0,0,0],[0,0,0,0,0,0,0,0,0,0,0,0],[0,0,0,0,0,0,0,0,0,0,0,0],[0,0,0,0,0,0,0,0,0,0,0,0],[0,0,0,0,0,0,0,0,0,0,0,0],[0,0,0,0,0,0,0,0,0,0,0,0],[0,0,0,0,0,0,0,0,0,0,0,0],[0,0,0,0,0,0,0,0,0,0,0,0],[0,0,0,0,0,0,0,0,0,0,0,0],[0,0,0,0,0,0,0,0,0,0,0,0],[0,0,0,0,0,0,0,0,0,0,0,0],[0,0,0,0,0,0,0,0,0,0,0,0],[0,0,0,0,0,0,0,0,0,0,0,0],[0,0,0,0,0,0,0,0,0,0,0,0],[0,0,0,0,0,0,0,0,0,0,0,0],[0,0,0,0,0,0,0,0,0,0,0,0],[0,0,0,0,0,0,0,0,0,0,0,0],[0,0,0,0,0,0,0,0,0,0,0,0],[0,0,0,0,0,0,0,0,0,0,0,0],[0,0,0,0,0,0,0,0,0,0,0,0],[0,0,0,0,0,0,0,0,0,0,0,0],[0,0,0,0,0,0,0,0,0,0,0,0],[0,0,0,0,0,0,0,0,0,0,0,0],[0,0,0,0,0,0,0,0,0,0,0,0],[0,0,0,0,0,0,0,0,0,0,0,0],[0,0,0,0,0,0,0,0,0,0,0,0],[0,0,0,0,0,0,0,0,0,0,0,0],[0,0,0,0,0,0,0,0,0,0,0,0],[0,0,0,0,0,0,0,0,0,0,0,0],[0,0,0,0,0,0,0,0,0,0,0,0],[0,0,0,0,0,0,0,0,0,0,0,0],[0,0,0,0,0,0,0,0,0,0,0,0],[0,0,0,0,0,0,0,0,0,0,0,0],[0,0,0,0,0,0,0,0,0,0,0,0],[0,0,0,0,0,0,0,0,0,0,0,0],[0,0,0,0,0,0,0,0,0,0,0,0],[0,0,0,0,0,0,0,0,0,0,0,0],[0,0,0,0,0,0,0,0,0,0,0,0],[0,0,0,0,0,0,0,0,0,0,0,0],[0,0,0,0,0,0,0,0,0,0,0,0],[0,0,0,0,0,0,0,0,0,0,0,0],[0,0,0,0,0,0,0,0,0,0,0,0],[0,0,0,0,0,0,0,0,0,0,0,0],[0,0,0,0,0,0,0,0,0,0,0,0],[0,0,0,0,0,0,0,0,0,0,0,0],[0,0,0,0,0,0,0,0,0,0,0,0],[0,0,0,0,0,0,0,0,0,0,0,0],[0,0,0,0,0,0,0,0,0,0,0,0],[0,0,0,0,0,0,0,0,0,0,0,0],[0,0,0,0,0,0,0,0,0,0,0,0],[0,0,0,1,0,0,0,0,0,0,0,0],[0,0,0,0,0,0,0,0,0,0,0,0],[0,0,0,1,0,0,0,0,0,0,0,0],[0,0,0,0,0,0,0,0,0,0,0,0],[0,0,0,0,0,0,0,0,0,0,0,0],[0,0,0,0,0,0,0,0,0,0,0,0],[0,0,0,0,0,0,0,0,0,0,0,0],[0,0,0,0,0,0,0,0,0,0,0,0],[0,0,0,0,0,0,0,0,0,0,0,0],[0,0,0,0,0,0,0,0,0,0,0,0],[0,0,0,0,0,0,0,0,0,0,0,0],[0,0,0,0,0,0,0,0,0,0,0,0],[0,0,0,0,0,0,0,0,0,0,0,0],[0,0,0,0,0,0,0,0,0,0,0,0],[0,0,0,0,0,0,0,0,0,0,0,0],[0,0,0,0,0,0,0,0,0,0,0,0],[0,0,0,0,0,0,0,0,0,0,0,0],[0,0,0,0,0,0,0,0,0,0,0,0],[0,0,0,0,0,0,0,0,0,0,0,0],[0,0,0,0,0,0,0,0,0,0,0,0],[0,0,0,0,0,0,0,0,0,0,0,0],[0,0,0,0,0,0,0,0,0,0,0,0],[0,0,0,0,0,0,0,0,0,0,0,0],[0,0,0,0,0,0,0,0,0,0,0,0],[0,0,0,0,0,0,0,0,0,0,0,0],[0,0,0,0,0,0,0,0,0,0,0,0],[0,0,0,0,0,0,0,0,0,0,0,0],[0,0,0,0,0,0,0,0,0,0,0,0],[0,0,0,0,0,0,0,0,0,0,0,0],[0,0,0,0,0,0,0,0,0,0,0,0],[0,0,0,0,0,0,0,0,0,0,0,0],[0,0,0,0,0,0,0,0,0,0,0,0],[0,0,0,0,0,0,0,0,0,0,0,0],[0,0,0,0,0,0,0,0,0,0,0,0],[0,0,0,0,0,0,0,0,0,0,0,0],[0,0,0,0,0,0,0,0,0,0,0,0],[0,0,0,0,0,0,0,0,0,0,0,0],[0,0,0,0,0,0,0,0,0,0,0,1],[0,0,0,0,0,0,0,0,0,0,0,0],[0,1,0,0,0,0,0,0,0,0,0,0],[0,0,0,0,0,0,0,0,0,0,0,0],[0,0,0,0,0,0,0,0,0,0,0,0],[0,0,0,0,0,0,0,0,0,0,0,0],[0,0,0,0,0,0,0,0,0,0,0,0],[0,0,0,0,0,0,0,0,0,0,0,0],[0,0,0,0,0,0,0,0,0,0,0,0],[0,0,0,0,0,0,0,0,0,0,0,0],[0,0,0,0,0,0,0,0,0,0,0,0],[0,0,0,0,0,0,0,0,0,0,0,0],[0,0,0,0,0,0,0,0,0,0,0,0],[0,0,0,0,0,0,0,1,0,0,0,0],[0,0,0,0,0,0,0,0,0,0,0,0],[0,0,0,0,0,0,0,0,0,0,0,0],[0,0,0,0,0,0,0,0,0,0,0,0],[0,0,0,0,0,0,0,0,0,0,0,0],[0,0,0,0,0,0,0,0,0,0,0,0],[0,0,0,0,0,0,0,0,0,0,0,0],[0,0,0,0,0,0,0,0,0,0,0,0],[0,0,0,0,0,0,0,0,0,0,0,0],[0,0,0,0,0,1,0,0,0,0,0,0],[0,0,0,0,0,0,0,0,0,0,0,0],[0,0,0,0,0,0,0,0,0,0,0,0],[0,0,0,0,0,0,0,0,0,0,0,0],[0,0,0,0,0,0,0,0,0,0,0,0],[0,0,0,0,1,0,0,0,0,0,0,0],[0,0,0,0,0,0,0,0,0,0,0,0],[0,0,0,0,0,1,0,0,0,0,0,0],[0,0,0,0,0,0,0,0,0,0,0,0],[0,0,0,0,0,0,0,0,0,0,0,0],[0,0,0,0,0,0,0,0,0,0,0,0],[0,0,0,0,0,0,0,0,0,0,0,0],[0,0,0,0,0,0,0,0,0,0,0,0],[1,0,0,0,0,0,0,0,0,0,0,0],[0,0,0,0,0,0,0,0,0,1,0,0],[0,0,0,0,0,0,0,0,0,0,0,0],[0,0,0,0,0,0,0,0,0,0,0,0],[0,0,0,0,0,0,0,0,0,0,0,0],[0,0,0,0,0,0,0,0,0,0,0,0],[0,0,0,0,0,0,0,0,0,0,0,0],[0,0,0,0,0,0,0,0,0,0,0,0],[0,0,0,0,0,0,0,0,0,0,0,0],[0,0,0,0,0,0,0,0,0,0,0,0],[0,0,0,0,0,0,0,0,0,0,0,0],[0,0,0,0,0,0,0,0,0,0,0,0],[0,0,0,0,0,0,0,0,0,0,0,0],[0,0,0,0,0,0,0,0,0,0,0,0],[0,0,0,0,0,0,0,0,0,0,0,0],[0,0,0,0,0,0,0,0,0,0,0,0],[0,0,0,0,0,0,0,0,0,0,0,0],[0,0,0,0,0,0,0,0,0,0,0,0],[0,0,0,0,0,0,0,0,0,0,0,0],[0,0,0,0,0,0,0,0,0,0,0,0],[0,0,0,0,0,0,0,0,0,0,0,0],[0,0,0,0,0,0,0,0,0,0,0,0],[0,0,0,0,0,0,0,0,0,0,0,0],[0,0,0,0,0,0,0,0,0,0,0,0],[0,0,0,0,0,0,0,0,0,0,0,0],[0,0,0,0,0,0,0,0,0,0,0,0],[0,0,0,0,0,0,0,0,0,0,0,0],[0,0,0,0,0,0,0,0,0,0,0,0],[0,0,0,0,0,0,0,0,0,0,0,0],[0,0,0,0,0,0,0,0,0,0,0,0],[0,0,0,0,0,0,0,0,0,0,0,0],[0,0,0,0,0,0,0,0,0,0,0,0],[0,0,0,0,0,0,0,0,0,0,0,0],[0,0,0,0,0,0,0,0,0,0,0,0],[0,0,0,0,0,0,0,0,0,0,0,0],[0,0,0,0,0,0,0,0,0,0,0,0],[0,0,0,0,0,0,0,0,0,0,0,0],[0,0,0,0,0,0,0,0,0,0,0,0],[0,0,0,0,0,0,0,0,0,0,0,0],[0,0,0,0,0,0,0,0,0,0,0,0],[0,0,0,0,0,0,0,0,0,0,0,0],[0,0,0,0,0,0,0,0,0,0,0,0],[0,0,0,0,0,0,0,0,0,0,0,0],[0,0,0,0,0,0,0,0,0,0,0,0],[0,0,0,0,0,0,1,0,0,0,0,0],[0,0,0,0,0,0,0,0,0,0,0,0],[0,0,0,0,0,0,0,0,0,0,0,0],[0,0,0,0,0,1,0,0,0,0,0,0],[0,0,0,0,0,0,0,0,0,0,0,0],[0,0,0,0,0,0,0,0,0,0,0,0],[0,0,0,0,0,0,0,0,0,0,0,0],[0,0,0,0,0,0,0,0,0,0,0,0],[0,0,0,0,0,0,0,1,0,0,0,0]]},{"feature":[2,3,3,1,0,2,1,5,-2,-2,1,-2,-2,2,5,-2,-2,5,-2,-2,0,1,5,-2,-2,2,-2,-2,2,1,-2,-2,2,-2,-2,2,1,5,1,-2,-2,1,-2,-2,5,1,-2,-2,5,-2,-2,1,2,1,-2,-2,1,-2,-2,0,1,-2,-2,2,-2,-2,4,5,1,2,1,-2,-2,-2,2,5,-2,-2,2,-2,-2,1,4,3,-2,-2,0,-2,-2,2,1,-2,-2,1,-2,-2,3,1,5,2,-2,-2,4,-2,-2,5,2,-2,-2,5,-2,-2,0,4,2,-2,-2,1,-2,-2,4,4,-2,-2,1,-2,-2,2,5,4,1,-2,5,-2,1,-2,-2,1,-2,-2,1,1,1,-2,-2,1,-2,1,-2,-2,0,4,-2,4,-2,-2,4,4,-2,-2,1,-2,-2,1,1,5,1,1,-2,-2,1,-2,-2,2,0,-2,-2,4,-2,-2,1,-2,4,-2,1,-2,-2,1,-2,2,1,-2,1,-2,-2,1,1,-2,-2,-2,4,1,5,2,1,-2,1,2,-2,-2,-2,5,2,-2,-2,-2,2,-2,-2,5,3,-2,-2,2,1,5,5,-2,-2,4,-2,-2,4,-2,-2,1,1,5,-2,-2,1,-2,-2,1,1,-2,-2,4,-2,-2,3,0,0,1,2,1,-2,-2,1,-2,-2,1,1,-2,-2,1,-2,-2,2,-2,1,2,-2,-2,2,-2,-2,5,0,5,5,-2,-2,1,-2,-2,2,1,-2,-2,5,-2,-2,2,5,5,-2,-2,5,-2,-2,0,5,-2,-2,1,-2,-2,2,3,1,4,1,-2,-2,4,-2,-2,2,-2,-2,2,-2,4,-2,-2,1,2,-2,-2,1,4,2,-2,-2,2,-2,-2,2,1,-2,-2,4,-2,-2],"threshold":[2.5,2.5,0.5,81.5,1.5,0.5,29.5,9.5,-2.0,-2.0,30.5,-2.0,-2.0,1.5,24.5,-2.0,-2.0,15.5,-2.0,-2.0,2.5,57.5,49.5,-2.0,-2.0,1.0,-2.0,-2.0,0.5,77.5,-2.0,-2.0,1.5,-2.0,-2.0,0.5,331.5,53.5,330.5,-2.0,-2.0,313.5,-2.0,-2.0,49.5,333.5,-2.0,-2.0,80.0,-2.0,-2.0,86.5,1.5,85.5,-2.0,-2.0,82.5,-2.0,-2.0,11.5,285.5,-2.0,-2.0,1.5,-2.0,-2.0,17.5,12.5,9.5,0.5,8.5,-2.0,-2.0,-2.0,0.5,9.5,-2.0,-2.0,1.5,-2.0,-2.0,66.5,10.5,1.5,-2.0,-2.0,2.5,-2.0,-2.0,0.5,67.5,-2.0,-2.0,67.5,-2.0,-2.0,1.5,34.5,12.5,0.5,-2.0,-2.0,18.5,-2.0,-2.0,8.5,1.0,-2.0,-2.0,9.5,-2.0,-2.0,2.5,18.5,1.0,-2.0,-2.0,46.5,-2.0,-2.0,23.5,20.5,-2.0,-2.0,75.5,-2.0,-2.0,0.5,53.5,0.5,34.5,-2.0,10.5,-2.0,38.5,-2.0,-2.0,42.5,-2.0,-2.0,48.5,35.5,34.5,-2.0,-2.0,36.5,-2.0,43.5,-2.0,-2.0,2.5,10.5,-2.0,13.5,-2.0,-2.0,26.5,20.0,-2.0,-2.0,70.0,-2.0,-2.0,64.5,60.5,12.5,40.5,39.5,-2.0,-2.0,42.5,-2.0,-2.0,1.5,2.5,-2.0,-2.0,16.5,-2.0,-2.0,61.5,-2.0,21.5,-2.0,63.5,-2.0,-2.0,65.5,-2.0,1.5,66.5,-2.0,68.5,-2.0,-2.0,69.5,68.5,-2.0,-2.0,-2.0,21.5,11.5,42.5,6.5,9.5,-2.0,10.5,4.5,-2.0,-2.0,-2.0,41.5,7.5,-2.0,-2.0,-2.0,4.5,-2.0,-2.0,12.0,2.0,-2.0,-2.0,3.5,70.0,26.5,23.5,-2.0,-2.0,7.0,-2.0,-2.0,20.5,-2.0,-2.0,16.5,12.5,34.0,-2.0,-2.0,15.5,-2.0,-2.0,48.5,46.5,-2.0,-2.0,2.5,-2.0,-2.0,1.5,9.5,6.0,76.5,3.5,74.5,-2.0,-2.0,75.5,-2.0,-2.0,81.5,78.5,-2.0,-2.0,85.5,-2.0,-2.0,3.5,-2.0,272.5,5.5,-2.0,-2.0,4.5,-2.0,-2.0,79.5,11.5,70.5,61.5,-2.0,-2.0,303.5,-2.0,-2.0,3.5,363.0,-2.0,-2.0,39.5,-2.0,-2.0,3.5,88.5,85.5,-2.0,-2.0,89.5,-2.0,-2.0,10.5,86.5,-2.0,-2.0,305.5,-2.0,-2.0,4.5,2.5,77.5,22.5,57.5,-2.0,-2.0,25.5,-2.0,-2.0,3.5,-2.0,-2.0,3.5,-2.0,24.0,-2.0,-2.0,43.5,5.5,-2.0,-2.0,74.5,28.5,5.5,-2.0,-2.0,6.0,-2.0,-2.0,5.5,75.5,-2.0,-2.0,28.0,-2.0,-2.0],"children_left":[1,2,3,4,5,6,7,8,-1,-1,11,-1,-1,14,15,-1,-1,18,-1,-1,21,22,23,-1,-1,26,-1,-1,29,30,-1,-1,33,-1,-1,36,37,38,39,-1,-1,42,-1,-1,45,46,-1,-1,49,-1,-1,52,53,54,-1,-1,57,-1,-1,60,61,-1,-1,64,-1,-1,67,68,69,70,71,-1,-1,-1,75,76,-1,-1,79,-1,-1,82,83,84,-1,-1,87,-1,-1,90,91,-1,-1,94,-1,-1,97,98,99,100,-1,-1,103,-1,-1,106,107,-1,-1,110,-1,-1,113,114,115,-1,-1,118,-1,-1,121,122,-1,-1,125,-1,-1,128,129,130,131,-1,133,-1,135,-1,-1,138,-1,-1,141,142,143,-1,-1,146,-1,148,-1,-1,151,152,-1,154,-1,-1,157,158,-1,-1,161,-1,-1,164,165,166,167,168,-1,-1,171,-1,-1,174,175,-1,-1,178,-1,-1,181,-1,183,-1,185,-1,-1,188,-1,190,191,-1,193,-1,-1,196,197,-1,-1,-1,201,202,203,204,205,-1,207,208,-1,-1,-1,212,213,-1,-1,-1,217,-1,-1,220,221,-1,-1,224,225,226,227,-1,-1,230,-1,-1,233,-1,-1,236,237,238,-1,-1,241,-1,-1,244,245,-1,-1,248,-1,-1,251,252,253,254,255,256,-1,-1,259,-1,-1,262,263,-1,-1,266,-1,-1,269,-1,271,272,-1,-1,275,-1,-1,278,279,280,281,-1,-1,284,-1,-1,287,288,-1,-1,291,-1,-1,294,295,296,-1,-1,299,-1,-1,302,303,-1,-1,306,-1,-1,309,310,311,312,313,-1,-1,316,-1,-1,319,-1,-1,322,-1,324,-1,-1,327,328,-1,-1,331,332,333,-1,-1,336,-1,-1,339,340,-1,-1,343,-1,-1],"children_right":[200,127,66,35,20,13,10,9,-1,-1,12,-1,-1,17,16,-1,-1,19,-1,-1,28,25,24,-1,-1,27,-1,-1,32,31,-1,-1,34,-1,-1,51,44,41,40,-1,-1,43,-1,-1,48,47,-1,-1,50,-1,-1,59,56,55,-1,-1,58,-1,-1,63,62,-1,-1,65,-1,-1,96,81,74,73,72,-1,-1,-1,78,77,-1,-1,80,-1,-1,89,86,85,-1,-1,88,-1,-1,93,92,-1,-1,95,-1,-1,112,105,102,101,-1,-1,104,-1,-1,109,108,-1,-1,111,-1,-1,120,117,116,-1,-1,119,-1,-1,124,123,-1,-1,126,-1,-1,163,140,137,132,-1,134,-1,136,-1,-1,139,-1,-1,150,145,144,-1,-1,147,-1,149,-1,-1,156,153,-1,155,-1,-1,160,159,-1,-1,162,-1,-1,187,180,173,170,169,-1,-1,172,-1,-1,177,176,-1,-1,179,-1,-1,182,-1,184,-1,186,-1,-1,189,-1,195,192,-1,194,-1,-1,199,198,-1,-1,-1,250,219,216,211,206,-1,210,209,-1,-1,-1,215,214,-1,-1,-1,218,-1,-1,223,222,-1,-1,235,232,229,228,-1,-1,231,-1,-1,234,-1,-1,243,240,239,-1,-1,242,-1,-1,247,246,-1,-1,249,-1,-1,308,277,268,261,258,257,-1,-1,260,-1,-1,265,264,-1,-1,267,-1,-1,270,-1,274,273,-1,-1,276,-1,-1,293,286,283,282,-1,-1,285,-1,-1,290,289,-1,-1,292,-1,-1,301,298,297,-1,-1,300,-1,-1,305,304,-1,-1,307,-1,-1,326,321,318,315,314,-1,-1,317,-1,-1,320,-1,-1,323,-1,325,-1,-1,330,329,-1,-1,338,335,334,-1,-1,337,-1,-1,342,341,-1,-1,344,-1,-1],"value":[[0,0,0,0,0,0,0,0,0,0,0,0],[0,0,0,0,0,0,0,0,0,0,0,0],[0,0,0,0,0,0,0,0,0,0,0,0],[0,0,0,0,0,0,0,0,0,0,0,0],[0,0,0,0,0,0,0,0,0,0,0,0],[0,0,0,0,0,0,0,0,0,0,0,0],[0,0,0,0,0,0,0,0,0,0,0,0],[0,0,0,0,0,0,0,0,0,0,0,0],[0,0,0,0,0,0,0,0,0,0,0,0],[0,0,0,0,0,0,0,0,0,0,0,0],[0,0,0,0,0,0,0,0,0,0,0,0],[0,0,0,0,0,0,0,0,0,0,0,0],[0,0,0,0,0,0,0,0,0,0,0,0],[0,0,0,0,0,0,0,0,0,0,0,0],[0,0,0,0,0,0,0,0,0,0,0,0],[0,0,0,0,0,0,0,0,0,0,0,0],[0,0,0,0,0,0,0,0,0,0,0,0],[0,0,0,0,0,0,0,0,0,0,0,0],[0,0,0,0,0,0,0,0,0,0,0,0],[0,0,0,0,0,0,0,0,0,0,0,0],[0,0,0,0,0,0,0,0,0,0,0,0],[0,0,0,0,0,0,0,0,0,0,0,0],[0,0,0,0,0,0,0,0,0,0,0,0],[0,0,0,0,0,0,0,0,0,0,0,0],[0,0,0,0,0,0,0,0,0,0,0,0],[0,0,0,0,0,0,0,0,0,0,0,0],[0,0,0,0,0,0,0,0,0,0,0,0],[0,0,0,0,0,0,0,0,0,0,0,0],[0,0,0,0,0,0,0,0,0,0,0,0],[0,0,0,0,0,0,0,0,0,0,0,0],[0,0,0,0,0,0,0,0,0,0,0,0],[0,0,0,0,0,0,0,0,0,0,0,0],[0,0,0,0,0,0,0,0,0,0,0,0],[0,0,0,0,0,0,0,0,0,0,0,0],[0,0,0,0,0,0,0,0,0,0,0,0],[0,0,0,0,0,0,0,0,0,0,0,0],[0,0,0,0,0,0,0,0,0,0,0,0],[0,0,0,0,0,0,0,0,0,0,0,0],[0,0,0,0,0,0,0,0,0,0,0,0],[0,0,0,0,0,0,0,0,0,0,0,0],[0,0,0,0,0,0,0,0,0,0,0,0],[0,0,0,0,0,0,0,0,0,0,0,0],[0,0,0,0,0,0,0,0,0,0,0,0],[0,0,0,0,0,0,0,0,0,0,0,0],[0,0,0,0,0,0,0,0,0,0,0,0],[0,0,0,0,0,0,0,0,0,0,0,0],[0,0,0,0,0,0,0,0,0,0,0,0],[0,0,0,0,0,0,0,0,0,0,0,0],[0,0,0,0,0,0,0,0,0,0,0,0],[0,0,0,0,0,0,0,0,0,0,0,0],[0,0,0,0,0,0,0,0,0,0,0,0],[0,0,0,0,0,0,0,0,0,0,0,0],[0,0,0,0,0,0,0,0,0,0,0,0],[0,0,0,0,0,0,0,0,0,0,0,0],[0,0,0,0,0,0,0,0,0,0,0,0],[0,0,0,0,0,0,0,0,0,0,0,0],[0,0,0,0,0,0,0,0,0,0,0,0],[0,0,0,0,0,0,0,0,0,0,0,0],[0,0,0,0,0,0,0,0,0,0,0,0],[0,0,0,0,0,0,0,0,0,0,0,0],[0,0,0,0,0,0,0,0,0,0,0,0],[0,0,0,0,0,0,0,0,0,0,0,0],[0,0,0,0,0,0,0,0,0,0,0,0],[0,0,0,0,0,0,0,0,0,0,0,0],[0,0,0,0,0,0,0,0,0,0,0,0],[0,0,0,0,0,0,0,0,0,0,0,0],[0,0,0,0,0,0,0,0,0,0,0,0],[0,0,0,0,0,0,0,0,0,0,0,0],[0,0,0,0,0,0,0,0,0,0,0,0],[0,0,0,0,0,0,0,0,0,0,0,0],[0,0,0,0,0,0,0,0,0,0,0,0],[0,0,0,0,0,0,0,0,0,0,0,0],[0,0,0,0,0,1,0,0,0,0,0,0],[0,0,0,0,0,0,0,1,0,0,0,0],[0,0,0,0,0,0,0,0,0,0,0,0],[0,0,0,0,0,0,0,0,0,0,0,0],[0,0,0,0,0,0,0,0,0,0,0,0],[0,0,0,0,0,0,0,0,0,0,0,0],[0,0,0,0,0,0,0,0,0,0,0,0],[0,0,0,0,0,0,0,0,0,0,0,0],[0,0,0,0,0,0,0,0,0,0,0,0],[0,0,0,0,0,0,0,0,0,0,0,0],[0,0,0,0,0,0,0,0,0,0,0,0],[0,0,0,0,0,0,0,0,0,0,0,0],[0,0,0,0,0,0,0,0,0,0,0,0],[0,0,0,0,0,0,0,0,0,0,0,0],[0,0,0,0,0,0,0,0,0,0,0,0],[0,0,0,0,0,0,0,0,0,0,0,0],[0,0,0,0,0,0,0,0,0,0,0,0],[0,0,0,0,0,0,0,0,0,0,0,0],[0,0,0,0,0,0,0,0,0,0,0,0],[0,0,0,0,0,0,0,0,0,0,0,0],[0,0,0,0,0,0,0,0,0,0,0,0],[0,0,0,0,0,0,0,0,0,0,0,0],[0,0,0,0,0,0,0,0,0,0,0,0],[0,0,0,0,0,0,0,0,0,0,0,0],[0,0,0,0,0,0,0,0,0,0,0,0],[0,0,0,0,0,0,0,0,0,0,0,0],[0,0,0,0,0,0,0,0,0,0,0,0],[0,0,0,0,0,0,0,0,0,0,0,0],[0,0,0,0,0,0,0,0,0,0,0,0],[0,0,0,0,0,0,0,0,0,0,0,0],[0,0,0,0,0,0,0,0,0,0,0,0],[0,0,0,0,0,0,0,0,0,0,0,0],[0,0,0,0,0,0,0,0,0,0,0,0],[0,0,0,0,0,0,0,0,0,0,0,0],[0,0,0,0,0,0,0,0,0,0,0,0],[0,0,0,0,0,0,0,0,0,0,0,0],[0,0,1,0,0,0,0,0,0,0,0,0],[0,0,0,0,0,0,0,0,0,0,0,0],[0,0,0,0,0,0,0,0,0,0,0,0],[0,0,0,0,0,0,0,0,0,0,0,0],[0,0,0,0,0,0,0,0,0,0,0,0],[0,0,0,0,0,0,0,0,0,0,0,0],[0,0,0,0,0,0,0,0,0,0,0,0],[0,0,0,0,0,0,0,0,1,0,0,0],[0,0,0,0,0,0,0,0,0,0,0,0],[0,0,0,0,0,0,0,0,0,0,0,0],[0,0,0,0,0,0,0,0,0,0,0,0],[0,0,0,0,0,0,0,0,0,0,0,0],[0,0,0,0,0,0,0,0,0,0,0,0],[0,0,0,0,0,0,0,0,0,0,0,0],[0,0,0,0,0,0,0,0,0,0,0,0],[0,0,0,0,0,0,0,0,0,0,0,0],[0,0,0,0,0,0,0,0,0,0,0,0],[0,0,0,0,0,0,0,0,0,0,0,0],[0,0,0,0,0,0,0,0,0,0,0,0],[0,0,0,0,0,0,0,0,0,0,0,0],[0,0,0,0,0,0,0,0,0,0,0,0],[0,0,0,0,0,0,0,0,0,0,0,0],[0,0,0,0,0,0,0,0,0,0,0,0],[0,0,0,0,0,0,0,0,0,0,0,0],[0,0,0,0,0,0,0,0,0,0,0,0],[0,0,0,0,0,0,0,0,0,0,0,0],[0,0,0,0,0,0,0,0,0,0,0,0],[0,0,0,0,0,0,0,0,0,0,0,0],[0,0,0,0,0,0,0,0,0,0,0,0],[0,0,0,0,0,0,0,0,0,0,0,0],[0,0,0,0,0,0,0,0,0,0,0,0],[0,1,0,0,0,0,0,0,0,0,0,0],[0,0,0,0,0,0,0,0,0,0,0,0],[0,0,0,0,0,0,0,0,0,0,0,0],[0,0,0,0,0,0,0,0,0,0,0,0],[0,0,0,0,0,1,0,0,0,0,0,0],[0,0,0,0,0,0,1,0,0,0,0,0],[0,0,0,0,0,0,0,0,0,0,0,0],[0,0,0,0,0,0,0,0,0,0,1,0],[0,0,0,0,0,0,0,0,0,0,0,0],[0,0,0,0,0,0,0,0,0,0,0,0],[0,0,0,0,0,0,0,0,0,0,0,0],[0,0,0,0,0,0,0,0,0,0,0,0],[0,0,0,0,0,0,0,0,0,0,0,0],[0,0,0,0,0,0,0,0,0,0,0,1],[0,0,0,0,0,0,0,0,0,0,0,0],[0,0,0,0,0,0,1,0,0,0,0,0],[0,0,0,0,0,0,0,0,0,0,0,0],[0,0,0,0,0,0,0,0,0,0,0,0],[0,0,0,0,0,0,0,0,0,0,0,0],[1,0,0,0,0,0,0,0,0,0,0,0],[0,0,0,0,0,0,0,0,0,0,0,0],[0,0,0,0,0,0,0,0,0,0,0,0],[0,0,0,0,0,0,0,0,0,1,0,0],[0,0,0,0,0,0,0,0,0,0,1,0],[0,0,0,0,0,0,0,0,0,0,0,0],[0,0,0,0,0,0,0,0,0,0,0,0],[0,0,0,0,0,0,0,0,0,0,0,0],[0,0,0,0,0,0,0,0,0,0,0,0],[0,0,0,0,0,0,0,0,0,0,0,0],[0,0,0,0,0,0,0,0,1,0,0,0],[0,0,0,0,0,0,0,0,0,0,0,0],[0,0,0,0,0,0,0,0,0,0,0,0],[0,0,0,0,0,0,0,0,0,0,0,0],[0,0,0,0,0,0,0,0,0,0,0,0],[0,0,0,0,0,0,0,0,0,0,0,0],[0,0,0,0,0,0,0,0,0,0,0,0],[0,0,0,0,0,0,0,0,0,0,0,0],[0,0,0,0,0,0,0,0,0,0,0,0],[0,0,0,0,0,0,0,0,0,0,0,0],[0,0,0,0,0,0,0,0,0,0,0,0],[0,0,1,0,0,0,0,0,0,0,0,0],[0,0,0,0,0,0,0,0,0,0,0,0],[0,0,0,0,0,0,0,0,0,0,0,0],[0,0,0,0,0,0,0,0,0,0,0,0],[0,0,0,0,0,0,0,0,0,0,0,0],[0,0,0,0,0,0,0,0,0,0,0,0],[0,0,0,0,0,0,0,0,0,0,0,0],[0,0,0,0,0,0,0,0,0,0,0,0],[0,0,0,0,0,0,0,0,0,0,0,0],[0,0,0,0,0,0,0,0,0,0,0,0],[0,0,0,0,0,0,0,0,0,0,0,0],[0,0,0,0,0,0,0,0,0,0,0,0],[0,0,0,0,0,0,0,0,0,0,0,0],[0,0,0,0,0,0,0,0,0,0,0,0],[0,0,0,0,0,0,0,0,0,0,0,0],[0,0,0,0,0,0,0,0,0,0,0,0],[0,0,0,0,0,0,0,0,0,0,0,0],[0,0,0,0,0,0,0,0,0,0,0,0],[0,0,0,0,0,0,0,0,0,0,0,0],[0,1,0,0,0,0,0,0,0,0,0,0],[0,0,0,0,0,0,0,1,0,0,0,0],[0,0,0,0,0,0,0,0,0,0,0,0],[0,0,0,0,0,0,0,0,0,0,0,0],[0,0,0,0,0,0,0,0,0,0,0,0],[0,0,0,0,0,0,0,0,0,0,0,0],[0,0,0,0,0,0,0,0,0,0,0,0],[0,0,0,0,0,0,0,0,0,0,0,1],[0,0,0,0,0,0,0,0,0,0,0,0],[0,0,0,0,0,0,0,0,0,0,0,0],[0,0,0,0,0,0,0,0,0,0,0,0],[0,0,1,0,0,0,0,0,0,0,0,0],[0,0,0,0,0,0,0,0,0,0,0,1],[0,0,0,0,0,0,0,0,0,0,0,0],[0,0,0,0,0,0,0,0,0,0,0,0],[0,0,0,0,0,0,0,1,0,0,0,0],[0,0,0,0,0,1,0,0,0,0,0,0],[0,0,0,0,0,0,0,1,0,0,0,0],[0,0,0,0,0,0,0,0,0,0,0,0],[0,0,1,0,0,0,0,0,0,0,0,0],[0,0,0,0,0,0,0,0,1,0,0,0],[0,0,0,0,0,0,0,0,0,0,0,0],[0,0,0,0,0,0,0,0,0,0,0,0],[0,0,0,0,0,1,0,0,0,0,0,0],[0,0,0,0,0,0,0,0,0,1,0,0],[0,0,0,0,0,0,0,0,0,0,0,0],[0,0,0,0,0,0,0,0,0,0,0,0],[0,0,0,0,0,0,0,0,0,0,0,0],[0,0,0,0,0,0,0,0,0,0,0,0],[0,0,0,0,0,0,0,0,0,0,0,0],[0,0,0,1,0,0,0,0,0,0,0,0],[0,0,0,0,0,0,0,0,0,0,0,0],[0,0,0,0,0,0,0,0,0,0,0,0],[0,0,0,0,0,0,0,0,0,0,0,0],[0,0,0,0,0,0,0,0,0,0,0,0],[0,0,1,0,0,0,0,0,0,0,0,0],[0,0,0,0,0,0,1,0,0,0,0,0],[0,0,0,0,0,0,0,0,0,0,0,0],[0,0,0,0,0,0,0,0,0,0,0,0],[0,0,0,0,0,0,0,0,0,0,0,0],[0,0,0,0,0,0,0,0,0,0,0,0],[0,0,0,0,0,0,1,0,0,0,0,0],[0,0,0,0,0,0,0,0,0,0,0,0],[0,0,0,0,0,0,0,0,0,0,0,0],[0,0,0,0,0,0,0,0,0,0,0,0],[0,0,0,0,0,0,0,0,0,0,0,0],[0,0,0,0,0,0,0,0,0,0,0,0],[0,0,0,0,0,0,0,0,0,0,0,0],[0,0,0,0,0,0,0,0,0,0,0,0],[0,0,0,0,0,0,0,0,0,0,0,0],[0,0,0,0,0,0,0,0,0,0,0,0],[0,0,0,0,0,0,0,0,0,0,0,0],[0,0,0,0,0,0,0,0,0,0,0,0],[0,0,0,0,0,0,0,0,0,0,0,0],[0,0,0,0,0,0,0,0,0,0,0,0],[0,0,0,0,0,0,0,0,0,0,0,0],[0,0,0,0,0,0,0,0,0,0,0,0],[0,0,0,0,0,0,0,0,0,0,0,0],[0,0,0,0,0,0,0,0,0,0,0,0],[0,0,0,0,0,0,0,0,0,0,0,0],[0,0,0,0,0,0,0,0,0,0,0,0],[0,0,0,0,0,0,0,0,0,0,0,0],[0,0,0,0,0,0,0,0,0,0,0,0],[0,0,0,0,0,0,0,0,0,0,0,0],[0,0,0,0,0,0,0,0,0,0,0,0],[0,0,0,0,0,0,0,0,0,0,0,0],[0,0,0,0,0,0,0,0,0,0,0,0],[0,0,0,0,0,0,0,0,0,0,0,0],[0,0,0,0,0,0,0,0,0,0,0,0],[0,0,0,0,0,0,0,0,0,0,0,0],[0,0,0,0,0,0,0,0,0,0,0,0],[0,0,0,1,0,0,0,0,0,0,0,0],[0,0,0,0,0,0,0,0,0,0,0,0],[0,0,0,0,0,0,0,0,0,0,0,0],[0,0,0,0,0,0,0,0,0,0,0,0],[0,0,0,0,0,0,0,0,0,0,0,0],[0,0,0,0,0,0,0,0,0,0,0,0],[0,0,0,0,0,0,0,0,1,0,0,0],[0,0,0,0,0,0,0,0,0,0,0,0],[0,0,0,0,0,0,0,0,0,0,0,0],[0,0,0,0,0,0,0,0,0,0,0,0],[0,0,0,0,0,0,0,0,0,0,0,0],[0,0,0,0,0,0,0,0,0,0,0,0],[0,0,0,0,0,0,0,0,0,0,0,0],[0,0,0,0,0,0,0,0,0,0,0,0],[0,0,0,0,0,0,0,0,0,0,0,0],[0,0,0,0,0,0,0,0,0,0,0,0],[0,0,0,0,0,0,0,0,0,0,0,0],[0,0,0,0,0,0,0,0,0,0,0,0],[0,0,0,0,0,0,0,0,0,0,0,0],[0,0,0,0,0,0,0,0,0,0,0,0],[0,0,0,0,0,0,1,0,0,0,0,0],[0,0,0,0,0,0,0,0,0,0,0,0],[0,0,0,0,0,0,0,0,0,0,0,0],[0,0,0,0,0,0,0,0,0,0,0,0],[0,0,0,0,0,0,0,0,0,0,0,0],[0,0,0,0,0,0,0,0,0,0,0,0],[0,0,0,0,0,0,0,0,0,0,0,0],[0,0,0,1,0,0,0,0,0,0,0,0],[0,0,0,0,0,0,0,0,0,0,0,0],[0,0,0,0,0,0,0,0,0,0,0,0],[0,0,0,0,0,1,0,0,0,0,0,0],[0,0,0,0,0,0,0,0,0,0,0,0],[0,0,0,0,0,0,0,0,0,0,0,0],[0,0,0,0,0,0,0,0,0,0,0,0],[0,0,0,0,0,0,0,0,0,0,0,0],[0,0,0,0,0,0,0,0,0,0,0,0],[0,0,0,0,0,0,0,0,0,0,0,0],[0,0,0,0,0,0,0,0,0,0,0,0],[0,0,0,0,0,0,0,0,0,0,0,0],[0,0,0,0,0,0,0,0,0,0,0,0],[0,0,0,0,0,0,0,0,0,0,0,0],[0,0,0,0,0,0,0,0,0,0,0,0],[0,0,0,0,0,0,0,0,0,0,0,0],[0,0,0,0,0,0,0,0,0,0,0,0],[0,0,0,0,0,0,0,0,1,0,0,0],[1,0,0,0,0,0,0,0,0,0,0,0],[0,0,0,0,0,0,0,0,0,0,0,0],[0,0,0,0,0,0,0,0,0,0,0,0],[0,0,0,0,0,0,0,0,0,0,0,0],[0,0,0,0,0,0,0,0,0,0,0,0],[0,0,0,1,0,0,0,0,0,0,0,0],[0,0,0,0,0,0,0,1,0,0,0,0],[0,0,0,0,0,0,0,0,0,0,0,0],[0,0,0,0,0,0,0,0,0,0,1,0],[0,0,0,0,0,0,0,0,0,0,0,0],[0,0,0,0,0,0,0,0,0,0,1,0],[0,0,0,0,0,1,0,0,0,0,0,0],[0,0,0,0,0,0,0,0,0,0,0,0],[0,0,0,0,0,0,0,0,0,0,0,0],[0,0,1,0,0,0,0,0,0,0,0,0],[0,0,0,0,0,0,0,0,0,0,0,0],[0,0,0,0,0,0,0,0,0,0,0,0],[0,0,0,0,0,0,0,0,0,0,0,0],[0,0,0,0,0,0,0,0,0,0,0,0],[0,0,0,0,0,0,0,0,0,0,1,0],[0,0,0,0,0,0,0,0,0,0,0,0],[0,0,0,0,0,0,0,0,1,0,0,0],[0,0,0,0,0,0,0,0,1,0,0,0],[0,0,0,0,0,0,0,0,1,0,0,0],[0,0,0,0,0,0,0,0,0,0,0,0],[0,0,0,0,0,0,0,0,0,0,0,0],[0,0,1,0,0,0,0,0,0,0,0,0],[0,0,0,0,0,0,0,0,0,0,0,0],[0,0,0,0,0,0,0,0,0,0,0,0],[0,0,0,0,0,0,0,0,0,0,0,0],[0,0,0,0,0,0,0,0,0,0,0,0]]},{"feature":[4,2,3,5,5,4,1,5,-2,-2,5,-2,-2,4,-2,-2,5,-2,-2,4,1,5,5,-2,-2,-2,0,5,-2,-2,1,-2,-2,4,5,-2,-2,3,-2,0,-2,-2,5,1,-2,1,1,-2,1,-2,-2,1,-2,5,-2,-2,4,5,-2,1,5,-2,-2,-2,4,-2,-2,5,4,1,2,1,2,-2,-2,1,-2,-2,1,-2,1,-2,-2,5,5,-2,-2,5,-2,-2,0,1,3,4,-2,-2,2,-2,-2,1,4,-2,-2,-2,4,-2,-2,4,2,5,5,5,-2,-2,-2,1,1,-2,-2,1,-2,-2,2,0,1,-2,-2,1,-2,-2,2,5,-2,-2,1,-2,-2,3,1,2,5,-2,-2,5,-2,-2,2,1,-2,-2,2,-2,-2,0,2,1,-2,-2,2,-2,-2,2,4,-2,-2,4,-2,-2,2,1,1,2,5,-2,-2,2,5,-2,5,-2,-2,5,-2,-2,5,5,2,-2,2,-2,-2,2,-2,-2,5,-2,-2,5,2,5,3,5,-2,-2,4,-2,-2,5,0,-2,-2,1,-2,-2,1,1,3,-2,-2,4,-2,-2,1,1,-2,-2,5,-2,-2,1,1,4,4,-2,-2,1,-2,-2,2,4,-2,-2,5,-2,-2,2,5,1,-2,-2,1,-2,-2,1,1,-2,-2,1,-2,-2,4,2,2,4,3,-2,-2,-2,5,-2,4,0,-2,-2,0,-2,-2,5,2,-2,5,-2,-2,2,4,4,-2,-2,-2,3,-2,1,-2,-2,3,2,0,4,3,-2,-2,1,-2,-2,5,1,-2,-2,1,-2,-2,5,0,5,-2,-2,3,-2,-2,5,1,-2,-2,2,-2,-2,2,1,-2,4,-2,-2,0,2,1,-2,-2,1,-2,-2,4,4,-2,-2,-2],"threshold":[5.5,0.5,2.5,22.5,20.0,1.0,10.5,11.5,-2.0,-2.0,8.5,-2.0,-2.0,2.5,-2.0,-2.0,21.5,-2.0,-2.0,3.5,9.5,42.5,32.5,-2.0,-2.0,-2.0,1.5,29.5,-2.0,-2.0,45.5,-2.0,-2.0,4.5,61.0,-2.0,-2.0,1.5,-2.0,1.5,-2.0,-2.0,14.5,37.5,-2.0,40.5,38.5,-2.0,39.5,-2.0,-2.0,41.5,-2.0,8.5,-2.0,-2.0,2.0,15.5,-2.0,38.5,53.5,-2.0,-2.0,-2.0,4.5,-2.0,-2.0,28.5,0.5,37.5,2.5,27.0,1.5,-2.0,-2.0,34.5,-2.0,-2.0,14.5,-2.0,25.0,-2.0,-2.0,11.5,10.5,-2.0,-2.0,12.5,-2.0,-2.0,1.5,21.5,1.5,4.5,-2.0,-2.0,3.0,-2.0,-2.0,24.5,2.5,-2.0,-2.0,-2.0,1.5,-2.0,-2.0,0.5,1.5,61.5,32.5,29.5,-2.0,-2.0,-2.0,37.5,36.5,-2.0,-2.0,47.5,-2.0,-2.0,4.5,1.5,14.5,-2.0,-2.0,34.5,-2.0,-2.0,5.5,37.5,-2.0,-2.0,49.5,-2.0,-2.0,1.5,18.5,3.5,34.5,-2.0,-2.0,33.5,-2.0,-2.0,5.5,19.5,-2.0,-2.0,7.5,-2.0,-2.0,1.5,2.5,21.5,-2.0,-2.0,4.0,-2.0,-2.0,2.5,4.5,-2.0,-2.0,2.5,-2.0,-2.0,2.5,2.5,1.5,0.5,52.0,-2.0,-2.0,1.5,16.5,-2.0,29.5,-2.0,-2.0,16.5,-2.0,-2.0,28.5,15.5,0.5,-2.0,1.5,-2.0,-2.0,1.5,-2.0,-2.0,64.5,-2.0,-2.0,47.5,0.5,19.5,0.5,15.5,-2.0,-2.0,8.5,-2.0,-2.0,20.5,6.5,-2.0,-2.0,27.5,-2.0,-2.0,333.5,34.0,1.5,-2.0,-2.0,22.0,-2.0,-2.0,361.5,334.5,-2.0,-2.0,15.5,-2.0,-2.0,334.5,53.5,12.5,11.5,-2.0,-2.0,36.5,-2.0,-2.0,0.5,8.5,-2.0,-2.0,70.5,-2.0,-2.0,0.5,59.5,352.5,-2.0,-2.0,341.5,-2.0,-2.0,351.5,335.5,-2.0,-2.0,357.5,-2.0,-2.0,9.5,4.5,3.5,7.0,1.5,-2.0,-2.0,-2.0,59.0,-2.0,6.5,1.5,-2.0,-2.0,2.5,-2.0,-2.0,29.5,7.5,-2.0,24.5,-2.0,-2.0,5.5,8.5,7.5,-2.0,-2.0,-2.0,1.5,-2.0,57.5,-2.0,-2.0,2.5,3.5,6.0,19.5,1.5,-2.0,-2.0,87.5,-2.0,-2.0,43.5,342.5,-2.0,-2.0,279.5,-2.0,-2.0,79.5,1.5,12.5,-2.0,-2.0,0.5,-2.0,-2.0,89.5,293.5,-2.0,-2.0,5.5,-2.0,-2.0,3.5,60.0,-2.0,23.0,-2.0,-2.0,2.5,6.0,56.5,-2.0,-2.0,56.5,-2.0,-2.0,28.5,22.0,-2.0,-2.0,-2.0],"children_left":[1,2,3,4,5,6,7,8,-1,-1,11,-1,-1,14,-1,-1,17,-1,-1,20,21,22,23,-1,-1,-1,27,28,-1,-1,31,-1,-1,34,35,-1,-1,38,-1,40,-1,-1,43,44,-1,46,47,-1,49,-1,-1,52,-1,54,-1,-1,57,58,-1,60,61,-1,-1,-1,65,-1,-1,68,69,70,71,72,73,-1,-1,76,-1,-1,79,-1,81,-1,-1,84,85,-1,-1,88,-1,-1,91,92,93,94,-1,-1,97,-1,-1,100,101,-1,-1,-1,105,-1,-1,108,109,110,111,112,-1,-1,-1,116,117,-1,-1,120,-1,-1,123,124,125,-1,-1,128,-1,-1,131,132,-1,-1,135,-1,-1,138,139,140,141,-1,-1,144,-1,-1,147,148,-1,-1,151,-1,-1,154,155,156,-1,-1,159,-1,-1,162,163,-1,-1,166,-1,-1,169,170,171,172,173,-1,-1,176,177,-1,179,-1,-1,182,-1,-1,185,186,187,-1,189,-1,-1,192,-1,-1,195,-1,-1,198,199,200,201,202,-1,-1,205,-1,-1,208,209,-1,-1,212,-1,-1,215,216,217,-1,-1,220,-1,-1,223,224,-1,-1,227,-1,-1,230,231,232,233,-1,-1,236,-1,-1,239,240,-1,-1,243,-1,-1,246,247,248,-1,-1,251,-1,-1,254,255,-1,-1,258,-1,-1,261,262,263,264,265,-1,-1,-1,269,-1,271,272,-1,-1,275,-1,-1,278,279,-1,281,-1,-1,284,285,286,-1,-1,-1,290,-1,292,-1,-1,295,296,297,298,299,-1,-1,302,-1,-1,305,306,-1,-1,309,-1,-1,312,313,314,-1,-1,317,-1,-1,320,321,-1,-1,324,-1,-1,327,328,-1,330,-1,-1,333,334,335,-1,-1,338,-1,-1,341,342,-1,-1,-1],"children_right":[168,67,42,19,16,13,10,9,-1,-1,12,-1,-1,15,-1,-1,18,-1,-1,33,26,25,24,-1,-1,-1,30,29,-1,-1,32,-1,-1,37,36,-1,-1,39,-1,41,-1,-1,56,45,-1,51,48,-1,50,-1,-1,53,-1,55,-1,-1,64,59,-1,63,62,-1,-1,-1,66,-1,-1,107,90,83,78,75,74,-1,-1,77,-1,-1,80,-1,82,-1,-1,87,86,-1,-1,89,-1,-1,104,99,96,95,-1,-1,98,-1,-1,103,102,-1,-1,-1,106,-1,-1,137,122,115,114,113,-1,-1,-1,119,118,-1,-1,121,-1,-1,130,127,126,-1,-1,129,-1,-1,134,133,-1,-1,136,-1,-1,153,146,143,142,-1,-1,145,-1,-1,150,149,-1,-1,152,-1,-1,161,158,157,-1,-1,160,-1,-1,165,164,-1,-1,167,-1,-1,260,197,184,175,174,-1,-1,181,178,-1,180,-1,-1,183,-1,-1,194,191,188,-1,190,-1,-1,193,-1,-1,196,-1,-1,229,214,207,204,203,-1,-1,206,-1,-1,211,210,-1,-1,213,-1,-1,222,219,218,-1,-1,221,-1,-1,226,225,-1,-1,228,-1,-1,245,238,235,234,-1,-1,237,-1,-1,242,241,-1,-1,244,-1,-1,253,250,249,-1,-1,252,-1,-1,257,256,-1,-1,259,-1,-1,294,277,268,267,266,-1,-1,-1,270,-1,274,273,-1,-1,276,-1,-1,283,280,-1,282,-1,-1,289,288,287,-1,-1,-1,291,-1,293,-1,-1,326,311,304,301,300,-1,-1,303,-1,-1,308,307,-1,-1,310,-1,-1,319,316,315,-1,-1,318,-1,-1,323,322,-1,-1,325,-1,-1,332,329,-1,331,-1,-1,340,337,336,-1,-1,339,-1,-1,344,343,-1,-1,-1],"value":[[0,0,0,0,0,0,0,0,0,0,0,0],[0,0,0,0,0,0,0,0,0,0,0,0],[0,0,0,0,0,0,0,0,0,0,0,0],[0,0,0,0,0,0,0,0,0,0,0,0],[0,0,0,0,0,0,0,0,0,0,0,0],[0,0,0,0,0,0,0,0,0,0,0,0],[0,0,0,0,0,0,0,0,0,0,0,0],[0,0,0,0,0,0,0,0,0,0,0,0],[0,0,0,0,0,1,0,0,0,0,0,0],[0,0,0,0,0,0,0,0,0,0,0,0],[0,0,0,0,0,0,0,0,0,0,0,0],[0,1,0,0,0,0,0,0,0,0,0,0],[0,0,0,0,0,0,0,0,1,0,0,0],[0,0,0,0,0,0,0,0,0,0,0,0],[0,0,0,0,0,0,0,0,0,1,0,0],[0,1,0,0,0,0,0,0,0,0,0,0],[0,0,0,0,0,0,0,0,0,0,0,0],[0,0,0,0,0,0,0,0,0,0,0,0],[0,0,0,0,0,0,0,0,0,0,0,0],[0,0,0,0,0,0,0,0,0,0,0,0],[0,0,0,0,0,0,0,0,0,0,0,0],[0,0,0,0,0,0,0,0,0,0,0,0],[0,0,0,0,0,0,0,0,0,0,0,0],[0,0,0,0,0,0,0,0,0,0,0,0],[0,0,0,0,0,0,0,0,0,0,0,0],[0,0,0,0,0,0,0,0,0,0,0,0],[0,0,0,0,0,0,0,0,0,0,0,0],[0,0,0,0,0,0,0,0,0,0,0,0],[0,0,0,0,0,0,0,0,0,0,0,0],[0,0,0,0,0,0,0,0,0,0,0,0],[0,0,0,0,0,0,0,0,0,0,0,0],[0,0,0,0,0,0,0,0,0,0,0,0],[0,0,0,0,0,0,0,0,0,0,0,0],[0,0,0,0,0,0,0,0,0,0,0,0],[0,0,0,0,0,0,0,0,0,0,0,0],[0,0,0,0,0,0,0,0,0,0,0,0],[0,0,0,0,0,0,0,0,0,0,0,0],[0,0,0,0,0,0,0,0,0,0,0,0],[0,0,0,0,0,0,0,0,0,0,0,0],[0,0,0,0,0,0,0,0,0,0,0,0],[0,0,1,0,0,0,0,0,0,0,0,0],[0,0,0,0,0,0,0,0,0,0,0,0],[0,0,0,0,0,0,0,0,0,0,0,0],[0,0,0,0,0,0,0,0,0,0,0,0],[0,0,0,0,0,0,0,0,0,0,0,0],[0,0,0,0,0,0,0,0,0,0,0,0],[0,0,0,0,0,0,0,0,0,0,0,0],[0,0,0,0,0,0,0,0,0,0,0,0],[0,0,0,0,0,0,0,0,0,0,0,0],[0,0,0,0,0,0,0,0,0,0,0,0],[0,0,0,0,0,0,0,0,0,0,0,0],[0,0,0,0,0,0,0,0,0,0,0,0],[0,0,0,0,0,0,0,0,0,0,0,0],[0,0,0,0,0,0,0,0,0,0,0,0],[0,1,0,0,0,0,0,0,0,0,0,0],[0,0,0,0,0,0,0,0,0,0,0,0],[0,0,0,0,0,0,0,0,0,0,0,0],[0,0,0,0,0,0,0,0,0,0,0,0],[0,0,0,0,0,0,0,0,0,0,0,0],[0,0,0,0,0,0,0,0,0,0,0,0],[0,0,0,0,0,0,0,0,0,0,0,0],[0,0,0,0,0,0,0,0,0,0,0,0],[0,0,0,0,0,0,0,0,0,0,0,0],[0,0,0,0,0,0,0,0,0,0,0,0],[0,0,0,0,0,0,0,0,0,0,0,0],[0,0,0,0,0,0,0,0,0,0,0,0],[0,0,0,0,0,0,0,0,0,0,0,0],[0,0,0,0,0,0,0,0,0,0,0,0],[0,0,0,0,0,0,0,0,0,0,0,0],[0,0,0,0,0,0,0,0,0,0,0,0],[0,0,0,0,0,0,0,0,0,0,0,0],[0,0,0,0,0,0,0,0,0,0,0,0],[0,0,0,0,0,0,0,0,0,0,0,0],[0,0,0,0,0,0,0,0,0,0,0,0],[0,0,0,0,0,0,0,0,0,0,0,0],[0,0,0,0,0,0,0,0,0,0,0,0],[0,0,0,0,0,0,0,0,0,0,0,0],[0,0,0,0,0,0,0,0,0,0,0,0],[0,0,0,0,0,0,0,0,0,0,0,0],[0,0,0,1,0,0,0,0,0,0,0,0],[0,0,0,0,0,0,0,0,0,0,0,0],[0,0,0,0,0,0,0,1,0,0,0,0],[0,0,0,0,0,0,0,0,0,0,0,0],[0,0,0,0,0,0,0,0,0,0,0,0],[0,0,0,0,0,0,0,0,0,0,0,0],[0,0,0,0,0,0,0,0,0,0,0,0],[0,0,0,0,0,0,0,0,0,0,0,0],[0,0,0,0,0,0,0,0,0,0,0,0],[0,0,0,0,0,0,0,0,0,0,0,0],[0,0,0,0,0,0,0,0,0,0,0,0],[0,0,0,0,0,0,0,0,0,0,0,0],[0,0,0,0,0,0,0,0,0,0,0,0],[0,0,0,0,0,0,0,0,0,0,0,0],[0,0,0,0,0,0,0,0,0,0,0,0],[0,0,0,0,0,0,0,0,0,0,0,0],[0,0,0,0,0,0,0,0,0,0,0,0],[0,0,0,0,0,0,0,0,0,0,0,0],[0,0,0,0,0,0,0,0,0,0,0,0],[0,0,0,0,0,0,0,0,0,0,1,0],[0,0,0,0,0,0,0,0,0,0,0,0],[0,0,0,0,0,0,0,0,0,0,0,0],[0,0,0,0,0,0,0,0,0,0,0,1],[0,0,0,0,0,0,0,0,0,0,0,0],[0,1,0,0,0,0,0,0,0,0,0,0],[0,0,0,0,0,0,0,0,0,0,0,0],[0,0,0,0,0,0,0,0,0,0,0,0],[0,0,0,0,0,0,0,0,0,0,0,0],[0,0,0,0,0,0,0,0,0,0,0,0],[0,0,0,0,0,0,0,0,0,0,0,0],[0,0,0,0,0,0,0,0,0,0,0,0],[0,0,0,0,0,0,0,0,0,0,0,0],[0,0,0,0,0,0,0,0,0,0,0,0],[0,0,0,0,0,0,0,0,0,0,0,0],[0,0,0,0,0,0,0,0,0,0,0,0],[0,0,0,0,0,0,0,0,0,0,0,0],[0,0,0,0,0,0,0,0,0,0,0,0],[0,0,0,0,0,0,0,0,0,0,0,0],[0,0,0,0,0,0,0,0,0,0,0,0],[0,0,0,0,0,0,0,0,0,0,0,0],[0,0,0,0,0,0,0,0,0,0,0,0],[0,0,0,0,0,0,0,0,0,0,0,0],[0,0,0,0,0,0,0,0,0,0,0,0],[0,0,0,0,0,0,0,0,0,0,0,0],[0,0,0,0,0,0,0,0,0,0,0,0],[0,0,0,0,0,0,0,0,0,0,0,0],[0,0,0,0,0,0,0,0,0,0,0,0],[0,0,0,0,0,0,0,0,0,0,0,0],[0,0,0,0,0,0,0,0,0,0,0,0],[0,1,0,0,0,0,0,0,0,0,0,0],[0,0,0,0,0,0,0,0,0,0,0,0],[0,0,0,0,0,0,0,0,0,0,0,0],[0,0,0,0,0,0,0,0,0,0,0,0],[0,0,0,0,0,0,0,0,0,0,0,0],[0,0,0,0,0,0,0,0,0,0,0,0],[0,0,0,0,0,0,0,0,0,0,0,0],[0,0,0,0,0,0,0,0,0,0,0,0],[0,0,0,0,0,0,0,0,0,0,0,0],[0,0,0,0,0,0,0,0,0,0,0,0],[0,0,0,0,0,0,0,0,0,0,0,0],[0,0,0,0,0,0,0,0,0,0,0,0],[0,0,0,0,0,0,0,0,0,0,0,0],[0,0,0,0,0,0,0,0,0,0,0,0],[0,0,0,0,0,0,0,0,0,0,0,0],[0,0,0,0,0,0,0,0,0,0,0,0],[0,0,0,0,1,0,0,0,0,0,0,0],[0,0,0,0,0,0,0,0,0,0,0,0],[0,0,0,0,0,0,0,0,0,0,0,0],[0,0,0,0,0,0,0,0,0,0,0,0],[0,0,0,0,0,0,0,0,0,0,0,0],[0,0,0,0,0,0,0,0,1,0,0,0],[0,0,0,0,0,0,0,0,0,0,0,0],[0,0,0,0,0,0,0,0,0,1,0,0],[0,0,0,0,0,0,0,0,0,0,0,0],[0,0,0,0,0,0,0,0,0,0,0,0],[0,0,0,0,0,0,0,0,0,0,0,0],[0,0,0,0,0,0,0,0,0,0,0,0],[0,0,0,0,0,0,0,0,0,0,0,0],[0,0,0,0,0,0,0,0,0,0,0,0],[0,0,0,0,0,0,0,0,0,0,0,0],[0,0,0,1,0,0,0,0,0,0,0,0],[0,0,0,0,0,0,0,0,0,0,0,0],[0,0,0,0,0,0,0,0,0,0,0,0],[0,0,0,0,0,0,0,0,0,0,0,0],[0,0,0,0,0,0,0,0,0,0,0,0],[0,0,0,0,0,0,0,0,0,0,0,0],[0,0,0,0,0,0,0,0,0,0,0,0],[0,0,0,0,0,0,0,0,0,0,0,0],[0,0,0,0,0,0,0,0,0,0,0,0],[0,0,0,0,0,0,0,0,0,0,0,0],[0,0,0,0,0,0,0,0,0,0,0,0],[0,0,0,0,0,0,0,0,0,0,0,0],[0,0,0,0,0,0,0,0,0,0,0,0],[0,0,0,0,0,0,0,0,0,0,0,0],[0,0,0,0,0,0,0,0,0,0,0,0],[0,0,0,0,0,0,0,0,0,0,0,0],[0,0,0,0,0,0,0,0,0,0,0,0],[0,0,0,0,0,0,0,0,0,0,0,0],[0,0,0,0,1,0,0,0,0,0,0,0],[0,0,0,0,0,0,0,0,0,0,0,0],[1,0,0,0,0,0,0,0,0,0,0,0],[0,0,0,0,0,0,0,0,0,0,0,0],[0,0,0,0,0,0,0,0,0,0,0,0],[1,0,0,0,0,0,0,0,0,0,0,0],[0,0,0,0,0,0,0,0,0,0,0,0],[0,0,0,0,0,0,0,0,0,0,0,0],[0,0,0,0,0,0,0,0,0,0,0,0],[0,0,0,0,0,0,0,0,0,0,0,0],[0,0,0,0,0,0,0,0,0,0,0,0],[0,0,0,0,0,0,0,0,0,0,0,0],[0,0,0,0,0,0,0,0,0,0,0,0],[0,0,0,0,0,0,0,0,0,0,0,0],[0,0,0,0,0,0,0,0,0,0,0,0],[0,0,0,0,0,1,0,0,0,0,0,0],[0,0,0,0,0,0,0,0,0,0,0,0],[0,0,0,0,0,0,0,0,0,0,0,0],[0,0,0,0,0,0,0,0,0,0,0,0],[0,0,0,0,0,0,0,0,0,0,0,0],[0,0,0,0,0,0,0,0,0,0,0,0],[0,0,0,0,0,0,0,0,0,0,0,0],[0,0,0,0,0,0,0,0,0,0,0,0],[0,0,0,0,0,0,0,0,0,0,0,0],[0,0,0,0,0,0,0,0,0,0,0,0],[0,0,0,0,0,0,0,0,0,0,0,0],[0,0,0,0,0,0,0,0,0,0,0,0],[0,0,0,0,0,0,0,0,0,0,0,0],[0,0,0,0,0,0,0,0,0,0,0,0],[0,0,0,0,0,0,0,0,0,0,0,0],[0,0,0,0,0,0,0,0,0,0,0,0],[0,0,0,0,0,0,0,0,0,0,0,0],[0,0,0,0,0,0,0,0,0,0,0,0],[0,0,0,0,0,0,0,0,0,0,0,0],[0,0,0,0,0,0,0,0,0,0,0,0],[0,0,0,0,0,0,0,0,0,0,0,0],[0,0,0,0,0,0,0,0,0,0,0,0],[0,0,0,0,0,0,0,0,0,0,0,0],[0,0,0,0,0,0,0,0,0,0,0,0],[0,0,0,0,0,0,0,0,0,0,0,0],[0,0,0,0,0,0,0,0,0,0,0,0],[0,0,0,0,0,0,0,0,0,0,0,0],[0,0,0,0,0,0,0,0,0,0,0,0],[0,0,0,0,0,0,0,1,0,0,0,0],[0,0,0,0,0,0,0,0,0,0,0,0],[0,0,0,0,0,0,0,0,0,0,0,0],[0,0,0,0,0,0,0,0,0,0,0,0],[0,0,0,0,0,0,0,0,0,0,0,0],[0,0,0,0,0,0,0,0,0,0,0,0],[0,0,0,0,0,0,0,0,0,0,0,0],[0,0,0,0,0,0,0,0,0,0,0,0],[0,0,0,0,0,0,0,0,0,0,0,0],[0,0,0,0,0,0,0,0,0,0,0,0],[0,0,0,0,0,0,0,0,0,0,0,0],[0,0,0,0,0,0,0,0,0,0,0,0],[0,0,0,0,0,0,0,0,0,0,0,0],[0,0,0,0,0,0,0,0,0,0,0,0],[0,0,0,0,0,0,0,0,0,0,0,0],[0,0,0,0,0,0,0,0,0,0,0,0],[0,0,0,0,0,0,0,0,0,0,0,0],[0,0,0,0,0,0,0,0,0,0,0,0],[0,0,0,0,0,0,0,0,0,0,0,0],[0,0,0,0,0,0,0,0,0,0,0,0],[0,0,0,0,0,0,0,0,0,0,0,0],[0,0,0,0,0,0,0,0,0,0,0,0],[0,0,0,0,0,0,0,0,0,0,0,0],[0,0,0,0,0,0,0,0,0,0,0,0],[0,0,0,0,0,0,0,0,0,0,0,0],[0,0,0,0,0,0,0,0,0,0,0,0],[0,0,0,0,0,0,0,0,0,0,0,0],[0,0,0,0,0,0,0,0,0,0,0,0],[0,0,0,0,0,0,0,0,0,0,0,0],[0,0,0,0,1,0,0,0,0,0,0,0],[0,0,0,0,0,0,0,0,0,0,0,0],[0,0,0,0,0,0,0,0,0,0,0,0],[0,0,0,0,0,0,0,0,0,0,0,0],[0,0,0,0,0,0,0,0,0,0,0,0],[0,0,0,0,0,0,0,0,0,0,0,0],[0,0,0,0,0,0,0,0,0,0,0,0],[0,0,0,0,0,0,0,0,0,0,0,0],[0,0,0,0,0,0,0,0,0,0,0,0],[0,0,0,0,0,0,0,0,0,0,0,0],[0,0,0,0,0,0,0,0,0,0,0,0],[0,0,0,0,0,0,0,0,0,0,0,0],[0,0,0,0,0,0,0,0,0,0,0,0],[0,0,0,0,0,0,0,0,0,0,0,0],[0,0,0,0,0,0,0,0,0,0,0,0],[0,0,0,0,0,0,0,0,0,0,0,0],[0,0,0,0,0,0,0,0,0,0,0,1],[0,0,0,0,0,0,0,1,0,0,0,0],[0,0,0,0,0,0,0,0,0,0,0,0],[0,0,0,0,0,0,0,0,0,0,0,0],[0,1,0,0,0,0,0,0,0,0,0,0],[0,0,0,0,0,0,0,0,0,0,0,0],[0,0,0,0,0,0,0,0,0,0,0,0],[0,1,0,0,0,0,0,0,0,0,0,0],[0,0,0,0,0,0,0,0,0,0,0,0],[0,0,0,0,0,0,0,0,0,0,0,0],[0,0,0,0,0,0,0,0,0,0,0,0],[0,0,0,0,0,0,0,0,0,0,0,0],[0,0,0,0,0,0,0,0,0,0,0,0],[0,0,0,0,0,0,0,0,0,0,0,0],[0,0,0,0,0,0,0,0,1,0,0,0],[0,0,0,0,0,0,0,0,0,0,0,0],[1,0,0,0,0,0,0,0,0,0,0,0],[0,0,0,0,1,0,0,0,0,0,0,0],[0,0,0,0,0,0,0,0,0,0,0,0],[0,0,0,0,0,0,0,0,0,0,0,0],[0,0,0,0,0,0,0,0,0,0,0,0],[0,0,0,0,0,0,0,0,0,0,0,0],[0,0,0,0,0,0,0,0,0,0,0,0],[1,0,0,0,0,0,0,0,0,0,0,0],[0,0,0,0,0,0,0,0,0,0,0,0],[0,0,0,0,0,0,0,0,0,0,1,0],[0,0,0,0,0,0,0,0,0,0,0,0],[0,0,0,0,0,0,0,0,0,0,0,0],[0,0,0,0,0,0,0,1,0,0,0,0],[0,0,0,0,0,0,0,0,0,0,0,0],[0,0,0,0,0,0,0,0,0,0,0,0],[0,0,0,0,0,0,0,0,0,0,0,0],[0,0,0,0,0,0,0,0,0,0,0,0],[0,0,0,0,0,0,0,0,0,0,0,0],[0,0,0,0,0,0,0,0,0,0,0,0],[0,0,0,0,0,0,0,0,0,0,0,0],[0,0,0,0,0,0,0,0,0,0,0,0],[0,0,0,0,0,0,0,0,0,0,0,0],[0,0,0,0,0,0,0,0,0,0,0,0],[0,0,0,0,0,0,0,0,0,0,0,0],[0,0,0,0,0,0,0,0,0,0,0,0],[0,0,0,0,0,0,0,0,0,0,0,0],[0,0,0,0,0,0,0,0,0,0,0,0],[0,0,0,0,0,0,0,0,0,0,0,0],[0,0,0,1,0,0,0,0,0,0,0,0],[0,0,0,0,0,0,0,0,0,0,0,0],[0,0,0,0,0,0,0,0,0,0,0,0],[0,0,0,0,0,0,0,0,0,0,0,0],[0,0,0,0,0,0,0,0,0,0,0,0],[0,0,0,0,0,0,0,0,0,0,0,0],[0,0,0,0,0,0,0,0,0,0,0,0],[0,0,0,0,0,0,0,0,0,0,0,0],[0,0,0,0,0,0,0,0,0,0,0,0],[0,0,0,0,0,0,0,0,0,0,0,0],[0,0,0,0,0,0,0,0,0,0,0,0],[0,0,0,0,0,0,0,0,0,0,0,0],[0,0,0,0,0,0,0,0,0,0,0,0],[0,0,0,0,0,0,0,0,0,0,0,0],[0,0,0,0,0,0,0,0,0,0,0,0],[0,0,0,0,0,0,0,0,0,0,0,0],[0,0,0,0,0,0,0,0,0,0,0,0],[0,0,0,0,0,0,0,0,0,0,0,0],[0,0,0,0,0,0,0,0,0,0,0,0],[0,0,0,1,0,0,0,0,0,0,0,0],[0,0,0,0,0,0,0,0,0,0,0,0],[0,0,0,0,0,1,0,0,0,0,0,0],[0,0,0,0,0,0,0,0,0,0,1,0],[0,0,0,0,0,0,0,0,0,0,0,0],[0,0,0,0,0,0,0,0,0,0,0,0],[0,0,0,0,0,0,0,0,0,0,0,0],[0,0,0,0,0,0,0,0,0,0,0,0],[0,0,0,0,0,1,0,0,0,0,0,0],[0,0,0,0,0,0,0,0,0,0,0,0],[0,0,0,0,0,0,0,0,1,0,0,0],[0,0,0,0,0,0,0,0,0,0,0,0],[0,0,0,0,0,0,0,0,0,0,0,0],[0,0,0,0,0,0,0,0,0,0,0,0],[0,0,0,0,0,0,0,0,0,0,0,0],[0,0,0,0,0,0,0,0,0,0,0,0],[0,0,0,0,0,0,0,0,1,0,0,0]]},{"feature":[2,4,1,5,5,3,1,-2,1,-2,-2,2,1,-2,-2,1,-2,-2,4,2,1,-2,-2,5,-2,-2,2,1,-2,-2,4,-2,-2,1,1,1,1,-2,-2,2,-2,-2,2,4,-2,-2,1,-2,-2,0,2,1,-2,-2,4,-2,-2,3,1,-2,-2,1,-2,-2,0,4,2,1,3,-2,-2,1,-2,-2,2,3,-2,-2,4,-2,-2,2,4,-2,-2,-2,2,4,2,-2,-2,4,-2,4,-2,-2,1,4,-2,-2,-2,4,1,4,5,0,2,-2,-2,-2,5,2,-2,-2,0,-2,-2,1,4,3,-2,-2,4,-2,-2,3,5,-2,-2,4,-2,-2,4,2,3,0,-2,-2,0,-2,-2,1,2,-2,-2,4,-2,-2,3,2,3,-2,-2,3,-2,-2,1,-2,2,-2,-2,1,2,1,5,5,-2,-2,1,-2,-2,1,5,-2,-2,0,-2,-2,5,1,2,-2,-2,1,-2,-2,5,1,-2,-2,2,-2,-2,0,1,1,1,-2,-2,2,-2,-2,5,2,-2,-2,5,-2,-2,0,2,1,-2,-2,5,-2,-2,1,5,-2,-2,5,-2,-2,1,1,1,5,5,5,2,-2,-2,2,-2,-2,5,1,-2,-2,-2,2,1,5,-2,-2,1,-2,-2,5,-2,1,-2,-2,3,2,5,-2,1,-2,-2,2,1,-2,-2,2,-2,-2,2,-2,-2,4,2,-2,-2,2,5,-2,-2,5,2,-2,-2,2,-2,-2,4,4,1,2,5,5,-2,-2,5,-2,-2,2,5,-2,-2,4,-2,-2,2,2,-2,1,-2,-2,1,4,-2,-2,2,-2,-2,1,4,2,-2,2,-2,-2,2,-2,1,-2,-2,1,2,1,-2,-2,5,-2,-2,2,4,-2,-2,-2,0,0,2,5,3,-2,-2,0,-2,-2,2,2,-2,-2,0,-2,-2,2,5,5,-2,-2,0,-2,-2,0,1,-2,-2,0,-2,-2,1,5,5,2,-2,-2,2,-2,-2,2,1,-2,-2,1,-2,-2,1,2,1,-2,-2,5,-2,-2,5,1,-2,-2,5,-2,-2],"threshold":[2.5,12.5,48.5,66.5,13.5,2.5,8.5,-2.0,31.5,-2.0,-2.0,0.5,40.5,-2.0,-2.0,39.5,-2.0,-2.0,10.5,0.5,36.5,-2.0,-2.0,15.5,-2.0,-2.0,0.5,26.5,-2.0,-2.0,11.5,-2.0,-2.0,21.5,19.5,16.5,13.5,-2.0,-2.0,1.0,-2.0,-2.0,1.0,0.5,-2.0,-2.0,20.5,-2.0,-2.0,1.5,1.0,29.5,-2.0,-2.0,3.5,-2.0,-2.0,2.5,38.0,-2.0,-2.0,47.5,-2.0,-2.0,2.5,10.5,0.5,49.5,2.5,-2.0,-2.0,53.5,-2.0,-2.0,1.5,2.5,-2.0,-2.0,0.5,-2.0,-2.0,1.5,11.5,-2.0,-2.0,-2.0,1.5,9.5,0.5,-2.0,-2.0,10.5,-2.0,11.5,-2.0,-2.0,62.5,10.0,-2.0,-2.0,-2.0,37.5,41.5,15.5,12.5,1.5,0.5,-2.0,-2.0,-2.0,17.0,0.5,-2.0,-2.0,1.5,-2.0,-2.0,36.5,17.5,1.5,-2.0,-2.0,18.5,-2.0,-2.0,1.5,11.5,-2.0,-2.0,17.5,-2.0,-2.0,25.5,0.5,2.5,2.5,-2.0,-2.0,2.5,-2.0,-2.0,74.5,1.5,-2.0,-2.0,24.5,-2.0,-2.0,2.5,0.5,1.5,-2.0,-2.0,1.5,-2.0,-2.0,67.5,-2.0,1.5,-2.0,-2.0,279.5,0.5,3.5,52.0,12.5,-2.0,-2.0,2.5,-2.0,-2.0,85.5,8.5,-2.0,-2.0,6.0,-2.0,-2.0,15.5,29.5,1.5,-2.0,-2.0,32.5,-2.0,-2.0,30.5,24.5,-2.0,-2.0,1.5,-2.0,-2.0,10.5,293.5,289.5,284.5,-2.0,-2.0,1.5,-2.0,-2.0,87.5,0.5,-2.0,-2.0,89.5,-2.0,-2.0,11.5,0.5,325.5,-2.0,-2.0,71.5,-2.0,-2.0,347.5,54.5,-2.0,-2.0,41.5,-2.0,-2.0,9.5,8.5,5.5,14.5,11.5,10.5,6.5,-2.0,-2.0,3.5,-2.0,-2.0,13.5,2.5,-2.0,-2.0,-2.0,5.5,1.5,65.0,-2.0,-2.0,2.5,-2.0,-2.0,63.5,-2.0,2.5,-2.0,-2.0,0.5,4.5,8.5,-2.0,6.5,-2.0,-2.0,6.0,6.5,-2.0,-2.0,7.5,-2.0,-2.0,4.5,-2.0,-2.0,22.5,6.0,-2.0,-2.0,3.5,50.5,-2.0,-2.0,50.5,4.5,-2.0,-2.0,5.5,-2.0,-2.0,22.5,3.5,47.5,3.5,26.5,19.0,-2.0,-2.0,65.5,-2.0,-2.0,7.5,12.0,-2.0,-2.0,0.5,-2.0,-2.0,4.5,3.5,-2.0,48.5,-2.0,-2.0,53.5,1.0,-2.0,-2.0,6.5,-2.0,-2.0,21.5,4.5,5.5,-2.0,7.5,-2.0,-2.0,5.0,-2.0,20.5,-2.0,-2.0,71.5,3.5,24.5,-2.0,-2.0,21.5,-2.0,-2.0,6.0,21.5,-2.0,-2.0,-2.0,11.5,6.0,3.5,8.5,0.5,-2.0,-2.0,1.5,-2.0,-2.0,5.5,4.5,-2.0,-2.0,1.5,-2.0,-2.0,3.5,85.5,79.5,-2.0,-2.0,10.5,-2.0,-2.0,9.5,272.5,-2.0,-2.0,10.5,-2.0,-2.0,351.5,37.5,31.5,3.5,-2.0,-2.0,3.5,-2.0,-2.0,3.5,350.5,-2.0,-2.0,345.5,-2.0,-2.0,353.5,3.5,352.5,-2.0,-2.0,30.5,-2.0,-2.0,27.5,358.5,-2.0,-2.0,43.5,-2.0,-2.0],"children_left":[1,2,3,4,5,6,7,-1,9,-1,-1,12,13,-1,-1,16,-1,-1,19,20,21,-1,-1,24,-1,-1,27,28,-1,-1,31,-1,-1,34,35,36,37,-1,-1,40,-1,-1,43,44,-1,-1,47,-1,-1,50,51,52,-1,-1,55,-1,-1,58,59,-1,-1,62,-1,-1,65,66,67,68,69,-1,-1,72,-1,-1,75,76,-1,-1,79,-1,-1,82,83,-1,-1,-1,87,88,89,-1,-1,92,-1,94,-1,-1,97,98,-1,-1,-1,102,103,104,105,106,107,-1,-1,-1,111,112,-1,-1,115,-1,-1,118,119,120,-1,-1,123,-1,-1,126,127,-1,-1,130,-1,-1,133,134,135,136,-1,-1,139,-1,-1,142,143,-1,-1,146,-1,-1,149,150,151,-1,-1,154,-1,-1,157,-1,159,-1,-1,162,163,164,165,166,-1,-1,169,-1,-1,172,173,-1,-1,176,-1,-1,179,180,181,-1,-1,184,-1,-1,187,188,-1,-1,191,-1,-1,194,195,196,197,-1,-1,200,-1,-1,203,204,-1,-1,207,-1,-1,210,211,212,-1,-1,215,-1,-1,218,219,-1,-1,222,-1,-1,225,226,227,228,229,230,231,-1,-1,234,-1,-1,237,238,-1,-1,-1,242,243,244,-1,-1,247,-1,-1,250,-1,252,-1,-1,255,256,257,-1,259,-1,-1,262,263,-1,-1,266,-1,-1,269,-1,-1,272,273,-1,-1,276,277,-1,-1,280,281,-1,-1,284,-1,-1,287,288,289,290,291,292,-1,-1,295,-1,-1,298,299,-1,-1,302,-1,-1,305,306,-1,308,-1,-1,311,312,-1,-1,315,-1,-1,318,319,320,-1,322,-1,-1,325,-1,327,-1,-1,330,331,332,-1,-1,335,-1,-1,338,339,-1,-1,-1,343,344,345,346,347,-1,-1,350,-1,-1,353,354,-1,-1,357,-1,-1,360,361,362,-1,-1,365,-1,-1,368,369,-1,-1,372,-1,-1,375,376,377,378,-1,-1,381,-1,-1,384,385,-1,-1,388,-1,-1,391,392,393,-1,-1,396,-1,-1,399,400,-1,-1,403,-1,-1],"children_right":[224,101,64,33,18,11,8,-1,10,-1,-1,15,14,-1,-1,17,-1,-1,26,23,22,-1,-1,25,-1,-1,30,29,-1,-1,32,-1,-1,49,42,39,38,-1,-1,41,-1,-1,46,45,-1,-1,48,-1,-1,57,54,53,-1,-1,56,-1,-1,61,60,-1,-1,63,-1,-1,86,81,74,71,70,-1,-1,73,-1,-1,78,77,-1,-1,80,-1,-1,85,84,-1,-1,-1,96,91,90,-1,-1,93,-1,95,-1,-1,100,99,-1,-1,-1,161,132,117,110,109,108,-1,-1,-1,114,113,-1,-1,116,-1,-1,125,122,121,-1,-1,124,-1,-1,129,128,-1,-1,131,-1,-1,148,141,138,137,-1,-1,140,-1,-1,145,144,-1,-1,147,-1,-1,156,153,152,-1,-1,155,-1,-1,158,-1,160,-1,-1,193,178,171,168,167,-1,-1,170,-1,-1,175,174,-1,-1,177,-1,-1,186,183,182,-1,-1,185,-1,-1,190,189,-1,-1,192,-1,-1,209,202,199,198,-1,-1,201,-1,-1,206,205,-1,-1,208,-1,-1,217,214,213,-1,-1,216,-1,-1,221,220,-1,-1,223,-1,-1,286,271,254,241,236,233,232,-1,-1,235,-1,-1,240,239,-1,-1,-1,249,246,245,-1,-1,248,-1,-1,251,-1,253,-1,-1,268,261,258,-1,260,-1,-1,265,264,-1,-1,267,-1,-1,270,-1,-1,275,274,-1,-1,279,278,-1,-1,283,282,-1,-1,285,-1,-1,342,317,304,297,294,293,-1,-1,296,-1,-1,301,300,-1,-1,303,-1,-1,310,307,-1,309,-1,-1,314,313,-1,-1,316,-1,-1,329,324,321,-1,323,-1,-1,326,-1,328,-1,-1,337,334,333,-1,-1,336,-1,-1,341,340,-1,-1,-1,374,359,352,349,348,-1,-1,351,-1,-1,356,355,-1,-1,358,-1,-1,367,364,363,-1,-1,366,-1,-1,371,370,-1,-1,373,-1,-1,390,383,380,379,-1,-1,382,-1,-1,387,386,-1,-1,389,-1,-1,398,395,394,-1,-1,397,-1,-1,402,401,-1,-1,404,-1,-1],"value":[[0,0,0,0,0,0,0,0,0,0,0,0],[0,0,0,0,0,0,0,0,0,0,0,0],[0,0,0,0,0,0,0,0,0,0,0,0],[0,0,0,0,0,0,0,0,0,0,0,0],[0,0,0,0,0,0,0,0,0,0,0,0],[0,0,0,0,0,0,0,0,0,0,0,0],[0,0,0,0,0,0,0,0,0,0,0,0],[0,0,0,0,0,0,0,0,0,0,0,0],[0,0,0,0,0,0,0,0,0,0,0,0],[0,0,0,0,0,0,0,0,0,0,0,0],[0,0,0,0,0,0,0,0,0,0,0,0],[0,0,0,0,0,0,0,0,0,0,0,0],[0,0,0,0,0,0,0,0,0,0,0,0],[0,0,0,0,0,0,0,0,0,0,0,0],[0,0,0,0,0,0,0,0,0,0,0,0],[0,0,0,0,0,0,0,0,0,0,0,0],[0,0,0,0,0,0,0,0,0,0,0,0],[0,0,0,0,0,0,0,0,0,0,0,0],[0,0,0,0,0,0,0,0,0,0,0,0],[0,0,0,0,0,0,0,0,0,0,0,0],[0,0,0,0,0,0,0,0,0,0,0,0],[0,0,0,0,0,0,0,0,0,0,0,0],[0,0,0,0,0,0,0,0,0,0,0,0],[0,0,0,0,0,0,0,0,0,0,0,0],[0,0,0,0,0,0,0,0,0,0,0,0],[0,0,0,0,0,0,0,0,0,0,0,0],[0,0,0,0,0,0,0,0,0,0,0,0],[0,0,0,0,0,0,0,0,0,0,0,0],[0,0,0,0,0,0,0,0,0,0,0,0],[0,0,0,0,0,0,0,0,0,0,0,0],[0,0,0,0,0,0,0,0,0,0,0,0],[0,0,0,0,0,0,0,0,0,0,0,0],[0,0,0,0,0,0,0,0,0,0,0,0],[0,0,0,0,0,0,0,0,0,0,0,0],[0,0,0,0,0,0,0,0,0,0,0,0],[0,0,0,0,0,0,0,0,0,0,0,0],[0,0,0,0,0,0,0,0,0,0,0,0],[0,0,0,0,0,0,0,0,0,0,0,0],[0,0,0,0,0,0,0,0,0,0,0,0],[0,0,0,0,0,0,0,0,0,0,0,0],[0,0,0,0,0,0,0,0,0,0,0,0],[0,0,0,0,0,0,0,0,0,0,0,0],[0,0,0,0,0,0,0,0,0,0,0,0],[0,0,0,0,0,0,0,0,0,0,0,0],[0,0,0,0,0,0,0,1,0,0,0,0],[0,0,0,0,0,0,0,0,0,0,0,0],[0,0,0,0,0,0,0,0,0,0,0,0],[0,0,0,0,0,0,0,0,0,0,0,0],[0,0,0,0,0,0,0,0,0,0,0,0],[0,0,0,0,0,0,0,0,0,0,0,0],[0,0,0,0,0,0,0,0,0,0,0,0],[0,0,0,0,0,0,0,0,0,0,0,0],[0,0,0,0,0,0,0,0,0,0,0,0],[0,0,0,0,0,0,0,0,0,0,0,0],[0,0,0,0,0,0,0,0,0,0,0,0],[0,0,0,0,0,0,0,0,0,0,0,0],[0,0,0,0,0,0,0,0,0,0,0,0],[0,0,0,0,0,0,0,0,0,0,0,0],[0,0,0,0,0,0,0,0,0,0,0,0],[0,0,0,0,0,0,0,0,0,0,0,0],[0,0,0,0,0,0,0,0,0,0,0,0],[0,0,0,0,0,0,0,0,0,0,0,0],[0,0,0,0,0,0,0,0,0,0,0,0],[0,0,0,0,0,0,0,0,0,0,0,0],[0,0,0,0,0,0,0,0,0,0,0,0],[0,0,0,0,0,0,0,0,0,0,0,0],[0,0,0,0,0,0,0,0,0,0,0,0],[0,0,0,0,0,0,0,0,0,0,0,0],[0,0,0,0,0,0,0,0,0,0,0,0],[0,0,0,0,0,0,0,0,0,0,0,0],[0,0,0,0,0,0,0,0,0,0,0,1],[0,0,0,0,0,0,0,0,0,0,0,0],[0,0,0,0,0,0,0,0,0,0,0,0],[0,0,0,0,0,0,0,0,0,0,0,0],[0,0,0,0,0,0,0,0,0,0,0,0],[0,0,0,0,0,0,0,0,0,0,0,0],[0,0,0,0,0,0,0,0,0,0,0,0],[0,0,0,0,0,0,0,0,0,0,0,0],[0,0,0,0,0,0,0,0,0,0,0,0],[0,0,0,0,0,0,0,0,0,0,0,0],[0,0,0,0,0,0,0,0,0,0,0,0],[0,0,0,0,0,0,0,0,0,0,0,0],[0,0,0,0,0,0,0,0,0,0,0,0],[0,0,0,0,0,0,0,0,0,0,0,0],[0,0,0,0,0,0,0,0,0,0,0,0],[0,0,1,0,0,0,0,0,0,0,0,0],[0,0,0,0,0,0,0,0,0,0,0,0],[0,0,0,0,0,0,0,0,0,0,0,0],[0,0,0,0,0,0,0,0,0,0,0,0],[0,0,0,0,0,0,0,0,0,0,0,0],[0,0,0,0,0,0,0,0,0,0,0,0],[0,0,0,0,0,0,0,0,0,0,0,0],[0,0,0,0,0,0,0,0,0,0,0,0],[0,0,0,0,0,0,0,0,0,0,0,0],[0,0,0,0,0,0,0,0,0,0,0,0],[0,0,0,0,0,0,0,0,0,0,0,0],[0,0,0,0,0,0,0,0,0,0,0,0],[0,0,0,0,0,0,0,0,0,0,0,0],[0,1,0,0,0,0,0,0,0,0,0,0],[0,0,0,0,0,0,1,0,0,0,0,0],[0,0,0,0,0,0,0,0,0,0,0,0],[0,0,0,0,0,0,0,0,0,0,0,0],[0,0,0,0,0,0,0,0,0,0,0,0],[0,0,0,0,0,0,0,0,0,0,0,0],[0,0,0,0,0,0,0,0,0,0,0,0],[0,0,0,0,0,0,0,0,0,0,0,0],[0,0,0,0,0,0,0,0,0,0,0,0],[0,0,0,0,0,0,0,0,0,0,0,0],[0,0,0,0,0,0,0,0,0,0,0,0],[0,0,1,0,0,0,0,0,0,0,0,0],[0,0,0,0,0,0,0,0,0,0,0,0],[0,0,0,0,0,0,0,0,0,0,0,0],[0,0,0,0,0,0,0,0,0,0,0,0],[0,1,0,0,0,0,0,0,0,0,0,0],[0,0,0,0,0,0,0,0,0,0,0,0],[0,0,0,0,0,0,0,0,0,0,0,0],[0,0,0,0,0,0,0,0,0,0,0,0],[0,0,0,0,0,0,0,0,0,0,0,0],[0,0,0,0,0,0,0,0,0,0,0,0],[0,0,0,0,0,0,0,0,0,0,0,0],[0,0,0,0,0,0,0,0,0,0,0,0],[0,0,0,0,0,0,0,0,0,0,0,0],[0,0,0,0,0,0,0,0,0,0,0,0],[0,0,0,0,0,0,0,0,0,0,0,0],[0,0,0,0,0,0,0,0,0,0,0,0],[0,0,0,0,0,0,0,0,0,0,0,0],[0,0,0,0,0,0,0,0,0,0,0,0],[0,0,0,0,0,0,0,0,0,0,0,0],[0,0,0,0,0,0,0,0,0,0,0,0],[0,0,0,0,0,0,0,0,0,0,0,0],[0,0,0,0,0,0,0,0,0,0,0,0],[0,0,0,0,0,0,0,0,0,0,0,0],[0,0,0,0,0,0,0,0,0,0,0,0],[0,0,0,0,0,0,0,0,0,0,0,0],[0,0,0,0,0,0,0,0,0,0,0,0],[0,0,0,0,0,0,0,0,0,0,0,0],[0,0,0,0,0,0,0,0,0,0,0,0],[0,0,0,0,0,0,0,0,0,0,0,0],[0,0,0,0,0,0,0,0,0,0,0,0],[0,0,0,0,0,0,0,0,0,0,0,0],[0,0,0,0,0,0,0,0,0,0,0,0],[0,0,0,0,0,0,0,0,0,0,0,0],[0,0,0,0,0,0,0,0,0,0,0,0],[0,0,0,0,0,0,0,0,0,0,0,0],[0,0,0,0,0,0,0,0,0,0,0,0],[0,0,0,0,0,0,0,0,0,0,0,0],[0,0,0,0,0,0,0,0,0,0,0,0],[0,0,0,0,0,0,0,0,0,0,0,0],[0,0,0,0,0,0,0,0,0,0,0,0],[0,0,0,0,0,0,0,0,0,0,0,0],[0,0,0,0,0,0,0,0,0,0,0,0],[0,0,0,0,0,0,0,0,0,0,0,0],[0,0,0,0,0,0,0,0,0,0,0,0],[0,0,0,0,0,0,0,0,0,0,0,0],[0,0,0,0,0,0,0,0,0,0,0,0],[0,0,0,0,0,0,0,0,0,0,0,0],[0,0,0,0,0,0,0,0,0,0,0,0],[0,0,0,0,0,0,0,0,0,0,0,0],[0,0,0,0,0,0,0,0,0,0,0,0],[0,0,0,0,0,0,0,0,0,0,0,0],[0,0,0,0,0,0,0,0,0,0,0,0],[0,0,0,0,0,0,0,0,0,0,0,0],[0,0,0,0,0,0,0,0,0,0,0,0],[0,0,0,0,0,0,0,0,0,0,0,0],[0,0,0,0,0,0,0,0,0,0,0,0],[0,0,0,0,0,0,0,0,0,0,0,0],[0,0,0,0,0,0,0,0,0,0,0,0],[0,0,0,0,0,0,0,0,0,0,0,0],[0,0,0,0,0,0,0,0,0,0,0,0],[0,0,0,0,0,0,0,0,0,0,0,0],[0,0,0,0,0,0,0,0,0,0,0,0],[0,0,0,0,0,0,0,0,0,0,0,0],[0,0,0,0,0,0,0,0,0,0,0,0],[0,0,0,0,0,0,0,0,0,0,0,0],[0,0,0,0,0,0,0,0,0,0,0,0],[0,0,0,0,0,0,0,0,0,0,0,0],[0,0,0,0,0,0,0,0,0,0,0,0],[0,0,0,0,0,0,0,0,0,0,0,0],[0,0,0,0,0,0,0,0,0,0,0,0],[0,0,0,0,0,0,0,0,0,0,0,0],[0,0,0,0,0,0,0,0,0,0,0,0],[0,0,0,0,0,0,0,0,0,0,0,0],[0,0,0,0,0,0,0,0,0,0,0,0],[0,0,0,0,0,0,0,0,0,0,0,0],[0,0,0,0,0,0,0,0,0,0,0,0],[0,0,0,0,0,0,0,0,0,0,0,0],[0,0,0,0,0,0,0,0,0,0,0,0],[0,0,0,0,0,0,0,0,0,0,0,0],[0,0,0,0,0,0,0,0,0,0,0,0],[0,0,0,0,0,0,0,0,0,0,0,0],[0,0,0,0,0,0,0,0,0,0,0,0],[0,0,0,0,0,0,0,0,0,0,0,0],[0,0,0,0,0,0,0,0,0,0,0,0],[0,0,0,0,0,0,0,0,0,0,0,0],[0,0,0,0,0,0,0,0,0,0,0,0],[0,0,0,0,0,0,0,0,0,0,0,0],[0,0,0,0,0,0,0,0,0,0,0,0],[0,0,0,0,0,0,0,0,0,0,0,0],[0,0,0,0,0,0,0,0,0,0,0,0],[0,0,0,0,0,0,0,0,0,0,0,0],[0,0,0,0,0,0,0,0,0,0,0,0],[0,0,0,0,0,0,0,0,0,0,0,0],[0,0,0,0,0,0,0,0,0,0,0,0],[0,0,0,0,0,0,0,0,0,0,0,0],[0,0,0,0,0,0,0,0,0,0,0,0],[0,0,0,0,0,0,0,0,0,0,0,0],[0,0,0,0,0,0,0,0,0,0,0,0],[0,0,0,0,0,0,0,0,0,0,0,0],[0,0,0,0,0,0,0,0,0,0,0,0],[0,0,0,0,0,0,0,0,0,0,0,0],[0,0,0,0,0,0,0,0,0,0,0,0],[0,0,0,0,0,0,0,0,0,0,0,0],[0,0,0,0,0,0,0,0,0,0,0,0],[0,0,0,0,0,0,0,0,0,0,0,0],[0,0,0,0,0,0,0,0,0,0,0,0],[0,0,0,0,0,0,0,0,0,0,0,0],[0,0,0,0,0,0,0,0,0,0,0,0],[0,0,0,0,0,0,0,0,0,0,0,0],[0,0,0,0,0,0,0,0,0,0,0,0],[0,0,0,0,0,0,0,0,0,0,0,0],[0,0,0,0,0,0,0,0,0,0,0,0],[0,0,0,0,0,0,0,0,0,0,0,0],[0,0,0,0,0,0,0,0,0,0,0,0],[0,0,0,0,0,0,0,0,0,0,0,0],[0,0,0,0,0,0,0,0,0,0,0,0],[0,0,0,0,0,0,0,0,0,0,0,0],[0,0,0,0,0,0,0,0,0,0,0,0],[0,0,0,0,0,0,0,0,0,0,0,0],[0,0,0,0,0,0,0,0,0,0,0,0],[0,0,0,0,0,0,0,0,0,0,0,0],[0,0,0,0,0,0,0,0,0,0,0,0],[0,0,0,0,0,0,0,0,0,0,0,0],[0,0,0,0,0,0,0,0,1,0,0,0],[0,0,0,0,0,0,0,0,0,0,0,0],[0,0,0,0,0,0,1,0,0,0,0,0],[0,0,0,0,0,0,0,0,0,0,0,0],[0,0,0,0,0,0,0,0,0,0,0,0],[0,0,0,0,0,0,0,0,0,0,0,0],[0,0,0,0,0,0,0,0,0,0,0,0],[0,0,0,0,0,0,0,0,0,0,0,0],[0,0,0,1,0,0,0,0,0,0,0,0],[0,0,0,0,0,0,0,0,0,0,0,0],[0,0,0,0,0,0,0,0,0,0,0,0],[0,0,0,0,0,0,0,0,0,0,0,0],[0,0,0,0,0,0,0,0,0,0,0,1],[0,0,0,0,0,0,0,0,0,0,0,0],[0,0,0,0,0,0,0,0,0,0,0,0],[0,0,0,0,0,0,0,0,0,0,0,0],[0,0,0,0,0,0,0,0,0,0,0,0],[0,0,0,0,0,0,0,0,0,0,0,0],[0,1,0,0,0,0,0,0,0,0,0,0],[0,0,0,0,0,0,0,0,0,0,0,0],[0,0,0,0,0,0,0,0,0,0,0,0],[0,0,0,0,0,0,0,0,0,0,0,0],[0,0,0,0,0,0,0,0,0,0,0,0],[0,0,0,0,0,0,0,0,0,0,0,0],[0,0,0,0,0,0,0,0,0,0,0,0],[0,0,0,0,0,0,1,0,0,0,0,0],[0,0,0,0,0,0,0,0,0,0,0,0],[0,0,0,0,0,0,0,0,0,0,0,0],[0,0,0,0,0,0,0,0,0,0,0,0],[0,0,0,0,0,0,0,0,0,0,0,0],[0,0,0,0,0,0,0,0,0,0,0,0],[0,0,0,0,0,0,0,0,0,0,0,0],[0,0,0,0,0,0,0,0,0,0,0,0],[0,0,0,0,0,0,0,0,0,0,0,0],[0,0,0,0,0,0,0,0,0,0,0,0],[0,0,0,0,0,0,0,0,1,0,0,0],[0,0,0,0,0,0,0,0,0,0,0,0],[0,0,1,0,0,0,0,0,0,0,0,0],[0,0,0,0,0,0,0,0,1,0,0,0],[0,0,0,0,0,0,0,0,0,0,0,0],[0,0,0,0,0,0,0,0,0,0,0,0],[0,0,0,0,0,0,0,0,0,0,0,1],[0,0,0,0,0,0,0,1,0,0,0,0],[0,0,0,0,0,0,0,0,0,0,0,0],[0,0,0,0,0,0,0,0,0,0,0,0],[1,0,0,0,0,0,0,0,0,0,0,0],[0,0,0,1,0,0,0,0,0,0,0,0],[0,0,0,0,0,0,0,0,0,0,0,0],[0,0,0,0,0,0,0,0,0,0,0,0],[0,0,0,0,0,0,1,0,0,0,0,0],[0,0,0,0,0,0,0,0,0,0,0,1],[0,0,0,0,0,0,0,0,0,0,0,0],[0,0,0,0,0,0,0,0,0,0,0,0],[0,0,0,0,0,0,1,0,0,0,0,0],[0,0,0,0,0,0,0,0,0,0,0,0],[0,0,0,0,0,0,0,0,0,0,0,0],[0,0,0,0,0,0,0,0,0,0,0,0],[0,0,0,0,0,0,0,0,0,0,0,0],[0,0,0,0,0,0,0,0,0,0,0,0],[0,0,0,0,0,0,0,0,0,0,0,0],[0,0,0,1,0,0,0,0,0,0,0,0],[0,0,0,0,0,0,0,1,0,0,0,0],[0,0,0,0,0,0,0,0,0,0,0,0],[0,0,0,0,0,0,0,0,0,0,0,0],[0,0,0,0,0,0,0,0,0,0,0,0],[0,0,0,0,0,0,0,0,0,0,0,0],[0,0,0,0,0,0,0,0,0,0,0,0],[0,0,0,0,0,0,0,0,0,1,0,0],[0,0,0,0,0,0,0,0,0,0,0,0],[0,0,0,0,0,0,0,0,0,0,0,0],[0,0,0,0,0,0,0,0,0,0,0,0],[0,0,0,0,0,0,0,0,0,0,0,0],[0,0,0,0,0,0,0,0,0,0,0,0],[0,0,0,0,0,0,0,0,0,0,0,0],[0,0,0,1,0,0,0,0,0,0,0,0],[0,0,0,0,0,0,0,0,0,0,0,0],[0,0,0,0,0,0,0,0,0,0,0,0],[0,0,0,0,0,0,0,0,0,0,0,0],[0,0,0,0,0,0,0,0,0,0,0,0],[0,0,0,0,0,0,0,0,0,0,0,0],[0,0,0,0,0,0,0,0,0,0,0,0],[0,0,0,0,0,0,0,0,0,0,0,0],[0,0,0,0,0,0,0,0,0,0,0,0],[0,0,0,0,0,0,0,0,0,0,0,0],[1,0,0,0,0,0,0,0,0,0,0,0],[0,0,0,0,0,0,0,0,0,0,0,0],[0,0,0,0,0,0,0,0,0,0,0,0],[0,0,0,0,0,0,0,0,0,0,0,0],[0,0,0,0,0,0,0,0,0,0,0,0],[0,0,0,0,0,0,0,0,0,0,0,0],[0,0,0,0,0,0,0,0,0,1,0,0],[0,0,0,0,0,0,0,0,0,0,0,0],[0,0,0,0,0,0,0,0,0,0,0,0],[0,0,0,0,0,0,0,0,0,0,0,1],[0,0,0,0,0,0,0,0,0,0,0,0],[0,0,0,0,0,0,0,0,0,0,0,0],[0,0,0,0,0,0,0,0,0,0,0,0],[0,0,0,0,0,0,0,0,0,0,0,0],[0,0,0,0,0,0,0,0,0,0,0,0],[0,0,0,0,0,0,0,0,0,0,0,0],[0,0,0,0,0,0,0,0,0,0,0,1],[0,0,0,0,0,0,0,0,0,0,0,0],[0,0,0,0,0,0,0,0,0,0,0,0],[0,0,0,0,0,0,0,0,0,0,0,0],[0,0,0,0,0,0,0,0,0,0,0,0],[0,0,0,0,0,0,0,0,0,0,0,0],[0,0,0,0,0,0,0,0,0,0,0,0],[0,0,0,0,0,0,0,0,0,0,0,0],[1,0,0,0,0,0,0,0,0,0,0,0],[0,0,0,0,0,0,0,0,0,0,0,0],[0,0,0,0,0,0,0,0,0,0,0,0],[0,0,0,0,0,0,0,0,0,0,0,0],[0,0,0,0,0,0,0,0,0,0,0,0],[0,0,0,0,0,0,0,0,0,0,0,0],[0,0,0,0,0,0,0,0,0,0,0,0],[0,0,0,0,1,0,0,0,0,0,0,0],[0,0,0,0,0,0,0,0,0,0,0,0],[0,0,0,0,0,0,0,0,0,0,0,0],[0,0,0,0,0,0,0,0,0,0,0,0],[0,0,0,0,0,0,0,0,0,0,0,0],[0,0,0,0,0,0,0,0,0,0,0,0],[0,0,0,0,0,0,0,0,0,0,0,0],[0,0,0,0,0,0,0,0,0,0,0,0],[0,0,0,0,0,0,0,0,0,0,0,0],[0,0,0,0,0,0,0,0,0,0,0,0],[0,0,0,0,0,0,0,0,0,0,0,0],[0,0,0,0,0,0,0,0,0,0,0,0],[0,0,0,0,0,0,0,0,0,0,0,0],[0,0,0,0,0,0,0,0,0,0,0,0],[0,0,0,0,0,0,0,0,0,0,0,0],[0,0,0,0,0,0,0,0,0,0,0,0],[0,0,0,1,0,0,0,0,0,0,0,0],[0,0,0,0,0,0,0,0,0,0,0,0],[0,0,0,0,0,0,0,0,0,0,0,0],[0,0,0,0,0,0,0,0,0,0,0,0],[0,0,0,0,0,0,0,0,0,0,0,0],[0,0,0,0,0,0,0,0,0,0,0,0],[0,0,0,0,0,0,0,0,0,0,0,0],[0,0,0,0,0,0,0,0,0,0,0,0],[0,0,0,0,0,0,0,0,0,0,0,0],[0,0,0,0,0,0,0,0,0,0,0,0],[0,0,0,0,0,0,0,0,0,0,0,0],[0,0,0,0,0,0,0,0,0,0,0,0],[0,0,0,0,0,0,0,0,0,0,0,0],[0,0,0,0,0,0,0,0,0,0,0,0],[0,0,0,0,0,0,0,0,0,0,0,0],[0,0,0,1,0,0,0,0,0,0,0,0],[0,0,1,0,0,0,0,0,0,0,0,0],[0,0,0,0,0,0,0,0,0,0,0,0],[0,0,0,0,0,0,0,0,0,0,0,0],[0,0,0,0,0,0,0,0,0,0,0,0],[0,0,0,0,0,0,0,0,0,0,0,0],[0,0,0,0,0,0,0,0,0,0,0,0],[0,0,0,0,0,0,0,0,0,0,0,0],[0,0,0,0,0,0,0,0,0,0,0,0],[0,0,0,0,0,0,0,0,0,0,0,0],[0,0,0,0,0,0,0,0,0,0,0,0],[0,0,0,0,0,0,0,0,0,0,0,0],[0,0,0,0,0,0,0,0,0,0,0,0],[0,0,0,0,0,0,0,0,0,0,0,0],[0,0,0,0,0,0,0,0,0,0,0,0],[0,0,0,0,0,0,0,0,0,0,0,0],[0,0,0,0,0,0,0,0,0,0,0,0],[0,0,0,0,0,0,0,0,0,0,0,0],[0,0,0,0,0,0,0,0,0,0,0,0],[0,0,0,0,0,0,0,0,0,0,0,0],[0,0,0,0,0,0,0,0,0,0,0,0],[0,0,0,0,0,0,0,0,0,0,0,0],[0,0,0,0,0,0,0,0,0,0,0,0],[0,0,0,0,0,0,0,0,0,0,0,0],[0,0,0,0,0,0,0,0,0,0,0,0],[0,0,0,0,0,0,0,0,0,0,0,0],[0,0,0,0,0,0,0,0,0,0,0,0]]},{"feature":[0,3,2,2,5,5,5,1,-2,-2,1,-2,-2,-2,1,1,1,-2,-2,1,-2,-2,0,1,-2,-2,0,-2,-2,0,2,1,5,-2,-2,5,-2,-2,5,1,-2,-2,1,-2,-2,1,2,1,-2,-2,0,-2,-2,2,1,-2,-2,1,-2,-2,2,1,5,1,-2,-2,1,5,-2,-2,1,-2,-2,0,1,1,-2,-2,0,-2,-2,1,1,-2,-2,-2,1,1,5,2,-2,-2,5,-2,-2,5,-2,2,-2,-2,2,1,2,-2,-2,0,-2,-2,2,5,-2,-2,0,-2,-2,2,5,3,4,1,4,-2,-2,5,-2,-2,5,-2,-2,4,1,5,-2,-2,1,-2,-2,-2,5,5,1,5,-2,-2,5,-2,-2,-2,3,3,-2,1,-2,-2,4,1,-2,-2,1,-2,-2,5,1,4,5,-2,1,-2,-2,4,0,-2,-2,-2,2,1,3,-2,-2,1,-2,-2,1,2,-2,-2,2,-2,-2,2,3,2,0,-2,-2,1,-2,-2,2,1,-2,-2,1,-2,-2,3,2,0,-2,-2,3,-2,-2,1,2,-2,-2,1,-2,-2,1,0,1,2,2,-2,2,-2,-2,2,-2,2,2,-2,-2,-2,2,2,2,-2,2,-2,-2,-2,-2,2,1,2,-2,2,-2,-2,2,1,1,-2,-2,1,-2,-2,2,1,-2,-2,1,-2,-2,1,1,2,2,-2,-2,2,-2,-2,2,-2,-2,2,-2,2,1,-2,-2,2,-2,-2,0,5,5,2,5,1,-2,-2,1,-2,-2,1,5,-2,-2,1,-2,-2,2,1,2,-2,-2,2,-2,-2,-2,2,2,1,1,-2,-2,1,-2,-2,2,1,-2,-2,1,-2,-2,2,1,1,-2,-2,1,-2,-2,2,1,-2,-2,2,-2,-2,5,1,1,1,5,-2,-2,5,-2,-2,2,5,-2,-2,2,-2,-2,5,2,1,-2,-2,1,-2,-2,5,1,-2,-2,2,-2,-2,2,5,2,-2,-2,0,1,-2,-2,1,-2,-2,5,5,-2,-2,0,1,-2,-2,1,-2,-2],"threshold":[6.0,0.5,2.5,0.5,26.0,20.0,9.5,6.5,-2.0,-2.0,7.5,-2.0,-2.0,-2.0,24.5,14.5,11.5,-2.0,-2.0,15.5,-2.0,-2.0,1.5,29.5,-2.0,-2.0,2.5,-2.0,-2.0,1.5,1.5,3.5,12.5,-2.0,-2.0,9.5,-2.0,-2.0,8.5,9.5,-2.0,-2.0,6.5,-2.0,-2.0,77.5,1.5,76.5,-2.0,-2.0,2.5,-2.0,-2.0,1.5,79.5,-2.0,-2.0,87.5,-2.0,-2.0,3.5,5.5,11.5,4.5,-2.0,-2.0,2.5,51.5,-2.0,-2.0,3.5,-2.0,-2.0,2.5,25.5,17.5,-2.0,-2.0,1.5,-2.0,-2.0,87.5,81.5,-2.0,-2.0,-2.0,7.5,6.5,13.5,5.5,-2.0,-2.0,28.0,-2.0,-2.0,10.5,-2.0,4.5,-2.0,-2.0,5.5,11.5,4.5,-2.0,-2.0,1.5,-2.0,-2.0,6.5,55.5,-2.0,-2.0,2.5,-2.0,-2.0,0.5,24.5,1.5,26.5,18.5,2.5,-2.0,-2.0,23.5,-2.0,-2.0,8.5,-2.0,-2.0,11.5,38.5,18.5,-2.0,-2.0,40.5,-2.0,-2.0,-2.0,42.5,41.5,23.5,39.5,-2.0,-2.0,25.5,-2.0,-2.0,-2.0,2.5,1.5,-2.0,70.5,-2.0,-2.0,10.0,35.5,-2.0,-2.0,59.5,-2.0,-2.0,11.5,32.5,10.5,9.5,-2.0,20.0,-2.0,-2.0,16.5,1.5,-2.0,-2.0,-2.0,1.5,36.5,1.5,-2.0,-2.0,40.5,-2.0,-2.0,42.5,3.5,-2.0,-2.0,3.5,-2.0,-2.0,2.5,2.5,1.5,2.5,-2.0,-2.0,12.5,-2.0,-2.0,1.5,63.5,-2.0,-2.0,38.5,-2.0,-2.0,2.5,3.5,2.5,-2.0,-2.0,1.5,-2.0,-2.0,45.0,4.0,-2.0,-2.0,69.5,-2.0,-2.0,278.5,9.5,272.5,2.5,0.5,-2.0,1.5,-2.0,-2.0,3.5,-2.0,7.5,5.0,-2.0,-2.0,-2.0,4.0,2.5,0.5,-2.0,1.5,-2.0,-2.0,-2.0,-2.0,2.5,274.5,0.5,-2.0,1.5,-2.0,-2.0,0.5,276.5,275.5,-2.0,-2.0,277.5,-2.0,-2.0,1.5,276.5,-2.0,-2.0,275.5,-2.0,-2.0,275.5,274.5,4.5,3.5,-2.0,-2.0,6.0,-2.0,-2.0,4.0,-2.0,-2.0,3.5,-2.0,5.5,276.5,-2.0,-2.0,6.5,-2.0,-2.0,10.5,89.5,88.5,0.5,77.5,303.5,-2.0,-2.0,292.5,-2.0,-2.0,300.5,87.5,-2.0,-2.0,303.5,-2.0,-2.0,3.5,293.5,1.0,-2.0,-2.0,1.5,-2.0,-2.0,-2.0,2.5,0.5,286.5,282.5,-2.0,-2.0,290.5,-2.0,-2.0,1.5,279.5,-2.0,-2.0,293.5,-2.0,-2.0,3.5,289.5,287.5,-2.0,-2.0,292.0,-2.0,-2.0,5.5,302.5,-2.0,-2.0,7.5,-2.0,-2.0,77.5,310.5,309.5,306.5,74.5,-2.0,-2.0,76.5,-2.0,-2.0,2.5,72.5,-2.0,-2.0,3.5,-2.0,-2.0,69.5,0.5,363.5,-2.0,-2.0,315.5,-2.0,-2.0,70.5,325.5,-2.0,-2.0,1.5,-2.0,-2.0,2.5,78.5,1.5,-2.0,-2.0,11.5,306.5,-2.0,-2.0,361.5,-2.0,-2.0,79.5,78.5,-2.0,-2.0,11.5,308.5,-2.0,-2.0,364.5,-2.0,-2.0],"children_left":[1,2,3,4,5,6,7,8,-1,-1,11,-1,-1,-1,15,16,17,-1,-1,20,-1,-1,23,24,-1,-1,27,-1,-1,30,31,32,33,-1,-1,36,-1,-1,39,40,-1,-1,43,-1,-1,46,47,48,-1,-1,51,-1,-1,54,55,-1,-1,58,-1,-1,61,62,63,64,-1,-1,67,68,-1,-1,71,-1,-1,74,75,76,-1,-1,79,-1,-1,82,83,-1,-1,-1,87,88,89,90,-1,-1,93,-1,-1,96,-1,98,-1,-1,101,102,103,-1,-1,106,-1,-1,109,110,-1,-1,113,-1,-1,116,117,118,119,120,121,-1,-1,124,-1,-1,127,-1,-1,130,131,132,-1,-1,135,-1,-1,-1,139,140,141,142,-1,-1,145,-1,-1,-1,149,150,-1,152,-1,-1,155,156,-1,-1,159,-1,-1,162,163,164,165,-1,167,-1,-1,170,171,-1,-1,-1,175,176,177,-1,-1,180,-1,-1,183,184,-1,-1,187,-1,-1,190,191,192,193,-1,-1,196,-1,-1,199,200,-1,-1,203,-1,-1,206,207,208,-1,-1,211,-1,-1,214,215,-1,-1,218,-1,-1,221,222,223,224,225,-1,227,-1,-1,230,-1,232,233,-1,-1,-1,237,238,239,-1,241,-1,-1,-1,-1,246,247,248,-1,250,-1,-1,253,254,255,-1,-1,258,-1,-1,261,262,-1,-1,265,-1,-1,268,269,270,271,-1,-1,274,-1,-1,277,-1,-1,280,-1,282,283,-1,-1,286,-1,-1,289,290,291,292,293,294,-1,-1,297,-1,-1,300,301,-1,-1,304,-1,-1,307,308,309,-1,-1,312,-1,-1,-1,316,317,318,319,-1,-1,322,-1,-1,325,326,-1,-1,329,-1,-1,332,333,334,-1,-1,337,-1,-1,340,341,-1,-1,344,-1,-1,347,348,349,350,351,-1,-1,354,-1,-1,357,358,-1,-1,361,-1,-1,364,365,366,-1,-1,369,-1,-1,372,373,-1,-1,376,-1,-1,379,380,381,-1,-1,384,385,-1,-1,388,-1,-1,391,392,-1,-1,395,396,-1,-1,399,-1,-1],"children_right":[220,115,60,29,14,13,10,9,-1,-1,12,-1,-1,-1,22,19,18,-1,-1,21,-1,-1,26,25,-1,-1,28,-1,-1,45,38,35,34,-1,-1,37,-1,-1,42,41,-1,-1,44,-1,-1,53,50,49,-1,-1,52,-1,-1,57,56,-1,-1,59,-1,-1,86,73,66,65,-1,-1,70,69,-1,-1,72,-1,-1,81,78,77,-1,-1,80,-1,-1,85,84,-1,-1,-1,100,95,92,91,-1,-1,94,-1,-1,97,-1,99,-1,-1,108,105,104,-1,-1,107,-1,-1,112,111,-1,-1,114,-1,-1,161,138,129,126,123,122,-1,-1,125,-1,-1,128,-1,-1,137,134,133,-1,-1,136,-1,-1,-1,148,147,144,143,-1,-1,146,-1,-1,-1,154,151,-1,153,-1,-1,158,157,-1,-1,160,-1,-1,189,174,169,166,-1,168,-1,-1,173,172,-1,-1,-1,182,179,178,-1,-1,181,-1,-1,186,185,-1,-1,188,-1,-1,205,198,195,194,-1,-1,197,-1,-1,202,201,-1,-1,204,-1,-1,213,210,209,-1,-1,212,-1,-1,217,216,-1,-1,219,-1,-1,288,245,236,229,226,-1,228,-1,-1,231,-1,235,234,-1,-1,-1,244,243,240,-1,242,-1,-1,-1,-1,267,252,249,-1,251,-1,-1,260,257,256,-1,-1,259,-1,-1,264,263,-1,-1,266,-1,-1,279,276,273,272,-1,-1,275,-1,-1,278,-1,-1,281,-1,285,284,-1,-1,287,-1,-1,346,315,306,299,296,295,-1,-1,298,-1,-1,303,302,-1,-1,305,-1,-1,314,311,310,-1,-1,313,-1,-1,-1,331,324,321,320,-1,-1,323,-1,-1,328,327,-1,-1,330,-1,-1,339,336,335,-1,-1,338,-1,-1,343,342,-1,-1,345,-1,-1,378,363,356,353,352,-1,-1,355,-1,-1,360,359,-1,-1,362,-1,-1,371,368,367,-1,-1,370,-1,-1,375,374,-1,-1,377,-1,-1,390,383,382,-1,-1,387,386,-1,-1,389,-1,-1,394,393,-1,-1,398,397,-1,-1,400,-1,-1],"value":[[0,0,0,0,0,0,0,0,0,0,0,0],[0,0,0,0,0,0,0,0,0,0,0,0],[0,0,0,0,0,0,0,0,0,0,0,0],[0,0,0,0,0,0,0,0,0,0,0,0],[0,0,0,0,0,0,0,0,0,0,0,0],[0,0,0,0,0,0,0,0,0,0,0,0],[0,0,0,0,0,0,0,0,0,0,0,0],[0,0,0,0,0,0,0,0,0,0,0,0],[0,0,0,0,0,0,0,0,0,0,0,0],[0,0,0,0,0,0,0,0,0,0,0,0],[0,0,0,0,0,0,0,0,0,0,0,0],[0,0,0,0,0,0,0,0,0,0,0,0],[0,0,0,0,0,0,0,1,0,0,0,0],[0,0,0,0,0,0,0,0,0,0,0,0],[0,0,0,0,0,0,0,0,0,0,0,0],[0,0,0,0,0,0,0,0,0,0,0,0],[0,0,0,0,0,0,0,0,0,0,0,0],[0,0,0,0,0,0,0,0,0,0,0,0],[0,0,0,0,0,0,0,0,0,0,0,0],[0,0,0,0,0,0,0,0,0,0,0,0],[0,0,0,0,0,0,0,0,0,0,0,0],[0,0,0,0,0,0,0,0,0,0,0,0],[0,0,0,0,0,0,0,0,0,0,0,0],[0,0,0,0,0,0,0,0,0,0,0,0],[0,0,0,0,0,0,0,0,0,0,0,0],[0,0,0,0,0,0,0,0,0,0,0,0],[0,0,0,0,0,0,0,0,0,0,0,0],[0,0,0,0,0,0,0,0,0,0,0,0],[0,0,0,0,0,0,0,0,0,0,0,0],[0,0,0,0,0,0,0,0,0,0,0,0],[0,0,0,0,0,0,0,0,0,0,0,0],[0,0,0,0,0,0,0,0,0,0,0,0],[0,0,0,0,0,0,0,0,0,0,0,0],[0,0,0,0,0,0,0,0,0,0,0,0],[0,0,0,0,0,0,0,0,0,0,0,0],[0,0,0,0,0,0,0,0,0,0,0,0],[0,0,0,0,0,0,0,0,0,0,0,0],[0,0,0,0,0,0,0,0,0,0,0,0],[0,0,0,0,0,0,0,0,0,0,0,0],[0,0,0,0,0,0,0,0,0,0,0,0],[0,0,0,0,0,0,0,0,0,0,0,0],[0,0,0,0,0,0,0,0,0,0,0,0],[0,0,0,0,0,0,0,0,0,0,0,0],[0,0,0,0,0,0,0,0,0,0,0,0],[0,0,0,0,0,0,0,0,0,0,0,0],[0,0,0,0,0,0,0,0,0,0,0,0],[0,0,0,0,0,0,0,0,0,0,0,0],[0,0,0,0,0,0,0,0,0,0,0,0],[0,0,0,0,0,0,0,0,0,0,0,0],[0,0,0,0,0,0,0,0,0,0,0,0],[0,0,0,0,0,0,0,0,0,0,0,0],[0,0,0,0,0,0,0,0,0,0,0,0],[0,0,0,0,0,0,0,0,0,0,0,0],[0,0,0,0,0,0,0,0,0,0,0,0],[0,0,0,0,0,0,0,0,0,0,0,0],[0,0,0,0,0,0,0,0,0,0,0,0],[0,0,0,0,0,0,0,0,0,0,0,0],[0,0,0,0,0,0,0,0,0,0,0,0],[0,0,0,0,0,0,0,0,0,0,0,0],[0,0,0,0,0,0,0,0,0,0,0,0],[0,0,0,0,0,0,0,0,0,0,0,0],[0,0,0,0,0,0,0,0,0,0,0,0],[0,0,0,0,0,0,0,0,0,0,0,0],[0,0,0,0,0,0,0,0,0,0,0,0],[0,0,0,0,0,0,1,0,0,0,0,0],[0,0,0,0,1,0,0,0,0,0,0,0],[0,0,0,0,0,0,0,0,0,0,0,0],[0,0,0,0,0,0,0,0,0,0,0,0],[0,0,0,1,0,0,0,0,0,0,0,0],[0,0,0,0,0,0,0,0,0,0,0,0],[0,0,0,0,0,0,0,0,0,0,0,0],[0,0,0,0,0,0,0,0,0,0,0,0],[0,0,0,0,0,0,0,0,0,0,0,0],[0,0,0,0,0,0,0,0,0,0,0,0],[0,0,0,0,0,0,0,0,0,0,0,0],[0,0,0,0,0,0,0,0,0,0,0,0],[0,0,0,0,0,0,0,0,0,0,0,0],[0,0,0,0,0,0,0,0,0,0,0,0],[0,0,0,0,0,0,0,0,0,0,0,0],[0,0,0,0,0,0,0,0,0,0,0,0],[0,0,0,0,0,0,0,0,0,0,0,0],[0,0,0,0,0,0,0,0,0,0,0,0],[0,0,0,0,0,0,0,0,0,0,0,0],[0,0,0,0,0,0,0,0,0,0,0,0],[0,0,0,0,0,0,0,0,0,0,0,0],[0,0,0,0,0,0,0,0,0,0,0,0],[0,0,0,0,0,0,0,0,0,0,0,0],[0,0,0,0,0,0,0,0,0,0,0,0],[0,0,0,0,0,0,0,0,0,0,0,0],[0,0,0,0,0,0,0,0,0,0,0,0],[0,0,0,0,0,0,0,0,0,0,0,0],[0,0,0,0,0,0,0,0,0,0,0,0],[0,0,0,0,0,0,0,0,0,0,0,0],[0,0,1,0,0,0,0,0,0,0,0,0],[0,0,0,0,0,0,0,0,0,0,0,0],[0,0,0,0,0,0,0,0,0,0,0,0],[0,0,0,0,0,1,0,0,0,0,0,0],[0,0,0,0,0,0,0,0,0,0,0,0],[0,1,0,0,0,0,0,0,0,0,0,0],[0,0,0,0,0,0,0,0,0,0,0,0],[0,0,0,0,0,0,0,0,0,0,0,0],[0,0,0,0,0,0,0,0,0,0,0,0],[0,0,0,0,0,0,0,0,0,0,0,0],[0,0,0,0,0,0,0,0,0,0,0,0],[0,0,0,0,0,0,0,0,0,0,0,0],[0,0,0,0,0,0,0,0,0,0,0,0],[0,0,0,0,0,0,0,0,0,0,0,0],[0,0,0,0,0,0,0,0,0,0,0,0],[0,0,0,0,0,0,0,0,0,0,0,0],[0,0,0,0,0,0,0,0,0,0,0,0],[0,0,0,0,0,0,0,0,0,0,0,0],[0,0,0,0,0,0,0,0,0,0,0,0],[0,0,0,0,0,0,0,0,0,0,0,0],[0,0,0,0,0,0,0,0,0,0,0,0],[0,0,0,0,0,0,0,0,0,0,0,0],[0,0,0,0,0,0,0,0,0,0,0,0],[0,0,0,0,0,0,0,0,0,0,0,0],[0,0,0,0,0,0,0,0,0,0,0,0],[0,0,0,0,0,0,0,0,0,0,0,0],[0,0,0,0,0,0,0,0,0,0,0,0],[0,0,0,0,0,0,0,0,0,0,0,0],[0,0,0,0,0,0,0,0,0,0,0,0],[0,0,0,0,0,0,0,0,0,0,0,0],[0,0,0,0,0,0,0,0,0,0,0,0],[0,0,0,0,0,0,0,0,0,0,0,0],[0,0,0,0,0,0,0,0,0,0,0,0],[0,0,0,0,0,0,0,0,0,0,0,0],[0,0,0,0,0,0,0,0,0,0,0,0],[0,0,0,0,0,0,0,0,0,0,0,0],[0,0,0,0,0,0,0,0,0,0,0,0],[0,0,0,0,0,0,0,0,0,0,0,0],[0,0,0,0,0,0,0,0,0,0,0,0],[0,0,0,0,0,0,0,0,0,0,0,0],[0,0,0,0,0,0,0,0,0,0,0,0],[0,0,0,0,0,0,0,0,0,0,0,0],[0,0,0,0,0,0,0,0,0,0,0,0],[0,0,0,0,0,0,0,0,0,0,0,0],[0,0,0,0,0,0,0,1,0,0,0,0],[0,0,0,0,0,0,0,0,0,0,0,0],[0,0,0,0,0,0,0,0,0,0,0,0],[0,0,0,0,0,0,0,0,0,0,0,0],[0,0,0,0,0,0,0,0,0,0,0,0],[0,0,0,0,0,0,0,0,0,0,0,0],[0,0,0,0,0,0,0,0,0,0,0,0],[0,0,0,0,0,0,0,0,0,0,0,0],[0,0,0,0,0,0,0,0,0,0,0,0],[0,0,0,0,0,0,0,0,0,0,0,0],[0,0,0,0,0,0,0,0,0,0,0,0],[0,0,0,0,0,0,0,0,0,0,0,0],[0,0,0,0,0,0,0,0,0,0,0,0],[0,0,0,0,0,0,0,0,0,0,0,0],[0,0,0,0,0,0,0,0,0,0,0,0],[0,0,0,0,0,0,0,0,0,0,0,0],[0,0,0,0,0,0,0,0,0,0,0,0],[0,0,0,0,0,0,0,0,0,0,0,0],[0,0,0,0,0,0,0,0,0,0,0,0],[0,0,0,0,0,0,0,0,0,0,0,0],[0,0,0,0,0,0,0,0,0,0,0,0],[0,0,0,0,0,0,0,0,0,0,0,0],[0,0,0,0,0,0,0,0,0,0,0,0],[0,0,0,0,0,0,0,0,0,0,0,0],[0,0,0,0,0,0,0,0,0,0,0,0],[0,0,0,0,0,0,0,0,0,0,0,0],[0,0,0,0,0,0,0,0,0,0,0,0],[0,0,0,0,0,0,0,0,0,0,0,0],[0,0,0,0,0,0,0,1,0,0,0,0],[0,0,0,0,0,0,0,0,0,0,0,0],[0,0,0,0,0,0,0,0,0,0,0,0],[0,0,0,0,0,0,0,0,0,0,0,0],[0,0,0,0,0,0,0,0,0,0,0,0],[0,0,0,0,0,0,0,0,0,0,0,0],[0,0,0,0,0,0,0,0,0,0,0,0],[0,0,0,0,0,0,0,0,0,0,0,0],[0,0,0,0,0,0,0,1,0,0,0,0],[0,0,0,0,0,0,0,0,0,0,0,0],[0,0,0,0,0,0,0,0,0,0,0,0],[0,0,0,0,0,0,0,0,0,0,0,0],[0,0,0,0,0,0,0,0,0,0,0,0],[0,0,0,0,0,0,0,0,0,0,0,1],[0,0,0,0,0,0,0,0,0,0,0,0],[0,0,0,0,0,0,0,0,0,0,0,0],[0,0,0,0,0,0,0,0,0,0,0,0],[0,0,0,0,0,0,0,0,0,0,0,0],[0,0,0,0,0,0,0,0,0,0,0,0],[0,0,0,0,0,0,0,0,0,0,0,0],[0,0,0,0,0,0,0,0,0,0,0,0],[0,0,0,0,0,0,0,0,0,0,0,0],[0,0,0,0,0,0,0,0,0,0,0,0],[0,0,0,0,0,0,0,0,0,0,0,0],[0,0,0,0,0,0,0,0,0,0,0,0],[0,0,0,0,0,0,0,0,0,0,0,0],[0,0,0,0,0,0,0,0,0,0,0,0],[0,0,0,0,0,0,0,0,0,0,0,0],[0,0,0,0,0,0,0,0,0,0,0,0],[0,0,0,0,0,0,0,0,0,0,0,0],[0,0,0,0,0,0,0,0,0,0,0,0],[0,0,0,0,0,0,0,0,0,0,0,0],[0,0,0,0,0,0,0,0,0,0,0,0],[0,0,0,0,0,0,0,0,0,0,0,0],[0,0,0,0,0,0,0,0,0,0,0,0],[0,0,0,0,0,0,0,0,0,0,0,0],[0,0,0,0,0,0,0,0,0,0,0,0],[0,0,0,0,0,0,0,0,0,0,0,0],[0,0,0,0,0,0,0,0,0,0,0,0],[0,0,0,0,0,0,0,0,0,0,0,0],[0,0,0,0,0,0,0,0,0,0,0,0],[0,0,0,0,0,0,0,0,0,0,0,0],[0,0,0,0,0,0,0,0,0,0,0,0],[0,0,0,0,0,0,0,0,0,0,0,0],[0,0,0,0,0,0,0,0,0,0,0,0],[0,0,0,0,0,0,0,0,0,0,0,0],[0,0,0,0,0,0,0,0,0,0,0,0],[0,0,0,0,0,0,0,0,0,0,0,0],[0,0,0,0,0,0,0,0,0,0,0,0],[0,0,0,0,0,0,0,0,0,0,0,0],[0,0,0,1,0,0,0,0,0,0,0,0],[0,0,0,0,0,0,0,0,0,0,0,0],[0,0,0,0,0,0,0,0,0,0,0,0],[0,0,0,0,0,0,0,0,0,0,0,0],[0,0,0,0,0,0,0,0,1,0,0,0],[0,0,0,0,0,0,0,0,0,0,0,0],[0,0,0,0,0,0,0,0,0,0,0,0],[0,0,0,0,0,0,0,0,0,0,0,0],[0,0,0,0,0,0,0,0,0,0,0,0],[0,0,0,0,0,0,0,0,0,0,0,0],[0,0,0,0,0,0,0,0,0,0,0,0],[0,0,0,0,0,0,0,0,0,0,0,0],[0,0,0,0,0,0,0,0,0,0,0,0],[0,0,0,0,0,0,0,0,0,0,0,0],[0,0,0,0,0,0,0,0,0,0,0,0],[0,0,0,1,0,0,0,0,0,0,0,0],[0,0,0,0,0,0,0,0,0,0,0,0],[0,0,0,0,0,0,0,0,0,0,0,0],[0,0,0,0,0,0,0,1,0,0,0,0],[0,0,0,0,0,0,0,0,0,0,0,0],[0,0,0,0,0,0,0,0,0,0,0,0],[0,0,0,0,0,0,0,0,0,0,0,0],[0,0,0,0,0,0,0,0,0,0,0,0],[0,0,0,0,0,0,0,0,0,0,0,0],[0,0,0,0,0,0,0,0,0,0,0,0],[0,0,0,0,0,0,0,0,0,0,0,0],[0,0,0,0,0,0,0,0,0,0,0,0],[0,0,0,0,0,0,0,0,0,0,0,0],[0,0,0,1,0,0,0,0,0,0,0,0],[0,0,0,0,0,0,0,0,0,0,0,0],[0,0,0,0,0,0,0,0,0,0,0,0],[0,0,0,0,0,0,0,0,0,0,0,0],[0,0,0,0,0,0,0,0,0,0,0,0],[0,0,0,0,0,0,0,0,0,0,0,0],[0,0,0,0,0,0,0,0,0,0,0,0],[0,0,0,0,0,0,0,0,0,0,0,0],[0,0,0,0,0,0,0,0,0,0,0,0],[0,0,0,0,0,0,0,0,0,0,0,0],[0,0,0,0,0,0,0,0,0,0,0,0],[0,0,0,0,0,0,0,0,0,0,0,0],[0,0,0,0,0,0,0,0,0,0,0,0],[0,0,0,0,0,0,0,0,0,0,0,0],[0,0,0,0,0,0,0,0,0,0,0,0],[0,0,0,0,0,0,0,0,0,0,0,0],[0,0,0,0,0,0,0,0,0,0,0,0],[0,0,0,0,0,0,0,0,0,0,0,0],[0,0,0,0,0,0,0,0,0,0,0,0],[0,0,0,0,0,0,0,0,0,0,0,0],[0,0,0,0,0,0,0,0,0,0,0,0],[0,0,0,0,0,0,0,0,0,0,0,0],[0,0,0,0,0,0,0,0,0,0,0,0],[0,0,0,0,0,0,0,0,0,0,0,0],[0,0,0,0,0,0,0,0,0,0,0,0],[0,0,0,0,0,0,0,0,0,0,0,0],[0,0,0,0,0,0,0,0,0,0,0,0],[0,0,0,0,0,0,0,0,0,0,0,0],[0,0,0,1,0,0,0,0,0,0,0,0],[0,0,0,0,0,0,0,0,0,0,0,0],[0,0,0,0,0,0,0,0,0,0,0,0],[0,0,1,0,0,0,0,0,0,0,0,0],[0,0,0,0,0,0,0,0,0,0,0,0],[0,0,0,0,0,0,0,0,0,0,0,0],[0,0,0,1,0,0,0,0,0,0,0,0],[0,0,1,0,0,0,0,0,0,0,0,0],[0,0,0,0,0,0,0,0,0,0,0,0],[0,0,0,1,0,0,0,0,0,0,0,0],[0,0,0,0,0,0,0,0,0,0,0,0],[0,0,0,0,0,0,0,0,0,0,0,0],[0,0,0,0,0,0,0,0,0,0,0,0],[0,0,0,0,0,0,0,0,0,0,0,0],[0,0,0,0,0,0,0,0,0,0,0,0],[0,0,0,0,0,0,0,0,0,0,0,0],[0,0,0,0,0,0,0,0,0,0,0,0],[0,0,0,0,0,0,0,0,0,0,0,0],[0,0,0,0,0,0,0,0,0,0,0,0],[0,0,0,0,0,0,0,0,0,0,0,0],[0,0,0,0,0,0,0,0,0,0,0,0],[0,0,0,0,0,0,0,0,0,0,0,0],[0,0,0,0,0,0,0,0,0,0,0,0],[0,0,0,0,0,0,0,0,0,0,0,0],[0,0,0,0,0,0,0,0,0,0,0,0],[0,0,0,0,0,0,0,0,0,0,0,0],[0,0,0,0,0,0,0,0,0,0,0,0],[0,0,0,0,0,0,0,0,0,0,0,0],[0,0,0,0,0,0,0,0,0,0,0,0],[0,0,0,0,0,0,0,0,0,0,0,0],[0,0,0,0,0,0,0,0,0,0,0,0],[0,0,0,0,0,0,0,0,0,0,0,0],[0,0,0,0,0,0,0,0,0,0,0,0],[0,0,0,0,0,0,0,0,0,0,0,0],[0,0,0,0,0,0,0,0,0,0,0,0],[0,0,0,0,0,0,0,0,0,0,0,0],[0,0,0,0,0,0,0,0,0,0,0,0],[0,0,0,0,0,0,0,0,0,0,0,0],[0,0,0,0,0,0,0,0,0,0,0,0],[0,0,0,0,0,0,0,0,0,0,0,0],[0,0,0,0,0,0,0,0,0,0,0,0],[1,0,0,0,0,0,0,0,0,0,0,0],[0,0,0,0,0,0,0,0,0,0,0,0],[0,0,0,0,1,0,0,0,0,0,0,0],[0,0,0,0,0,0,0,0,0,0,0,0],[0,0,0,0,0,0,0,0,0,0,0,0],[0,0,0,0,0,0,0,0,0,0,0,0],[0,0,0,0,0,0,0,0,0,0,0,0],[0,0,0,0,0,0,0,0,0,0,0,0],[0,0,0,0,0,0,0,0,0,0,0,0],[0,0,0,0,0,0,0,0,0,0,0,0],[0,0,0,0,0,0,0,0,0,0,0,0],[0,0,0,0,0,0,0,0,0,0,0,0],[0,0,0,0,0,0,0,0,0,0,0,0],[0,0,0,0,0,0,0,0,0,0,0,0],[0,0,0,0,0,0,0,0,0,0,0,0],[0,0,0,0,0,0,0,0,0,0,0,0],[0,0,0,0,0,0,0,0,0,0,0,0],[0,0,0,0,0,0,0,0,0,0,0,0],[0,0,0,0,0,0,0,0,0,0,0,0],[0,0,0,0,0,0,0,0,0,0,0,0],[0,0,0,0,0,0,0,0,0,0,0,0],[0,0,0,0,0,0,0,0,0,0,0,0],[0,0,0,0,0,0,0,0,0,0,0,0],[0,0,0,0,0,0,0,0,0,0,0,0],[0,0,0,0,0,0,0,0,0,0,0,0],[0,0,0,0,0,0,0,0,0,0,0,0],[0,0,0,0,0,0,0,0,0,0,0,0],[0,0,0,0,0,0,0,0,0,0,0,0],[0,0,0,0,0,0,0,0,0,0,0,0],[0,0,0,0,0,0,0,0,0,0,0,0],[0,0,0,0,0,0,0,0,0,0,0,0],[0,0,0,0,0,0,0,0,0,0,0,0],[0,0,0,0,0,0,0,0,0,0,0,0],[0,0,0,0,0,0,0,0,0,0,0,0],[0,0,0,0,0,0,0,0,0,0,0,0],[0,0,0,0,0,0,0,0,0,0,0,0],[0,0,0,0,0,0,0,0,0,0,0,0],[0,0,0,0,0,0,0,0,0,0,0,0],[0,0,0,0,0,0,0,0,0,0,0,0],[0,0,0,0,0,0,0,0,0,0,0,0],[0,0,0,0,0,0,0,0,0,0,0,0],[0,0,0,0,0,0,0,0,0,0,0,0],[0,0,0,0,0,0,0,0,0,0,0,0],[0,0,0,0,0,0,0,0,0,0,0,0],[0,0,0,0,0,0,0,0,0,0,0,0],[0,0,0,0,0,0,0,0,0,0,0,0],[0,0,0,0,0,0,0,0,0,0,0,0],[0,0,0,0,0,0,0,0,0,0,0,0],[0,0,0,0,0,0,0,0,0,0,0,0],[0,0,0,0,0,0,0,0,0,0,0,0],[0,0,0,0,0,0,0,0,0,0,0,0],[0,0,0,0,0,0,0,0,0,0,0,0],[0,0,0,0,0,0,0,0,0,0,0,0],[0,0,0,0,0,0,0,0,0,0,0,0],[0,0,0,0,0,0,0,0,0,0,0,0],[0,0,0,0,0,0,0,0,0,0,0,0],[0,0,0,0,0,0,0,0,0,0,0,0],[0,0,0,0,0,0,0,0,0,0,0,0],[0,0,0,0,0,0,0,0,0,0,0,0],[0,0,0,0,0,0,0,0,0,0,0,0],[0,0,0,0,0,0,0,0,0,0,0,0],[0,0,0,0,0,0,0,0,0,0,0,0],[0,0,0,0,0,0,0,0,0,0,0,0],[0,0,0,0,0,0,0,0,0,0,0,0],[0,0,0,0,0,0,0,0,0,0,0,0],[0,0,0,0,0,0,0,0,0,0,0,0],[0,0,0,0,0,0,0,0,0,0,0,0],[0,0,0,0,0,0,0,0,0,0,0,0],[0,0,0,0,0,0,0,0,0,0,0,0],[0,0,0,0,0,0,0,0,0,0,0,0],[0,0,0,0,0,0,0,0,0,0,0,0],[0,0,0,0,0,0,0,0,0,0,0,0],[0,0,0,0,0,0,0,0,0,0,0,0],[0,0,0,0,0,0,0,0,0,0,0,0],[0,0,0,0,0,0,0,0,0,0,0,0],[0,0,0,0,0,0,0,0,0,0,0,0],[0,0,0,0,0,0,0,0,0,0,0,0],[0,0,0,0,0,0,0,0,0,0,0,0],[0,0,0,0,0,0,0,0,0,0,0,0],[0,0,0,0,0,0,0,0,0,0,0,0],[0,0,0,0,0,0,0,1,0,0,0,0],[0,1,0,0,0,0,0,0,0,0,0,0],[0,0,0,0,0,0,0,0,0,0,0,0],[0,0,0,0,0,0,0,0,0,0,0,0],[0,0,0,0,0,0,0,0,0,0,0,0],[0,0,0,0,0,0,0,0,0,0,0,0],[0,0,0,0,0,0,0,0,0,0,0,0],[0,0,0,0,0,0,0,0,0,0,0,0],[0,0,0,0,0,0,0,0,0,0,0,0]]},{"feature":[2,0,5,2,5,4,1,1,-2,-2,5,-2,-2,5,4,-2,-2,0,-2,-2,0,1,3,-2,-2,1,-2,-2,1,-2,4,-2,-2,5,3,5,5,-2,-2,1,-2,-2,1,5,-2,-2,3,-2,-2,0,4,1,-2,-2,1,-2,-2,-2,2,3,0,1,1,-2,-2,3,-2,-2,4,4,-2,-2,1,-2,-2,4,1,1,-2,-2,-2,4,1,-2,-2,1,-2,-2,1,1,4,1,-2,-2,3,-2,-2,4,2,-2,-2,2,-2,-2,3,2,1,-2,-2,1,-2,-2,1,2,-2,-2,2,-2,-2,0,0,1,2,-2,2,-2,-2,2,-2,2,-2,-2,1,2,1,1,-2,-2,1,-2,-2,1,2,-2,-2,2,-2,-2,5,5,5,-2,-2,5,-2,-2,5,1,-2,-2,1,-2,-2,1,1,2,5,5,-2,-2,5,-2,-2,2,1,-2,-2,1,-2,-2,5,5,2,-2,-2,2,-2,-2,1,5,-2,-2,5,-2,-2,2,5,1,1,-2,-2,5,-2,-2,1,0,-2,-2,1,-2,-2,5,0,2,-2,-2,2,-2,-2,1,5,-2,-2,1,-2,-2,1,2,1,5,3,1,5,-2,-2,0,-2,-2,5,1,-2,-2,-2,1,5,1,-2,-2,1,-2,-2,3,0,-2,-2,4,-2,-2,3,1,-2,1,-2,-2,1,-2,-2,2,5,4,-2,1,-2,5,-2,-2,3,1,4,-2,-2,1,-2,-2,0,4,-2,-2,4,-2,-2,5,4,4,1,-2,-2,4,-2,-2,1,2,-2,-2,5,-2,-2,4,0,4,-2,-2,3,-2,-2,0,1,-2,-2,1,-2,-2,1,2,3,1,1,1,-2,-2,-2,-2,-2,1,2,4,-2,2,-2,-2,2,3,-2,-2,2,-2,-2,2,1,1,-2,-2,-2,0,1,-2,-2,0,-2,-2,5,1,5,2,-2,2,-2,-2,2,5,-2,-2,5,-2,-2,2,5,1,-2,-2,-2,5,2,-2,-2,1,-2,-2,0,1,1,2,-2,-2,2,-2,-2,1,2,-2,-2,2,-2,-2,1,2,1,-2,-2,1,-2,-2,1,2,-2,-2,2,-2,-2],"threshold":[2.5,6.0,21.5,0.5,12.5,0.5,10.5,8.5,-2.0,-2.0,11.5,-2.0,-2.0,9.5,12.5,-2.0,-2.0,1.5,-2.0,-2.0,1.5,21.5,0.5,-2.0,-2.0,27.5,-2.0,-2.0,32.5,-2.0,19.5,-2.0,-2.0,18.5,0.5,9.5,8.5,-2.0,-2.0,29.5,-2.0,-2.0,39.5,11.5,-2.0,-2.0,2.0,-2.0,-2.0,1.5,6.5,21.5,-2.0,-2.0,20.5,-2.0,-2.0,-2.0,0.5,2.5,2.5,5.5,4.0,-2.0,-2.0,1.5,-2.0,-2.0,37.5,9.5,-2.0,-2.0,84.5,-2.0,-2.0,11.0,47.0,35.5,-2.0,-2.0,-2.0,19.5,58.5,-2.0,-2.0,70.5,-2.0,-2.0,79.5,78.5,9.5,39.5,-2.0,-2.0,1.5,-2.0,-2.0,36.5,1.5,-2.0,-2.0,1.5,-2.0,-2.0,1.0,1.5,84.5,-2.0,-2.0,80.5,-2.0,-2.0,80.5,1.5,-2.0,-2.0,1.5,-2.0,-2.0,10.5,9.5,272.5,0.5,-2.0,1.5,-2.0,-2.0,0.5,-2.0,1.5,-2.0,-2.0,281.5,0.5,277.5,275.5,-2.0,-2.0,279.5,-2.0,-2.0,279.5,1.5,-2.0,-2.0,1.5,-2.0,-2.0,87.5,78.5,76.5,-2.0,-2.0,81.5,-2.0,-2.0,88.5,294.5,-2.0,-2.0,293.5,-2.0,-2.0,331.5,328.5,0.5,68.5,54.5,-2.0,-2.0,71.5,-2.0,-2.0,1.5,312.5,-2.0,-2.0,312.5,-2.0,-2.0,50.5,49.5,1.5,-2.0,-2.0,0.5,-2.0,-2.0,329.5,53.5,-2.0,-2.0,83.0,-2.0,-2.0,0.5,50.5,334.5,332.5,-2.0,-2.0,16.5,-2.0,-2.0,361.5,11.5,-2.0,-2.0,363.5,-2.0,-2.0,52.5,11.5,1.5,-2.0,-2.0,1.5,-2.0,-2.0,332.5,63.5,-2.0,-2.0,337.5,-2.0,-2.0,73.5,3.5,70.5,39.5,1.5,10.0,11.5,-2.0,-2.0,1.5,-2.0,-2.0,22.5,31.0,-2.0,-2.0,-2.0,8.5,66.5,4.5,-2.0,-2.0,2.5,-2.0,-2.0,1.5,1.5,-2.0,-2.0,25.0,-2.0,-2.0,1.0,71.5,-2.0,72.5,-2.0,-2.0,71.5,-2.0,-2.0,4.5,12.0,22.5,-2.0,5.5,-2.0,9.0,-2.0,-2.0,2.5,66.5,11.5,-2.0,-2.0,71.5,-2.0,-2.0,2.5,6.0,-2.0,-2.0,23.0,-2.0,-2.0,31.5,22.5,19.5,22.5,-2.0,-2.0,21.5,-2.0,-2.0,39.5,5.5,-2.0,-2.0,8.5,-2.0,-2.0,21.5,2.5,1.5,-2.0,-2.0,2.5,-2.0,-2.0,2.5,55.5,-2.0,-2.0,60.5,-2.0,-2.0,278.5,3.5,1.0,180.0,87.5,81.5,-2.0,-2.0,-2.0,-2.0,-2.0,86.5,5.5,23.5,-2.0,4.5,-2.0,-2.0,6.5,1.0,-2.0,-2.0,7.5,-2.0,-2.0,4.5,277.5,276.5,-2.0,-2.0,-2.0,6.0,87.5,-2.0,-2.0,9.5,-2.0,-2.0,37.5,348.5,32.5,5.0,-2.0,6.5,-2.0,-2.0,7.5,36.5,-2.0,-2.0,34.5,-2.0,-2.0,3.5,22.0,361.5,-2.0,-2.0,-2.0,32.0,4.5,-2.0,-2.0,350.5,-2.0,-2.0,10.5,282.5,279.5,7.5,-2.0,-2.0,3.5,-2.0,-2.0,299.5,3.5,-2.0,-2.0,3.5,-2.0,-2.0,356.5,3.5,322.5,-2.0,-2.0,336.5,-2.0,-2.0,364.5,3.5,-2.0,-2.0,4.0,-2.0,-2.0],"children_left":[1,2,3,4,5,6,7,8,-1,-1,11,-1,-1,14,15,-1,-1,18,-1,-1,21,22,23,-1,-1,26,-1,-1,29,-1,31,-1,-1,34,35,36,37,-1,-1,40,-1,-1,43,44,-1,-1,47,-1,-1,50,51,52,-1,-1,55,-1,-1,-1,59,60,61,62,63,-1,-1,66,-1,-1,69,70,-1,-1,73,-1,-1,76,77,78,-1,-1,-1,82,83,-1,-1,86,-1,-1,89,90,91,92,-1,-1,95,-1,-1,98,99,-1,-1,102,-1,-1,105,106,107,-1,-1,110,-1,-1,113,114,-1,-1,117,-1,-1,120,121,122,123,-1,125,-1,-1,128,-1,130,-1,-1,133,134,135,136,-1,-1,139,-1,-1,142,143,-1,-1,146,-1,-1,149,150,151,-1,-1,154,-1,-1,157,158,-1,-1,161,-1,-1,164,165,166,167,168,-1,-1,171,-1,-1,174,175,-1,-1,178,-1,-1,181,182,183,-1,-1,186,-1,-1,189,190,-1,-1,193,-1,-1,196,197,198,199,-1,-1,202,-1,-1,205,206,-1,-1,209,-1,-1,212,213,214,-1,-1,217,-1,-1,220,221,-1,-1,224,-1,-1,227,228,229,230,231,232,233,-1,-1,236,-1,-1,239,240,-1,-1,-1,244,245,246,-1,-1,249,-1,-1,252,253,-1,-1,256,-1,-1,259,260,-1,262,-1,-1,265,-1,-1,268,269,270,-1,272,-1,274,-1,-1,277,278,279,-1,-1,282,-1,-1,285,286,-1,-1,289,-1,-1,292,293,294,295,-1,-1,298,-1,-1,301,302,-1,-1,305,-1,-1,308,309,310,-1,-1,313,-1,-1,316,317,-1,-1,320,-1,-1,323,324,325,326,327,328,-1,-1,-1,-1,-1,334,335,336,-1,338,-1,-1,341,342,-1,-1,345,-1,-1,348,349,350,-1,-1,-1,354,355,-1,-1,358,-1,-1,361,362,363,364,-1,366,-1,-1,369,370,-1,-1,373,-1,-1,376,377,378,-1,-1,-1,382,383,-1,-1,386,-1,-1,389,390,391,392,-1,-1,395,-1,-1,398,399,-1,-1,402,-1,-1,405,406,407,-1,-1,410,-1,-1,413,414,-1,-1,417,-1,-1],"children_right":[226,119,58,33,20,13,10,9,-1,-1,12,-1,-1,17,16,-1,-1,19,-1,-1,28,25,24,-1,-1,27,-1,-1,30,-1,32,-1,-1,49,42,39,38,-1,-1,41,-1,-1,46,45,-1,-1,48,-1,-1,57,54,53,-1,-1,56,-1,-1,-1,88,75,68,65,64,-1,-1,67,-1,-1,72,71,-1,-1,74,-1,-1,81,80,79,-1,-1,-1,85,84,-1,-1,87,-1,-1,104,97,94,93,-1,-1,96,-1,-1,101,100,-1,-1,103,-1,-1,112,109,108,-1,-1,111,-1,-1,116,115,-1,-1,118,-1,-1,163,132,127,124,-1,126,-1,-1,129,-1,131,-1,-1,148,141,138,137,-1,-1,140,-1,-1,145,144,-1,-1,147,-1,-1,156,153,152,-1,-1,155,-1,-1,160,159,-1,-1,162,-1,-1,195,180,173,170,169,-1,-1,172,-1,-1,177,176,-1,-1,179,-1,-1,188,185,184,-1,-1,187,-1,-1,192,191,-1,-1,194,-1,-1,211,204,201,200,-1,-1,203,-1,-1,208,207,-1,-1,210,-1,-1,219,216,215,-1,-1,218,-1,-1,223,222,-1,-1,225,-1,-1,322,267,258,243,238,235,234,-1,-1,237,-1,-1,242,241,-1,-1,-1,251,248,247,-1,-1,250,-1,-1,255,254,-1,-1,257,-1,-1,264,261,-1,263,-1,-1,266,-1,-1,291,276,271,-1,273,-1,275,-1,-1,284,281,280,-1,-1,283,-1,-1,288,287,-1,-1,290,-1,-1,307,300,297,296,-1,-1,299,-1,-1,304,303,-1,-1,306,-1,-1,315,312,311,-1,-1,314,-1,-1,319,318,-1,-1,321,-1,-1,360,333,332,331,330,329,-1,-1,-1,-1,-1,347,340,337,-1,339,-1,-1,344,343,-1,-1,346,-1,-1,353,352,351,-1,-1,-1,357,356,-1,-1,359,-1,-1,388,375,368,365,-1,367,-1,-1,372,371,-1,-1,374,-1,-1,381,380,379,-1,-1,-1,385,384,-1,-1,387,-1,-1,404,397,394,393,-1,-1,396,-1,-1,401,400,-1,-1,403,-1,-1,412,409,408,-1,-1,411,-1,-1,416,415,-1,-1,418,-1,-1],"value":[[0,0,0,0,0,0,0,0,0,0,0,0],[0,0,0,0,0,0,0,0,0,0,0,0],[0,0,0,0,0,0,0,0,0,0,0,0],[0,0,0,0,0,0,0,0,0,0,0,0],[0,0,0,0,0,0,0,0,0,0,0,0],[0,0,0,0,0,0,0,0,0,0,0,0],[0,0,0,0,0,0,0,0,0,0,0,0],[0,0,0,0,0,0,0,0,0,0,0,0],[0,0,0,0,0,0,0,0,0,0,0,0],[0,0,0,0,0,1,0,0,0,0,0,0],[0,0,0,0,0,0,0,0,0,0,0,0],[0,0,0,0,0,0,0,0,0,0,0,0],[0,0,0,0,0,0,0,0,0,0,0,0],[0,0,0,0,0,0,0,0,0,0,0,0],[0,0,0,0,0,0,0,0,0,0,0,0],[0,0,0,0,0,0,0,0,0,0,0,0],[0,0,0,0,0,0,0,0,0,0,0,0],[0,0,0,0,0,0,0,0,0,0,0,0],[0,0,0,0,0,0,0,0,0,0,0,0],[0,0,0,0,0,0,0,0,0,0,0,0],[0,0,0,0,0,0,0,0,0,0,0,0],[0,0,0,0,0,0,0,0,0,0,0,0],[0,0,0,0,0,0,0,0,0,0,0,0],[0,0,0,0,0,0,0,0,0,0,0,0],[0,0,0,0,0,0,0,0,0,0,0,0],[0,0,0,0,0,0,0,0,0,0,0,0],[0,0,0,0,0,0,0,0,0,0,0,0],[0,0,0,0,0,0,0,0,0,0,0,0],[0,0,0,0,0,0,0,0,0,0,0,0],[0,0,0,0,0,0,0,0,0,0,0,0],[0,0,0,0,0,0,0,0,0,0,0,0],[0,0,0,0,0,0,0,0,0,0,0,0],[0,0,0,0,0,0,0,0,0,0,0,0],[0,0,0,0,0,0,0,0,0,0,0,0],[0,0,0,0,0,0,0,0,0,0,0,0],[0,0,0,0,0,0,0,0,0,0,0,0],[0,0,0,0,0,0,0,0,0,0,0,0],[0,0,0,0,0,0,0,0,0,0,0,0],[0,0,0,0,0,0,0,0,0,0,0,0],[0,0,0,0,0,0,0,0,0,0,0,0],[0,0,0,0,0,0,0,0,0,0,0,0],[0,0,0,0,0,0,0,0,0,0,0,0],[0,0,0,0,0,0,0,0,0,0,0,0],[0,0,0,0,0,0,0,0,0,0,0,0],[0,0,0,0,0,0,0,0,0,0,0,0],[0,0,0,0,0,0,0,0,0,0,0,0],[0,0,0,0,0,0,0,0,0,0,0,0],[0,0,0,0,0,0,0,0,0,0,0,0],[0,0,0,0,0,0,0,0,0,0,0,0],[0,0,0,0,0,0,0,0,0,0,0,0],[0,0,0,0,0,0,0,0,0,0,0,0],[0,0,0,0,0,0,0,0,0,0,0,0],[0,0,0,0,0,0,0,0,0,0,0,0],[0,0,0,0,0,0,0,0,0,0,0,1],[0,0,0,0,0,0,0,0,0,0,0,0],[0,0,0,0,0,0,0,0,0,0,0,0],[0,0,0,0,0,0,0,0,0,0,0,0],[0,0,0,0,0,0,0,0,0,0,0,0],[0,0,0,0,0,0,0,0,0,0,0,0],[0,0,0,0,0,0,0,0,0,0,0,0],[0,0,0,0,0,0,0,0,0,0,0,0],[0,0,0,0,0,0,0,0,0,0,0,0],[0,0,0,0,0,0,0,0,0,0,0,0],[0,0,0,0,0,0,0,0,0,0,0,0],[0,0,0,0,0,0,0,0,0,0,0,0],[0,0,0,0,0,0,0,0,0,0,0,0],[0,0,0,0,0,0,0,0,0,0,0,0],[0,0,0,0,0,0,0,0,0,0,0,0],[0,0,0,0,0,0,0,0,0,0,0,0],[0,0,0,0,0,0,0,0,0,0,0,0],[0,0,0,0,0,0,0,0,0,0,0,0],[0,0,0,0,0,0,0,0,0,0,0,0],[0,0,0,0,0,0,0,0,0,0,0,0],[0,0,0,0,0,0,0,0,0,0,0,0],[0,0,0,0,0,0,0,0,0,0,0,0],[0,0,0,0,0,0,0,0,0,0,0,0],[0,0,0,0,0,0,0,0,0,0,0,0],[0,0,0,0,0,0,0,0,0,0,0,0],[0,0,0,0,0,0,1,0,0,0,0,0],[0,0,0,0,0,0,0,0,0,0,0,0],[0,0,0,0,0,0,0,1,0,0,0,0],[0,0,0,0,0,0,0,0,0,0,0,0],[0,0,0,0,0,0,0,0,0,0,0,0],[0,0,0,0,0,0,0,0,0,0,0,0],[0,0,0,0,0,0,1,0,0,0,0,0],[0,0,0,0,0,0,0,0,0,0,0,0],[0,0,0,0,0,0,0,0,0,0,0,0],[0,0,0,0,0,0,0,0,0,0,1,0],[0,0,0,0,0,0,0,0,0,0,0,0],[0,0,0,0,0,0,0,0,0,0,0,0],[0,0,0,0,0,0,0,0,0,0,0,0],[0,0,0,0,0,0,0,0,0,0,0,0],[0,0,0,0,0,0,0,0,0,0,0,0],[0,0,0,0,0,0,0,0,0,0,0,0],[0,0,0,0,0,0,0,0,0,0,0,0],[0,0,0,0,0,0,0,0,0,0,0,0],[0,0,0,0,0,0,0,0,0,0,0,0],[0,0,0,0,0,0,0,0,0,0,0,0],[0,0,0,0,0,0,0,0,0,0,0,0],[0,0,0,0,0,0,0,0,0,0,0,0],[0,0,0,0,0,0,0,0,0,0,0,0],[0,0,0,0,0,0,0,0,0,0,0,0],[0,0,0,0,0,0,0,0,0,0,0,0],[0,0,0,0,0,0,0,0,0,0,0,0],[0,0,0,0,0,0,0,0,0,0,0,0],[0,0,0,0,0,0,0,0,0,0,0,0],[0,0,0,0,0,0,0,0,0,0,0,0],[0,0,0,0,0,0,0,0,0,0,0,0],[0,0,0,0,0,0,0,0,0,0,0,0],[0,0,0,0,0,0,0,0,0,0,0,0],[0,0,0,0,0,0,0,0,0,0,0,0],[0,0,0,0,0,0,0,0,0,0,0,0],[0,0,0,0,0,0,0,0,0,0,0,0],[0,0,0,0,0,0,0,0,0,0,0,0],[0,0,0,0,0,0,0,0,0,0,0,0],[0,0,0,0,0,0,0,0,0,0,0,0],[0,0,0,0,0,0,0,0,0,0,0,0],[0,0,0,0,1,0,0,0,0,0,0,0],[0,0,0,0,0,0,0,0,0,0,0,0],[0,0,0,0,0,0,0,0,0,0,0,0],[0,0,0,0,0,0,0,0,0,0,0,0],[0,0,0,0,0,0,0,0,0,0,0,0],[0,0,0,0,0,0,0,0,0,0,0,0],[0,0,0,0,0,0,0,0,0,0,0,0],[0,0,0,0,0,0,0,0,0,0,0,0],[0,0,0,0,0,0,0,0,0,0,0,0],[0,0,0,0,0,0,0,0,0,0,0,0],[0,0,0,0,0,0,0,0,0,0,0,0],[0,0,0,0,0,0,0,0,0,0,0,0],[0,0,0,0,0,0,0,0,0,0,0,0],[0,0,0,0,0,0,0,0,0,0,0,0],[0,0,0,0,0,0,0,0,0,0,0,0],[0,0,0,0,0,0,0,0,0,0,0,0],[0,0,0,0,0,0,0,0,0,0,0,0],[0,0,0,0,0,0,0,0,0,0,0,0],[0,0,0,0,0,0,0,0,0,0,0,0],[0,0,0,0,0,0,0,0,0,0,0,0],[0,0,0,0,0,0,0,0,0,0,0,0],[0,0,0,0,0,0,0,0,0,0,0,0],[0,0,0,0,0,0,0,0,0,0,0,0],[0,0,0,0,0,0,0,0,0,0,0,0],[0,0,0,0,0,0,0,0,0,0,0,0],[0,0,0,0,0,0,0,0,0,0,0,0],[0,0,0,0,0,0,0,0,0,0,0,0],[0,0,0,0,0,0,0,0,0,0,0,0],[0,0,0,0,0,0,0,0,0,0,0,0],[0,0,0,0,0,0,0,0,0,0,0,0],[0,0,0,0,0,0,0,0,0,0,0,0],[0,0,0,0,0,0,0,0,0,0,0,0],[0,0,0,0,0,0,0,0,0,0,0,0],[0,0,0,0,0,0,0,0,0,0,0,0],[0,0,0,0,0,0,0,0,0,0,0,0],[0,0,0,0,0,0,0,0,0,0,0,0],[0,0,0,0,0,0,0,0,0,0,0,0],[0,0,0,0,0,0,0,0,0,0,0,0],[0,0,0,0,0,0,0,0,0,0,0,0],[0,0,0,0,0,0,0,0,0,0,0,0],[0,0,0,0,0,0,0,0,0,0,0,0],[0,0,0,0,0,0,0,0,0,0,0,0],[0,0,0,0,0,0,0,0,0,0,0,0],[0,0,0,0,0,0,0,0,0,0,0,0],[0,0,0,0,0,0,0,0,0,0,0,0],[0,0,0,0,0,0,0,0,0,0,0,0],[0,0,0,0,0,0,0,0,0,0,0,0],[0,0,0,0,0,0,0,0,0,0,0,0],[0,0,0,0,0,0,0,0,0,0,0,0],[0,0,0,0,0,0,0,0,0,0,0,0],[0,0,0,0,0,0,0,0,0,0,0,0],[0,0,0,0,0,0,0,0,0,0,0,0],[0,0,0,0,0,0,0,0,0,0,0,0],[0,0,0,0,0,0,0,0,0,0,0,0],[0,0,0,0,0,0,0,0,0,0,0,0],[0,0,0,0,0,0,0,0,0,0,0,0],[0,0,0,0,0,0,0,0,0,0,0,0],[0,0,0,0,0,0,0,0,0,0,0,0],[0,0,0,0,0,0,0,0,0,0,0,0],[0,0,0,0,0,0,0,0,0,0,0,0],[0,0,0,0,0,0,0,0,0,0,0,0],[0,0,0,0,0,0,0,0,0,0,0,0],[0,0,0,0,0,0,0,0,0,0,0,0],[0,0,0,0,0,0,0,0,0,0,0,0],[0,0,0,0,0,0,0,0,0,0,0,0],[0,0,0,0,0,0,0,0,0,0,0,0],[0,0,0,0,0,0,0,0,0,0,0,0],[0,0,0,0,0,0,0,0,0,0,0,0],[0,0,0,0,0,0,0,0,0,0,0,0],[0,0,0,0,0,0,0,0,0,0,0,0],[0,0,0,0,0,0,0,0,0,0,0,0],[0,0,0,0,0,0,0,0,0,0,0,0],[0,0,0,0,0,0,0,0,0,0,0,0],[0,0,0,0,0,0,0,0,0,0,0,0],[0,0,0,0,0,0,0,0,0,0,0,0],[0,0,0,0,0,0,0,0,0,0,0,0],[0,0,0,0,0,0,0,0,0,0,0,0],[0,0,0,0,0,0,0,0,0,0,0,0],[0,0,0,0,0,0,0,0,0,0,0,0],[0,0,0,0,0,0,0,0,0,0,0,0],[0,0,0,0,0,0,0,0,0,0,0,0],[0,0,0,0,0,0,0,0,0,0,0,0],[0,0,0,0,0,0,0,0,0,0,0,0],[0,0,0,0,0,0,0,0,0,0,0,0],[0,0,0,0,0,0,0,0,0,0,0,0],[0,0,0,0,0,0,0,0,0,0,0,0],[0,0,0,0,0,0,0,0,0,0,0,0],[0,0,0,0,0,0,0,0,0,0,0,0],[0,0,0,0,0,0,0,0,0,0,0,0],[0,0,0,0,0,0,0,0,0,0,0,0],[0,0,0,0,0,0,0,0,0,0,0,0],[0,0,0,0,0,0,0,0,0,0,0,0],[0,0,0,0,0,0,0,0,0,0,0,0],[0,0,0,0,0,0,0,0,0,0,0,0],[0,0,0,0,0,0,0,0,0,0,0,0],[0,0,0,0,0,0,0,0,0,0,0,0],[0,0,0,0,0,0,0,0,0,0,0,0],[0,0,0,0,0,0,0,0,0,0,0,0],[0,0,0,0,0,0,0,0,0,0,0,0],[0,0,0,0,0,0,0,0,0,0,0,0],[0,0,0,0,0,0,0,0,0,0,0,0],[0,0,0,0,0,0,0,0,0,0,0,0],[0,0,0,0,0,0,0,0,0,0,0,0],[0,0,0,0,0,0,0,0,0,0,0,0],[0,0,0,0,0,0,0,0,0,0,0,0],[0,0,0,0,0,0,0,0,0,0,0,0],[0,0,0,0,0,0,0,0,0,0,0,0],[0,0,0,0,0,0,0,0,0,0,0,0],[0,0,0,0,0,0,0,0,0,0,0,0],[0,0,0,0,0,0,0,0,0,0,0,0],[0,0,0,0,0,0,0,0,0,0,0,0],[0,0,0,0,0,0,0,0,0,0,0,0],[0,0,0,0,0,0,0,0,0,0,0,0],[0,0,0,0,0,0,0,0,0,0,0,0],[0,0,0,0,0,0,0,0,0,0,0,0],[0,0,0,0,0,0,0,0,0,0,0,0],[0,0,0,0,0,0,0,0,0,0,0,0],[0,0,0,0,0,0,0,0,0,0,0,0],[0,0,0,0,0,0,0,0,0,0,0,0],[0,0,0,0,0,0,0,0,0,0,0,0],[0,0,0,0,0,0,0,0,0,0,0,0],[0,0,0,0,0,0,0,0,0,0,0,0],[0,0,0,0,0,0,0,0,0,0,0,0],[0,0,0,0,0,0,0,0,0,0,0,1],[0,0,0,1,0,0,0,0,0,0,0,0],[0,0,0,1,0,0,0,0,0,0,0,0],[0,0,0,0,0,0,0,0,0,0,0,0],[0,0,0,0,0,0,0,0,0,0,0,0],[0,0,0,0,0,0,0,0,0,0,0,0],[0,0,0,0,0,0,0,0,0,0,0,1],[0,0,1,0,0,0,0,0,0,0,0,0],[0,0,0,0,0,0,0,0,0,0,0,0],[0,0,0,0,0,0,0,0,0,0,0,0],[0,0,0,0,0,0,0,0,0,0,0,0],[0,0,0,0,0,0,0,0,0,0,0,0],[0,0,0,0,0,0,0,0,0,0,0,0],[0,0,0,0,0,0,0,0,0,0,0,0],[0,0,0,0,0,0,0,0,0,0,0,0],[0,0,0,0,0,0,0,0,0,0,0,0],[0,0,0,0,0,0,0,0,0,0,0,0],[0,0,0,0,0,0,0,0,0,0,1,0],[0,0,0,0,0,0,0,0,0,0,0,0],[0,0,0,0,0,0,0,0,0,0,0,0],[0,0,0,0,0,0,0,0,0,0,0,0],[0,0,0,0,0,0,0,0,0,0,0,0],[0,0,0,0,0,0,0,0,0,0,0,0],[0,0,0,0,0,0,0,0,0,0,0,0],[0,0,0,0,0,0,0,0,0,0,0,0],[0,0,1,0,0,0,0,0,0,0,0,0],[0,0,0,0,0,0,1,0,0,0,0,0],[0,0,0,0,0,0,0,0,0,0,0,0],[0,0,0,0,0,0,0,0,0,0,0,0],[0,0,0,0,0,0,0,0,0,0,0,0],[0,0,0,0,0,0,0,0,0,1,0,0],[0,0,0,0,0,0,0,0,0,0,0,0],[0,0,0,0,0,1,0,0,0,0,0,0],[0,0,0,0,0,0,0,0,0,0,0,0],[0,0,0,0,0,0,1,0,0,0,0,0],[0,0,0,0,0,0,0,0,0,1,0,0],[0,0,0,0,0,0,0,0,0,0,0,0],[0,0,0,0,0,0,0,0,0,0,0,0],[0,0,0,0,0,0,0,0,0,0,0,0],[0,0,0,0,0,0,0,0,0,0,0,0],[0,0,0,0,0,0,0,0,0,0,0,0],[0,0,0,0,0,0,0,0,0,0,0,0],[0,0,0,0,0,0,0,0,0,0,0,0],[0,0,0,0,0,0,0,0,0,0,0,0],[0,0,0,0,0,0,0,0,0,0,0,0],[0,0,0,0,0,0,0,0,0,0,0,0],[1,0,0,0,0,0,0,0,0,0,0,0],[0,0,0,0,0,1,0,0,0,0,0,0],[0,0,0,0,0,0,0,0,0,0,0,0],[0,0,0,0,0,0,0,0,0,0,0,0],[0,0,0,0,0,1,0,0,0,0,0,0],[0,0,0,0,0,0,0,0,0,0,0,0],[0,0,0,0,0,0,0,0,0,0,0,0],[0,0,0,0,0,0,0,0,0,0,0,0],[0,0,0,0,0,0,0,0,0,0,0,0],[0,0,0,0,0,0,0,0,0,0,0,0],[0,0,0,0,0,0,0,0,0,0,0,0],[0,0,0,0,0,0,0,0,0,0,0,0],[0,0,0,0,0,0,0,0,0,0,0,0],[0,0,0,0,0,0,0,1,0,0,0,0],[0,0,0,0,0,0,0,0,0,0,0,0],[0,0,0,0,0,0,0,0,0,0,0,0],[0,0,0,0,0,0,0,0,0,0,0,0],[0,0,0,0,0,0,0,0,0,0,0,0],[0,0,0,0,0,0,0,0,0,0,0,0],[0,0,0,0,0,0,0,0,0,0,0,0],[0,0,0,0,0,0,0,0,0,0,0,0],[0,0,0,0,0,0,0,0,0,0,0,0],[0,0,0,0,0,0,0,0,0,0,0,0],[0,0,0,0,0,0,0,0,0,0,0,0],[0,0,0,0,0,0,0,0,0,0,0,0],[0,0,0,0,0,0,0,0,0,0,0,0],[0,0,0,0,0,0,0,0,0,0,0,0],[0,0,0,0,0,0,0,0,0,0,0,0],[0,0,0,0,0,0,1,0,0,0,0,0],[0,0,0,0,0,0,0,0,0,0,0,0],[0,0,0,0,0,0,0,0,0,0,0,0],[0,0,0,0,0,0,0,0,0,0,0,0],[0,0,0,0,0,0,0,0,0,0,0,0],[0,0,0,0,0,0,0,0,0,0,0,0],[0,0,0,0,0,0,0,0,0,0,0,0],[0,0,0,0,0,0,0,0,0,0,0,0],[0,0,0,0,0,0,0,0,0,0,0,0],[0,0,0,0,0,0,0,0,0,0,0,0],[0,0,0,0,0,0,0,0,0,0,0,0],[0,0,0,0,0,0,0,0,0,0,0,0],[0,0,0,0,0,0,0,0,0,0,0,0],[0,0,0,0,0,0,0,0,0,0,0,0],[0,0,0,0,0,0,0,0,0,0,0,0],[0,0,0,0,0,0,0,0,0,0,0,0],[0,0,0,0,0,0,0,0,0,0,0,0],[0,0,0,1,0,0,0,0,0,0,0,0],[0,0,0,1,0,0,0,0,0,0,0,0],[0,0,0,0,0,0,0,0,0,0,0,0],[0,0,0,0,0,0,0,0,0,0,0,0],[0,0,0,0,0,0,0,0,0,0,0,0],[0,0,0,0,0,0,0,0,0,0,0,0],[0,0,0,0,0,0,0,0,0,0,0,0],[0,0,0,0,0,0,0,0,0,0,0,0],[0,0,0,0,0,0,0,0,0,0,0,0],[0,0,0,0,0,0,0,0,0,0,0,0],[0,0,0,0,0,0,0,0,0,0,0,0],[0,0,0,0,0,0,0,0,0,0,0,0],[0,0,0,0,0,0,0,0,0,1,0,0],[0,0,0,0,0,0,0,0,0,0,0,0],[0,0,0,0,0,0,0,0,0,0,0,0],[0,0,0,0,0,0,0,0,0,0,0,0],[0,0,0,0,0,0,0,0,0,0,0,0],[0,0,0,0,0,0,0,0,0,0,0,0],[0,0,0,0,0,0,0,0,0,0,0,0],[0,0,0,0,0,0,0,0,0,0,0,0],[0,0,0,0,0,0,0,0,0,0,0,0],[0,0,0,0,0,0,0,0,0,0,0,0],[0,0,0,0,0,0,0,0,0,0,0,0],[0,0,0,0,0,0,0,0,0,0,0,0],[0,0,0,0,0,0,0,0,0,0,0,0],[0,0,0,0,0,0,0,0,0,0,0,0],[0,0,0,0,0,0,0,0,0,0,0,0],[0,0,0,0,0,0,0,0,0,0,0,0],[0,0,0,0,0,0,0,0,0,0,0,0],[0,0,0,0,0,0,0,0,0,0,0,0],[0,0,0,0,0,0,0,0,0,0,0,0],[0,0,0,0,0,0,0,0,0,0,0,0],[0,0,0,0,0,0,0,0,0,0,0,0],[0,0,0,0,0,0,1,0,0,0,0,0],[0,0,0,0,0,0,0,0,0,0,0,0],[0,0,0,0,0,1,0,0,0,0,0,0],[0,0,0,0,0,0,0,0,0,0,0,0],[0,0,0,0,0,0,0,0,0,0,0,0],[0,0,0,0,0,0,0,0,0,0,0,0],[0,0,0,0,0,0,0,0,0,0,0,0],[0,0,0,0,0,0,0,0,0,0,0,0],[0,0,0,0,0,0,0,0,0,0,0,0],[0,0,0,0,0,0,0,1,0,0,0,0],[0,0,0,0,0,0,0,0,0,0,0,1],[0,0,0,0,0,0,0,0,0,0,0,0],[0,0,0,0,0,0,0,0,0,0,0,0],[0,0,0,0,0,0,0,0,0,0,0,0],[0,0,0,0,0,0,0,0,0,0,0,0],[0,0,0,0,0,0,0,0,0,0,0,0],[0,0,0,1,0,0,0,0,0,0,0,0],[0,0,0,0,0,0,0,0,0,0,0,0],[0,0,0,0,0,0,0,0,0,0,0,0],[0,0,0,0,0,0,0,0,0,0,0,0],[0,0,0,0,0,0,0,0,0,0,0,0],[0,0,0,0,0,0,0,0,0,0,0,0],[0,0,1,0,0,0,0,0,0,0,0,0],[0,0,0,0,0,0,0,0,0,1,0,0],[0,0,0,0,0,0,0,0,0,0,0,0],[0,0,0,0,0,0,0,0,0,0,0,0],[0,0,0,0,0,0,0,0,0,0,0,0],[0,0,0,0,0,0,0,0,0,0,0,0],[0,0,0,0,0,0,0,0,0,0,0,0],[0,0,0,0,0,0,0,0,0,0,0,0],[0,0,0,0,0,0,0,0,0,0,0,0],[0,0,0,0,0,0,0,0,0,0,0,0],[0,0,0,0,0,0,0,0,0,0,0,0],[0,0,0,0,0,0,0,0,0,0,0,0],[0,0,0,0,0,0,0,0,0,0,0,0],[0,0,0,0,0,0,0,0,0,0,0,0],[0,0,0,0,0,0,0,0,0,0,0,0],[0,0,0,0,0,0,0,0,0,0,0,0],[0,0,0,0,0,0,0,0,0,0,0,0],[0,0,0,0,0,0,0,0,0,0,0,0],[0,0,0,0,0,0,0,0,0,0,0,0],[0,0,0,0,0,0,0,0,0,0,0,0],[0,0,0,0,0,0,0,0,0,0,0,0],[0,0,0,0,0,0,0,0,0,0,0,0],[0,0,0,0,0,0,0,0,0,0,0,0],[0,0,0,0,0,0,0,0,0,0,0,0],[0,0,0,0,0,0,0,0,0,0,0,0],[0,0,0,0,0,0,0,0,0,0,0,0],[0,0,0,0,0,0,0,0,0,0,0,0],[0,0,0,0,0,0,0,0,0,0,0,0],[0,0,0,0,0,0,0,0,0,0,0,0],[0,0,0,0,0,0,0,0,0,0,0,0],[0,0,0,0,0,0,0,0,0,0,0,0],[0,0,0,0,0,0,0,0,0,0,0,0],[0,0,0,0,0,0,0,0,0,0,0,0]]},{"feature":[2,3,4,2,1,5,5,5,-2,-2,5,-2,-2,5,-2,-2,5,5,4,-2,-2,4,-2,-2,0,3,-2,-2,1,-2,-2,3,0,1,5,-2,-2,4,-2,-2,4,2,-2,-2,4,-2,-2,2,4,5,-2,-2,4,-2,-2,4,4,-2,-2,1,-2,-2,4,1,2,-2,-2,2,-2,2,-2,-2,2,5,5,1,-2,-2,5,-2,-2,1,1,-2,-2,1,-2,-2,0,5,2,-2,-2,2,-2,-2,2,5,-2,-2,1,-2,-2,0,2,5,1,5,-2,1,-2,-2,5,-2,-2,5,-2,5,1,-2,-2,1,-2,-2,1,2,5,1,-2,-2,1,-2,-2,1,-2,4,-2,-2,2,4,-2,-2,-2,2,4,4,4,-2,-2,1,-2,-2,-2,4,2,4,1,-2,-2,4,-2,-2,1,-2,4,-2,-2,4,2,-2,-2,2,-2,-2,2,5,4,-2,-2,5,0,5,3,1,-2,-2,4,-2,-2,-2,1,5,1,-2,-2,5,-2,-2,1,1,-2,-2,5,-2,-2,5,3,1,1,-2,-2,-2,-2,1,1,3,-2,-2,5,-2,-2,5,1,-2,-2,1,-2,-2,2,5,2,4,1,-2,-2,5,1,-2,-2,5,-2,-2,5,3,5,-2,-2,-2,-2,3,2,0,0,-2,-2,3,-2,-2,0,1,-2,-2,0,-2,-2,1,5,-2,4,-2,-2,1,2,-2,-2,-2,5,4,1,-2,2,4,-2,-2,-2,1,5,1,-2,-2,1,-2,-2,2,5,-2,-2,4,-2,-2,5,5,5,-2,3,-2,-2,2,-2,-2,4,3,1,-2,-2,1,-2,-2,4,2,-2,-2,5,-2,-2],"threshold":[2.5,2.5,28.5,0.5,9.5,37.5,22.0,11.5,-2.0,-2.0,32.5,-2.0,-2.0,42.5,-2.0,-2.0,23.5,15.5,21.5,-2.0,-2.0,17.5,-2.0,-2.0,2.5,1.5,-2.0,-2.0,61.5,-2.0,-2.0,1.5,1.5,12.5,29.5,-2.0,-2.0,8.5,-2.0,-2.0,17.5,1.5,-2.0,-2.0,21.0,-2.0,-2.0,1.5,22.5,20.5,-2.0,-2.0,23.5,-2.0,-2.0,1.5,0.5,-2.0,-2.0,25.5,-2.0,-2.0,29.5,64.5,1.0,-2.0,-2.0,0.5,-2.0,1.5,-2.0,-2.0,0.5,49.5,9.5,6.5,-2.0,-2.0,10.5,-2.0,-2.0,36.0,34.5,-2.0,-2.0,328.5,-2.0,-2.0,6.0,65.0,1.5,-2.0,-2.0,1.5,-2.0,-2.0,1.5,38.5,-2.0,-2.0,308.5,-2.0,-2.0,2.5,0.5,13.5,40.5,11.5,-2.0,38.5,-2.0,-2.0,9.5,-2.0,-2.0,14.5,-2.0,53.5,34.5,-2.0,-2.0,51.5,-2.0,-2.0,57.5,1.5,10.5,42.5,-2.0,-2.0,37.5,-2.0,-2.0,35.5,-2.0,3.5,-2.0,-2.0,1.5,17.5,-2.0,-2.0,-2.0,0.5,29.5,26.5,23.0,-2.0,-2.0,69.5,-2.0,-2.0,-2.0,28.5,1.5,26.5,65.5,-2.0,-2.0,27.5,-2.0,-2.0,61.5,-2.0,24.0,-2.0,-2.0,29.5,1.5,-2.0,-2.0,1.5,-2.0,-2.0,3.5,8.5,36.5,-2.0,-2.0,40.0,7.0,37.5,1.5,40.5,-2.0,-2.0,1.5,-2.0,-2.0,-2.0,358.5,34.5,348.5,-2.0,-2.0,35.5,-2.0,-2.0,361.5,360.0,-2.0,-2.0,20.5,-2.0,-2.0,47.0,0.5,351.0,336.5,-2.0,-2.0,-2.0,-2.0,329.5,316.5,2.5,-2.0,-2.0,85.5,-2.0,-2.0,54.5,330.5,-2.0,-2.0,335.5,-2.0,-2.0,5.5,14.5,4.5,36.5,42.0,-2.0,-2.0,12.0,8.5,-2.0,-2.0,13.5,-2.0,-2.0,12.5,0.5,11.5,-2.0,-2.0,-2.0,-2.0,2.5,4.5,2.5,1.5,-2.0,-2.0,1.0,-2.0,-2.0,10.5,302.5,-2.0,-2.0,11.5,-2.0,-2.0,50.0,52.5,-2.0,7.5,-2.0,-2.0,60.0,4.5,-2.0,-2.0,-2.0,27.5,15.5,14.5,-2.0,7.5,7.5,-2.0,-2.0,-2.0,17.5,12.5,4.0,-2.0,-2.0,8.0,-2.0,-2.0,7.5,15.5,-2.0,-2.0,36.5,-2.0,-2.0,71.5,70.5,28.5,-2.0,0.5,-2.0,-2.0,7.5,-2.0,-2.0,5.5,2.5,52.0,-2.0,-2.0,44.0,-2.0,-2.0,20.5,6.5,-2.0,-2.0,78.0,-2.0,-2.0],"children_left":[1,2,3,4,5,6,7,8,-1,-1,11,-1,-1,14,-1,-1,17,18,19,-1,-1,22,-1,-1,25,26,-1,-1,29,-1,-1,32,33,34,35,-1,-1,38,-1,-1,41,42,-1,-1,45,-1,-1,48,49,50,-1,-1,53,-1,-1,56,57,-1,-1,60,-1,-1,63,64,65,-1,-1,68,-1,70,-1,-1,73,74,75,76,-1,-1,79,-1,-1,82,83,-1,-1,86,-1,-1,89,90,91,-1,-1,94,-1,-1,97,98,-1,-1,101,-1,-1,104,105,106,107,108,-1,110,-1,-1,113,-1,-1,116,-1,118,119,-1,-1,122,-1,-1,125,126,127,128,-1,-1,131,-1,-1,134,-1,136,-1,-1,139,140,-1,-1,-1,144,145,146,147,-1,-1,150,-1,-1,-1,154,155,156,157,-1,-1,160,-1,-1,163,-1,165,-1,-1,168,169,-1,-1,172,-1,-1,175,176,177,-1,-1,180,181,182,183,184,-1,-1,187,-1,-1,-1,191,192,193,-1,-1,196,-1,-1,199,200,-1,-1,203,-1,-1,206,207,208,209,-1,-1,-1,-1,214,215,216,-1,-1,219,-1,-1,222,223,-1,-1,226,-1,-1,229,230,231,232,233,-1,-1,236,237,-1,-1,240,-1,-1,243,244,245,-1,-1,-1,-1,250,251,252,253,-1,-1,256,-1,-1,259,260,-1,-1,263,-1,-1,266,267,-1,269,-1,-1,272,273,-1,-1,-1,277,278,279,-1,281,282,-1,-1,-1,286,287,288,-1,-1,291,-1,-1,294,295,-1,-1,298,-1,-1,301,302,303,-1,305,-1,-1,308,-1,-1,311,312,313,-1,-1,316,-1,-1,319,320,-1,-1,323,-1,-1],"children_right":[174,103,62,31,16,13,10,9,-1,-1,12,-1,-1,15,-1,-1,24,21,20,-1,-1,23,-1,-1,28,27,-1,-1,30,-1,-1,47,40,37,36,-1,-1,39,-1,-1,44,43,-1,-1,46,-1,-1,55,52,51,-1,-1,54,-1,-1,59,58,-1,-1,61,-1,-1,72,67,66,-1,-1,69,-1,71,-1,-1,88,81,78,77,-1,-1,80,-1,-1,85,84,-1,-1,87,-1,-1,96,93,92,-1,-1,95,-1,-1,100,99,-1,-1,102,-1,-1,143,124,115,112,109,-1,111,-1,-1,114,-1,-1,117,-1,121,120,-1,-1,123,-1,-1,138,133,130,129,-1,-1,132,-1,-1,135,-1,137,-1,-1,142,141,-1,-1,-1,153,152,149,148,-1,-1,151,-1,-1,-1,167,162,159,158,-1,-1,161,-1,-1,164,-1,166,-1,-1,171,170,-1,-1,173,-1,-1,228,179,178,-1,-1,205,190,189,186,185,-1,-1,188,-1,-1,-1,198,195,194,-1,-1,197,-1,-1,202,201,-1,-1,204,-1,-1,213,212,211,210,-1,-1,-1,-1,221,218,217,-1,-1,220,-1,-1,225,224,-1,-1,227,-1,-1,276,249,242,235,234,-1,-1,239,238,-1,-1,241,-1,-1,248,247,246,-1,-1,-1,-1,265,258,255,254,-1,-1,257,-1,-1,262,261,-1,-1,264,-1,-1,271,268,-1,270,-1,-1,275,274,-1,-1,-1,300,285,280,-1,284,283,-1,-1,-1,293,290,289,-1,-1,292,-1,-1,297,296,-1,-1,299,-1,-1,310,307,304,-1,306,-1,-1,309,-1,-1,318,315,314,-1,-1,317,-1,-1,322,321,-1,-1,324,-1,-1],"value":[[0,0,0,0,0,0,0,0,0,0,0,0],[0,0,0,0,0,0,0,0,0,0,0,0],[0,0,0,0,0,0,0,0,0,0,0,0],[0,0,0,0,0,0,0,0,0,0,0,0],[0,0,0,0,0,0,0,0,0,0,0,0],[0,0,0,0,0,0,0,0,0,0,0,0],[0,0,0,0,0,0,0,0,0,0,0,0],[0,0,0,0,0,0,0,0,0,0,0,0],[0,0,0,0,0,1,0,0,0,0,0,0],[0,0,0,0,0,0,0,0,0,0,0,0],[0,0,0,0,0,0,0,0,0,0,0,0],[0,0,0,0,0,0,0,0,0,0,0,0],[0,0,0,0,0,0,0,0,0,0,0,0],[0,0,0,0,0,0,0,0,0,0,0,0],[0,0,0,0,0,0,0,0,0,0,0,0],[0,0,0,0,0,0,0,0,0,0,0,0],[0,0,0,0,0,0,0,0,0,0,0,0],[0,0,0,0,0,0,0,0,0,0,0,0],[0,0,0,0,0,0,0,0,0,0,0,0],[0,0,0,0,0,0,0,0,0,0,0,0],[0,0,0,0,0,0,0,0,0,0,0,0],[0,0,0,0,0,0,0,0,0,0,0,0],[0,0,0,0,0,0,0,0,0,0,0,0],[0,0,0,0,0,0,0,0,0,0,0,0],[0,0,0,0,0,0,0,0,0,0,0,0],[0,0,0,0,0,0,0,0,0,0,0,0],[0,0,0,0,0,0,0,0,0,0,0,0],[0,0,0,0,0,0,0,0,0,0,0,0],[0,0,0,0,0,0,0,0,0,0,0,0],[0,0,0,0,0,0,0,0,0,0,0,0],[0,0,0,0,0,0,0,0,0,0,0,0],[0,0,0,0,0,0,0,0,0,0,0,0],[0,0,0,0,0,0,0,0,0,0,0,0],[0,0,0,0,0,0,0,0,0,0,0,0],[0,0,0,0,0,0,0,0,0,0,0,0],[0,0,0,0,0,0,0,0,0,0,0,0],[0,0,0,0,0,0,0,0,0,0,0,0],[0,0,0,0,0,0,0,0,0,0,0,0],[0,0,0,0,0,0,0,0,0,0,0,0],[0,0,0,0,0,0,0,0,0,0,0,0],[0,0,0,0,0,0,0,0,0,0,0,0],[0,0,0,0,0,0,0,0,0,0,0,0],[0,0,0,0,0,0,0,0,0,0,0,0],[0,0,0,0,0,0,0,1,0,0,0,0],[0,0,0,0,0,0,0,0,0,0,0,0],[0,0,0,0,0,0,0,0,0,0,0,0],[0,0,0,0,0,0,0,0,0,0,0,0],[0,0,0,0,0,0,0,0,0,0,0,0],